,ABC transporters,AGE-RAGE signaling pathway in diabetic complications,AMPK signaling pathway,Acute myeloid leukemia,Adherens junction,Adipocytokine signaling pathway,Adrenergic signaling in cardiomyocytes,African trypanosomiasis,"Alanine, aspartate and glutamate metabolism",Alcoholism,Aldosterone synthesis and secretion,Aldosterone-regulated sodium reabsorption,Allograft rejection,Alzheimer disease,Amino sugar and nucleotide sugar metabolism,Amoebiasis,Amphetamine addiction,Amyotrophic lateral sclerosis,Antigen processing and presentation,Apelin signaling pathway,Apoptosis,Arachidonic acid metabolism,Arginine and proline metabolism,Arginine biosynthesis,Arrhythmogenic right ventricular cardiomyopathy,Asthma,Autoimmune thyroid disease,Autophagy,Axon guidance,B cell receptor signaling pathway,Bacterial invasion of epithelial cells,Basal cell carcinoma,Basal transcription factors,Base excision repair,Bile secretion,Bladder cancer,Breast cancer,C-type lectin receptor signaling pathway,Calcium signaling pathway,Carbohydrate digestion and absorption,Cardiac muscle contraction,Cell adhesion molecules,Cell cycle,Cellular senescence,Central carbon metabolism in cancer,Chagas disease,Chemical carcinogenesis,Chemokine signaling pathway,Cholesterol metabolism,Choline metabolism in cancer,Cholinergic synapse,Chronic myeloid leukemia,Circadian entrainment,Circadian rhythm,Citrate cycle (TCA cycle),Cocaine addiction,Colorectal cancer,Complement and coagulation cascades,Coronavirus disease,Cortisol synthesis and secretion,Cushing syndrome,Cysteine and methionine metabolism,Cytokine-cytokine receptor interaction,Cytosolic DNA-sensing pathway,DNA replication,Diabetic cardiomyopathy,Dilated cardiomyopathy,Dopaminergic synapse,Drug metabolism,ECM-receptor interaction,Endocrine and other factor-regulated calcium reabsorption,Endocytosis,Endometrial cancer,Epithelial cell signaling in Helicobacter pylori infection,Epstein-Barr virus infection,ErbB signaling pathway,Estrogen signaling pathway,Ether lipid metabolism,Fanconi anemia pathway,Fat digestion and absorption,Fatty acid biosynthesis,Fc epsilon RI signaling pathway,Fc gamma R-mediated phagocytosis,Ferroptosis,Fluid shear stress and atherosclerosis,Focal adhesion,Folate biosynthesis,FoxO signaling pathway,Fructose and mannose metabolism,GABAergic synapse,Galactose metabolism,Gap junction,Gastric acid secretion,Gastric cancer,Glioma,Glucagon signaling pathway,Glutamatergic synapse,Glutathione metabolism,Glycerolipid metabolism,Glycerophospholipid metabolism,"Glycine, serine and threonine metabolism",Glycolysis / Gluconeogenesis,Glycosaminoglycan biosynthesis,Glycosaminoglycan degradation,GnRH secretion,GnRH signaling pathway,Graft-versus-host disease,"Growth hormone synthesis, secretion and action",HIF-1 signaling pathway,Hedgehog signaling pathway,Hematopoietic cell lineage,Hepatitis B,Hepatitis C,Hepatocellular carcinoma,Herpes simplex virus 1 infection,Hippo signaling pathway,Homologous recombination,Human T-cell leukemia virus 1 infection,Human cytomegalovirus infection,Human immunodeficiency virus 1 infection,Human papillomavirus infection,Huntington disease,Hypertrophic cardiomyopathy,IL-17 signaling pathway,Inflammatory bowel disease,Inflammatory mediator regulation of TRP channels,Influenza A,Inositol phosphate metabolism,Insulin resistance,Insulin secretion,Insulin signaling pathway,Intestinal immune network for IgA production,JAK-STAT signaling pathway,Kaposi sarcoma-associated herpesvirus infection,Legionellosis,Leishmaniasis,Leukocyte transendothelial migration,Linoleic acid metabolism,Lipid and atherosclerosis,Long-term depression,Long-term potentiation,Longevity regulating pathway,Lysine degradation,Lysosome,MAPK signaling pathway,Malaria,Maturity onset diabetes of the young,Measles,Melanogenesis,Melanoma,Metabolism of xenobiotics by cytochrome P450,MicroRNAs in cancer,Mineral absorption,Mismatch repair,Mitophagy,Morphine addiction,NF-kappa B signaling pathway,NOD-like receptor signaling pathway,Natural killer cell mediated cytotoxicity,Necroptosis,"Neomycin, kanamycin and gentamicin biosynthesis",Neuroactive ligand-receptor interaction,Neurotrophin signaling pathway,Neutrophil extracellular trap formation,Nicotine addiction,Non-alcoholic fatty liver disease,Non-homologous end-joining,Non-small cell lung cancer,Notch signaling pathway,Nucleotide excision repair,Olfactory transduction,One carbon pool by folate,Oocyte meiosis,Osteoclast differentiation,Other types of O-glycan biosynthesis,Ovarian steroidogenesis,Oxidative phosphorylation,Oxytocin signaling pathway,PD-L1 expression and PD-1 checkpoint pathway in cancer,PI3K-Akt signaling pathway,PPAR signaling pathway,Pancreatic cancer,Pancreatic secretion,"Parathyroid hormone synthesis, secretion and action",Parkinson disease,Pathogenic Escherichia coli infection,Pathways in cancer,Pathways of neurodegeneration,Peroxisome,Pertussis,Phagosome,Phosphatidylinositol signaling system,Phospholipase D signaling pathway,Phototransduction,Platelet activation,Primary immunodeficiency,Prion disease,Progesterone-mediated oocyte maturation,Prolactin signaling pathway,Prostate cancer,Proteasome,Protein digestion and absorption,Protein processing in endoplasmic reticulum,Proteoglycans in cancer,Proximal tubule bicarbonate reclamation,Purine metabolism,Pyrimidine metabolism,Pyruvate metabolism,RIG-I-like receptor signaling pathway,RNA transport,Rap1 signaling pathway,Ras signaling pathway,Regulation of actin cytoskeleton,Regulation of lipolysis in adipocytes,Relaxin signaling pathway,Renal cell carcinoma,Renin secretion,Retrograde endocannabinoid signaling,Rheumatoid arthritis,Ribosome,Ribosome biogenesis in eukaryotes,Salivary secretion,Salmonella infection,Serotonergic synapse,Shigellosis,Signaling pathways regulating pluripotency of stem cells,Small cell lung cancer,Sphingolipid metabolism,Sphingolipid signaling pathway,Spinocerebellar ataxia,Spliceosome,Staphylococcus aureus infection,Starch and sucrose metabolism,Synaptic vesicle cycle,Systemic lupus erythematosus,T cell receptor signaling pathway,TGF-beta signaling pathway,TNF signaling pathway,Taste transduction,Th1 and Th2 cell differentiation,Th17 cell differentiation,Thermogenesis,Thyroid cancer,Thyroid hormone signaling pathway,Thyroid hormone synthesis,Tight junction,Toll-like receptor signaling pathway,Toxoplasmosis,Transcriptional misregulation in cancer,Tuberculosis,Type I diabetes mellitus,Type II diabetes mellitus,Ubiquitin mediated proteolysis,VEGF signaling pathway,Vascular smooth muscle contraction,Vasopressin-regulated water reabsorption,Vibrio cholerae infection,Viral carcinogenesis,Viral myocarditis,Viral protein interaction with cytokine and cytokine receptor,Vitamin digestion and absorption,Wnt signaling pathway,Yersinia infection,alpha-Linolenic acid metabolism,cAMP signaling pathway,cGMP-PKG signaling pathway,mRNA surveillance pathway,mTOR signaling pathway,p53 signaling pathway
Camptothecin,0.0,0.012177112647681293,-0.11962361074784039,0.005104143904788248,-0.09027479216243098,0.04660591133679694,-0.05789928900384162,0.046261971012741425,0.0,-0.01607467722371938,0.0034758095791705967,-0.022871762493264794,0.018852435697954514,-0.12258663615848836,0.0,0.030808695367906376,0.05468453407075359,-0.05193017595751515,-0.0195223978563731,-0.09058124826124914,0.020054589984789678,0.004109659893775272,0.0,0.0,0.0,0.0,-0.00024626545146385834,-0.1587274533840098,-0.2568668336528116,-0.13948047307689013,-0.05539326112909247,-0.12312469608969744,0.0,-0.029650442110962794,0.0,0.08505965122648033,-0.05679451888511701,-0.016501499052387028,0.11357129178211436,-0.0739472849934164,0.0,0.01084145003167551,-0.026374533566114907,-0.03742812741588376,0.03718068885391075,0.07905161228943813,0.0814180186212237,-0.13596241578050483,0.0,0.017276652005394563,-0.18066659684196373,-0.04645707713996742,-0.019725981944111688,-0.022829672521377044,0.0,0.10689293785913666,-0.06922943740887476,0.0,0.05951919954014109,-0.0059326024379244766,-0.20235403077377348,0.0,0.026797897496211996,0.0203564585653017,0.0,-0.04229035997932254,0.0,0.012237342242564045,-0.00710124544945222,0.0040270063654927486,0.03254098600074177,-0.010468421111660443,-0.04666523195143951,0.17344471841000605,-0.004408780167715362,0.012201804948868578,-0.11522949864149788,0.0,0.044790235832270715,0.0,0.0,-0.02602958716798659,-0.0951960948403801,0.0018575099138752825,-0.014418401599234165,-0.1180311857072728,0.0,-0.13158195313583917,0.0,0.02740953531478691,0.0,0.03532137803513496,0.01734766141489235,-0.20348793579940228,-0.10510173612172748,-0.03792568814917908,-0.018049660825434855,-0.00710124544945222,-0.00812740356609259,-0.00812740356609259,0.0,0.0,0.0,0.0,-0.08361139303763353,0.18253495755035143,0.018852435697954514,0.011801333417188692,-0.0286750110185109,-0.12044710464639981,0.0,0.1228332715390561,-0.1278307474255559,-0.12464349931101296,-0.156656942140533,-0.05832050141639597,0.03367123307230276,0.09647172350069538,0.028258306406247054,0.06473911654603189,-0.1780933746922457,0.11097184848779594,-0.02276658943241206,0.058942110457577364,0.059507538044808586,0.07874009629574298,-0.08422658617018464,-0.04196533132472105,-0.11462366898276173,0.046617889564392306,-0.2473887750808108,0.0,-0.022096507969507524,0.005556503277251842,0.0636859256780859,0.017973246486549924,-0.021840579438572285,0.0,-0.0021407791372816346,-0.003787984523770058,-0.006269182896660215,-0.017450576713110587,-0.0028216549019604593,0.0,0.2203090728170087,-0.009618085163903426,0.0,-0.16157533441650923,-0.1552742728477561,-0.11026240593111072,-0.011331662262743972,0.03151132471233498,0.0,0.0,0.10587229730272446,0.0002863319850306238,-0.08781318650454252,0.026012450475677698,-0.14567713580374542,0.008697517420323243,0.0,-0.012623724201415758,-0.06803033159171791,-0.11543087966606955,0.0,0.06910831423353116,0.005666890321799316,-0.02503566808211873,0.0006151648746080653,0.003038611400407672,-0.01006187389989456,0.006334019478078698,-0.00999590694377127,-0.10461503480180298,0.0,0.004109659893775272,0.0,0.009436551071053846,0.012407085924750401,-0.12755950943531819,-0.02300542039863874,0.08182437019774354,0.02740953531478691,0.014910994178400272,0.04838540718128216,0.06566342074012785,0.021729918791357765,0.025674880936654633,0.0,0.10542912418352231,-0.009618085163903426,-0.022683199576026727,-0.1290492516830832,0.0,-0.16086301193335167,-0.008980451892569116,-0.15706732163447798,0.005610368299442009,-0.07162544988737078,-0.20173118384232797,0.0,0.0,0.004134973179999302,-0.01653205741663978,0.0,0.0042304168132917515,0.010564436291370449,0.0,0.1390431941370159,0.0043065985015621755,-0.02171012396560839,0.05725486024632439,-0.05864729079293706,-0.10462327748775496,0.13670699511326095,-0.09019444594215878,-0.024072504019913184,0.06653792527172839,0.03722265480709314,0.0,0.0,0.02740953531478691,0.13432403290101325,-0.0034624592548556533,-0.1383166118232358,-0.18036419677142562,-0.06479573286089126,0.0,-0.09588505387360069,0.008578208619159576,-0.0195223978563731,0.0,0.0,0.0,0.0,-0.15710133814634714,0.021706103967257813,0.184772698685723,0.0,0.07716026343418794,0.05445565285550854,0.027079464513897908,0.026210839731173753,-0.1662740250231676,0.03758106231486849,0.09680526945647232,0.08359005840442503,0.05574911517140811,0.08149486832263245,-0.023888209237067776,0.018852435697954514,-0.060482578826784185,-0.003610021003319297,-0.08190124735400761,-0.009664108044217126,0.0,0.02740953531478691,0.02417430651293323,-0.05810685299240978,0.012434156323237364,0.0,-0.08648644890470772,-0.05800836260086736,0.0,0.004982734507948483,-0.0504299430937412,-0.007229917411580706,-0.2006344064892532,-0.031910256760682015
Vinblastine,0.0,-0.029723218163948947,0.0,0.031651281070282915,0.01551227620123976,0.09998802234956683,0.0053700898961406476,0.0062265104093677665,0.0,-0.04922609651595079,0.02740953531478691,-0.009664108044217126,0.0030777713463190164,0.04091102934890554,0.0,-0.009537515014712067,0.0354761798211482,-0.012100738223326336,0.0,-0.02385745743396686,0.11587031765697417,0.004109659893775272,0.0,0.0,0.0,0.0,0.0030777713463190164,0.029728925881942224,-0.08987961375350267,0.011543187092924451,-0.034893927103811055,0.0018575099138752825,0.0,-0.021874151337637815,0.0,0.03848316630083448,0.10396328243451158,0.03676591516538734,0.06727531157767364,0.0,0.0,-0.020115684130464037,0.02779953900941908,-0.009522067638339573,0.0685098278070845,0.09171189014243118,0.11007164285271182,-0.00622079598795886,0.0,0.1035990827726154,-0.07354047272603186,0.04764084911667812,-0.009664108044217126,0.0,-0.0423098429386784,0.016452197287579018,0.201026994065783,0.0007581176210738704,0.1418345137767151,0.0,-0.10621115930463354,0.0,-0.0010673407749551074,0.013706191632365208,0.02877973097786845,0.03914943069418743,0.0,0.09111635595573943,0.02239523800430233,-0.034893927103811055,0.03254098600074177,0.05221088635140434,0.09866721758881615,0.1709395635983437,0.10456175701000417,0.2600231838135342,-0.038109824438185176,0.0,0.0004394419954235876,0.0,0.0,0.01480907704040351,8.028571491666171e-05,0.0018575099138752825,0.029814559791916474,0.09338845022494607,0.0,0.07979988217976845,0.0,0.02740953531478691,0.0,0.03538446112409994,0.02740953531478691,0.05959083040576883,0.003506183632314001,-0.008385552781217729,-0.018049660825434855,-0.01991460493437607,0.0,0.0,0.0,0.0,0.0,0.0,-0.009664108044217126,0.07658793726850244,-0.0010673407749551074,0.055138986201244064,0.06925957343951483,0.0,-0.004145112121274124,0.08898163557082145,0.037569207566179826,0.07425301653333886,0.0934626525908869,0.1331977338429357,0.0004394419954235876,0.007533715316235324,0.10444943683710488,0.11943489380562196,-0.062072265884740144,0.061007674291273954,-0.004145112121274124,0.13087895752012313,0.017475874293559148,0.10924630249609094,-0.02057278039930696,0.0,0.1055873039874265,0.02740953531478691,0.028041031032846657,-0.004145112121274124,0.08660719134651941,0.07793506066858916,-0.004410771539033569,0.009194705542394028,-0.03835273964354836,0.0,0.08138561750764453,-0.021816561201163882,-0.03020211398238161,0.0001503873979492446,-0.001707122515926038,0.0,0.299945970605262,-0.02426079625173816,0.0,0.07440656521358383,-0.009664108044217126,-0.023903351682472908,0.0,0.1418408331466205,0.0,0.02877973097786845,0.05908029955542833,-0.006790533092231425,0.04692843971547425,0.12495182135305755,-0.10820804557396595,0.0679728828315663,0.0,-0.04338037967402141,0.09454833515869375,-0.017328792295787217,0.0,0.10977817089736533,0.0,0.05388006610089023,0.0,0.02877973097786845,0.0,0.0,-0.014650597905000961,0.03981465122543503,0.0,0.004109659893775272,0.0,0.01805424981284226,0.04360010453853829,0.11002787539428574,0.01678432060808578,0.10652678653996785,0.02740953531478691,0.01793625684627715,0.061007674291273954,0.022727690887466047,0.18170637592638153,0.06622358188338426,-0.0423098429386784,0.026718921933129434,0.0,0.02740953531478691,-0.0175304783343257,0.0,-0.06965863375619587,-0.015440819365475913,-0.013294740522155256,0.04754940866592705,0.03286090157241201,0.03637249221689929,0.0,0.0,0.05705817548181247,0.05821710682196801,0.0,0.015318372927040282,0.02239523800430233,0.0,0.11264255936773744,0.0,0.009731920581174414,0.1117779530429626,-0.060624381916585944,-0.011577291344920184,0.07965553675803672,-0.032773899228371775,-0.031149369097175233,0.06653792527172839,0.0011596971118415858,0.0,0.0,0.02740953531478691,0.18525712118546775,-0.015614912411802408,0.12067695282483466,0.053080583015693204,0.07648224322837588,0.0,0.0009796357155833421,0.08446771079659939,0.023501545422647235,-0.020115684130464037,0.0,0.0,0.0,0.02057555281206918,0.035666724153148255,0.10934765330564533,0.0,0.05852580105072256,0.0692184181555989,0.015034197940357773,0.01092017799498605,0.04594467705377835,0.02740953531478691,0.12150459431578055,0.07820706107614207,0.1300708744373201,0.055783444264676976,0.014911113957364336,0.0030777713463190164,0.0499378779489272,0.056012516573332054,0.0010941970086981914,-0.012072167442030097,0.0,0.02740953531478691,-0.027588905835867792,-0.06564288357242744,-0.004145112121274124,0.0,0.20529216281305906,0.01484237251382346,0.0,0.005604517471800281,-0.09243377704669747,0.0,-0.005294341270556403,0.02876186471726506
Cisplatin,0.0,-0.4892948561070461,-0.3780425024461109,-0.04857624974574054,-0.00500305558082937,0.07052978041625427,-0.28079714119778526,-0.06282962991709777,0.03698512869941391,-0.1157807476106387,-0.2907466262436767,-0.15698795598527943,0.009572019193781709,-0.089058532577171,-0.008875137612762882,-0.2812858132843616,-0.06505496719826684,-0.08498304449779295,-0.02187003109230607,-0.28063973386535995,0.3170384681569061,0.012843459246105575,0.013971221121300826,0.001729614952561104,0.08143880055697462,0.004860817962603799,0.018367537809814545,-0.3317836452202582,-0.37461702821188697,-0.40367473332003423,-0.08439527431730316,0.23274612915976373,0.02826504374654963,0.020088274660849812,-0.07636257089860916,0.020911971163050852,0.1433220481437046,-0.049955077187619726,-0.049884180644741205,-0.3096952553558145,0.015786636732655776,0.06590809197831558,-0.027856189400755897,-0.40801977576320486,-0.14588384125432594,-0.1800611925525711,-0.11727435853908126,-0.38913542005291285,-0.026199341430721352,-0.170446803786208,-0.4928289074094268,-0.0732822555136154,-0.2085085923153874,-0.08319274167050444,0.018878166992120637,-0.07111420401540273,-0.015042237119652056,0.0098823264848784,-0.0433468391365293,-0.22436347449654204,-0.28391735557144293,-0.021058167564446947,0.0335092532872415,0.08466303204615093,0.07798749590149145,-0.33562789277566285,-0.015606071424770634,-0.27873409004311406,0.04473321656283177,-0.04742933883048224,-0.12912597255176275,0.09079570929141378,-0.09808721354136175,0.31212421840275745,-0.05740342750240003,-0.04273410103207421,-0.430609714993217,-0.013510658378529551,0.1465788021369862,0.008733799352330303,0.0029114184201170716,-0.21902162153912033,-0.3065999286355495,0.03588721544957769,-0.023143174034525957,-0.17830694798493052,0.0,-0.5218771816464669,-0.008875137612762882,-0.06400108160612439,-0.008875137612762882,-0.18387654059675157,-0.1455197836618698,-0.0003775593196922635,-0.22405500755579189,-0.40075707071679534,-0.2604701354522754,0.03860870632723576,0.026720338027616464,0.013209679649086911,0.011479664054408275,0.028261999935824858,0.03110500199324292,0.00908292755006676,-0.2629249867330052,-0.09433792503117566,0.008989576306966571,-0.4870713369179289,-0.26581287509525114,-0.11346681115265264,-0.05757943150689826,-0.3825696307060759,-0.2132930565507285,-0.03075856358850379,-0.25086316881384885,0.3327746843037399,0.10261864188898195,-0.4215384408467699,-0.35055004935719797,-0.24077733486622876,-0.07419616396172368,0.005171505744089144,0.03254444792831002,0.11491780013563203,0.053949667953689516,-0.2597656263389822,-0.2506452849934342,-0.2308674261242166,-0.2733244419099471,-0.17280648842889232,-0.49083323393853556,0.0318338570115875,-0.1528033653180168,-0.25987792614598426,0.12225034195107325,0.008114660279704852,-0.24284304757799657,0.008733799352330303,-0.04612341083551829,-0.17168513480783357,-0.20007958418783078,-0.4055664289714386,-0.0950184431175018,0.029179583832309078,0.11957798603146248,-0.06113408666188115,0.039146413497891434,-0.34539768113763536,-0.20666066420246415,-0.21286646400345907,0.02554804652825296,-0.0333448037003348,0.0,-0.03854691512159668,0.05988716067276963,-0.08609960913310352,0.16760962554421327,0.2008707686743076,-0.3352179208594493,0.3410000953413385,-0.008875137612762882,0.06617078293646067,-0.22617452392224524,-0.403545112119214,0.0,0.06787730580102827,0.005666890321799316,-0.19645474738934088,0.09052062482386153,0.14138929150043134,-0.037727444133565546,0.006334019478078698,-0.06389943637826512,-0.26261416118924263,-0.003218353914061409,-0.11352332650200045,0.062290528499040175,-0.29352891170744316,-0.27418480717497684,-0.25991142761055297,0.08219590474822847,0.06293982529342595,-0.07407892973215809,-0.09922419727048694,-0.019750159061261277,0.3473965497771734,0.20324484499790163,0.16849047390671654,-0.011513213127851203,0.16904104179888907,-0.0929253258739529,-0.25169434950799247,-0.4130094097300257,0.025744829436660233,-0.5205850849159867,-0.0190034885999349,-0.38330858736999646,-0.16934953256801272,-0.22328253088485175,-0.25838884207946416,-0.01721900581309562,-0.08928627070642163,0.10386409532474002,-0.04392892202110057,0.03713713754858774,-0.008973401072980192,0.06250431821207142,0.032120995072532944,0.2318988856402127,0.08149335238785342,-0.31074074403472907,-0.28557354754743386,-0.1614975121103538,-0.4231645637859148,-0.4064807008527497,-0.19544094734878537,-0.27667951319956346,-0.0967191010832238,-0.04869231866724503,0.02393764255507576,-0.008199133903907047,-0.16594204147966518,0.4520005231662395,-0.175310978815126,-0.17157413360589832,-0.023373626178276107,-0.03627156560738273,0.017401915863371448,-0.2556099180866896,-0.269065951114081,0.045562918892287904,0.01397011309094056,-0.0058838479368315925,0.020096656282242317,-0.012358187850491822,-0.2843969444710738,0.12565815449921705,0.2774826060691323,-0.1168253989468715,0.043434395265675045,-0.04041576101118754,-0.31685872005453314,0.26000697194821454,-0.4497913228011894,-0.20353827572983085,0.15016657157247035,-0.07994328920289119,0.23056416344382405,0.1404956303998841,-0.07805804899220409,0.017257378414439573,-0.18783303679764207,0.047252857415773036,-0.27232201651861293,-0.1288633992135034,-0.12292226383495414,-0.09148209462239754,-0.2362995743539977,-0.07184007127512455,0.1304160075260521,0.0,-0.16083695305565388,-0.33922371871199036,0.008733799352330303,-0.16145358354312297,-0.4312880188370309,0.02169857991425575,-0.15583979946575627,-0.03506357129015017
Cytarabine,0.0,0.016109953396775872,0.015543498014071065,-0.05571877470133465,-0.02944407512708099,-0.00036373854402991894,-0.0653709134032808,0.03218653616122948,0.0,-0.0730512645412289,0.009055725387486308,0.03252149863582768,0.027275922895017297,-0.01875261615768422,0.0,0.018955455163970885,0.0354761798211482,-0.09143582665857597,-0.011098910659310316,0.01620216590034939,0.08243458311585589,0.004109659893775272,0.03104982788192495,0.03104982788192495,0.012986877731130969,0.008423487197062785,0.018852435697954514,-0.06409630562745504,-0.011999160706077157,-0.023886407760532358,-0.0018132175465896852,0.1321069470112877,0.0,-0.029650442110962794,-0.00865250342521808,0.033331862409376904,0.04178925637422754,0.007698187178650414,0.02266034117505371,-0.018353809927300603,0.0,0.02382832776280648,0.025981785168403694,-0.0016258058537336525,-0.07788456686559417,0.05316428074049125,-0.00042633051580178404,-0.0716500935171472,0.0,-0.0010860332637148643,-0.16319949514179377,0.01560619851794925,-0.02801791797151773,-6.308308896498239e-05,-0.013242828080412307,0.028504466577213502,0.012825573345153175,0.0,0.07199118801274176,-0.018353809927300603,0.019452108990268314,0.0,0.09678101316536933,-0.014791725023567506,0.0,0.018757727658617707,0.021410364928193752,0.01570437054662635,0.0027302194479114084,-0.005154110917297224,0.014187176073441166,-0.004010715784462942,0.09842976451708328,0.09555659483282516,0.049520310579900494,0.05262977675601802,-0.07600929093051419,0.0,0.015825836873995466,0.0,0.0,-0.040757289441870265,0.0023222328745992216,0.0018575099138752825,0.08438789687491664,-0.021454000032300233,0.0,-0.0018908565311520405,0.0,0.025596317768197225,0.0,-0.02558134950864005,0.009055725387486308,0.03070936749373896,0.016291532331595138,-0.03539186613373641,-0.03640347075273546,-0.010512608632500899,0.0,0.0,0.0,0.0,0.005822895751673161,0.0,-0.04693593708785817,0.022490058640929976,0.023130810773743175,-0.04207984894029374,0.008783697992909253,0.03592420446841521,-0.04058774928633599,0.035320421736066004,0.098536855054936,0.07304147506083546,0.02685660192119663,0.0769043002435137,0.015825836873995466,-0.014699766683419881,0.05775715821992354,0.0028854777438831313,0.04907987925832274,0.02812697723452215,0.01726525280691963,0.06872771823163584,0.06167761539958469,0.004078306474141889,0.03472713683178809,-0.01618248721221078,0.038234285793349365,0.0004032219622682274,-0.05865666821921495,-0.02673577133873764,-0.004780012557943638,0.07141207179636996,0.018123611948189827,0.018998168249405298,0.010962022473056672,0.0,0.052426690987894584,-0.03494959616904182,-0.055321489869075896,-0.09378360399934586,-0.001707122515926038,0.0,0.06382872850796924,-0.005339710088114765,0.0,0.008854743507766036,-0.1002184297678249,0.0010689886223173382,-0.011331662262743972,-0.007944674724553099,0.0,-0.011362199796823961,0.09913482408450468,-0.00997711642692185,-0.014287678602707764,-0.015679402335761206,-0.06147164657667163,0.029039377187503074,0.0,-0.04338037967402141,-0.09189597783209567,-0.06401697576459554,0.0,0.10415783911587037,0.0,0.10588342157309998,-0.01275467183091378,0.0,0.0,0.006334019478078698,-0.031399887530488536,-0.05655705212861323,0.0,0.004109659893775272,0.0,0.07033142925481115,-0.024326776491125482,-0.10698435302623673,0.01678432060808578,0.14958262612006215,0.009055725387486308,-0.008482762463767066,0.03546057067545782,0.04278484701612617,0.06732530290383526,0.0028149955913359444,-0.013242828080412307,-0.009863497061985764,0.0033687925672275434,0.011227048102576132,-0.10121055302928866,0.0,-0.045790410052230994,-0.015440819365475913,-0.0784001992000229,-0.02203944541864626,0.01051467145376942,-0.05120022988715818,0.0,-0.008522903484524768,-0.030676075589472135,0.16144067920267047,0.0,0.010259773719241283,0.020395901188734078,0.0,0.07743221316253648,0.0,-0.04878481200911238,-0.05251731409247432,-0.024851781170936886,-0.011577291344920184,0.059061997559689106,-0.012986103467067094,-0.04950317902447583,-0.008874060137384685,0.002485362767312477,0.0,0.0,0.009055725387486308,0.07871160037761908,-0.04073428829849669,-0.02383731655958119,0.010475203982805043,0.06768078326275423,0.0,-0.08904455304315206,-0.0031312662180228,-0.0195223978563731,0.0,0.0,0.0,0.008423487197062785,-0.07547507124495367,0.08047051909071228,0.055373323648129115,-0.018353809927300603,0.011533422758456124,0.0043734199239255245,-0.01607081278149177,-0.009686997098949142,-0.029187439216107912,0.009055725387486308,0.14737564146415683,0.05266565496983734,-0.00633134977260027,0.07497426434618014,-0.030806400928595455,0.027275922895017297,-0.031315161905811725,-0.017030672980706898,0.011412788227693016,-0.02801791797151773,0.0,0.02740953531478691,-0.01684195885061942,0.01317478782437385,0.010197750164751475,0.0,-0.07241961724971961,-0.029209522869637565,0.0,0.04354060348040153,-0.055526994501554926,0.0,-0.03854545279409036,0.022399788456831108
Docetaxel,-0.026746614066898124,-0.13171626012570706,0.039532545359435844,-0.012633051760804212,0.029444004468906375,0.03135126296046499,-0.10801486059544882,-0.0015766066779146475,0.0,0.004667728826054261,-0.02470741745165782,-0.11149740792875809,0.027275922895017297,-0.020521047988107458,0.0,-0.07985451728626014,-0.008255220164078803,-0.034512302539321145,0.008423487197062785,0.012888506908327805,0.12234227977955577,0.004109659893775272,0.0,0.0,0.0,0.008423487197062785,0.018852435697954514,-0.13298985449087614,-0.04333490877890535,-0.06913242464396922,-0.07356973309561167,0.028401431123751375,0.028969205260040768,-0.026379545282050557,0.02704986941590448,0.053533465951245515,0.05818615769025415,-0.026959338002974655,0.08038386180226074,-0.09297778843407799,0.0,0.0,-0.029166836292785943,-0.09824390692484253,0.016675075738180473,-0.011786478254986082,0.0031033648223810165,-0.07732326610998354,-0.026746614066898124,-0.04143187588616268,-0.21103381706259547,-0.05324265958769377,-0.061781060810661856,0.0,0.0,0.028504466577213502,-0.009007065334005115,0.0,-0.04014347776202704,0.0,-0.04640089366704745,0.0,0.11387392999888388,0.00790715716836036,-0.0071661021611139075,-0.11169072204670581,0.008423487197062785,-0.04326144131598175,-0.006208373938820547,-0.034893927103811055,-0.019575966765702963,-0.026659213787314756,0.05331146346809213,0.07034927352024074,-0.084908014997207,0.016301995199952846,-0.08430750477635617,0.0,0.005008805787429354,-0.026746614066898124,0.0029114184201170716,-0.06450598657246212,-0.08529887566805525,0.0018575099138752825,-0.07925211192394889,-0.04375004456581018,0.0,-0.07043059222779749,0.0,-0.02470741745165782,0.0,0.015682048929554514,-0.02470741745165782,0.004833092773703416,-0.08503512446415402,-0.018554023864323928,-0.061781060810661856,-0.011331662262743972,0.0,0.0,0.0,0.0,0.0,0.0,-0.09763689122118273,0.0023306988990684906,0.023130810773743175,-0.10872448536988893,-0.09383199780323154,-0.01628555981236439,0.004278375075788661,-0.14995412877222136,0.046043137797520034,-0.04996595779450006,-0.0376622123758443,0.05805518524059394,0.009220440958597002,-0.10737948284327775,0.006564007125793166,-0.006256199213080715,-0.015676990747481086,0.09412963900757713,0.004278375075788661,0.03494205425421655,0.03516250257518933,-0.07442376456975407,0.0730258812052176,-0.04971634711809624,-0.04056040807161359,-0.02470741745165782,-0.04146982650147184,-0.004145112121274124,0.020982700062427556,0.05738288814728685,0.07918250933458046,-0.024304837598509602,-0.07227427500808292,0.0,0.12451536071744843,-0.050595912004682234,-0.02936652023876255,-0.01881979682252055,0.0,0.0,0.0728483552274584,0.004278375075788661,0.0,-0.038753810026333484,-0.02936652023876255,-0.04754525331892303,-0.011331662262743972,-0.07423156008420737,0.0,-0.004505393944412743,0.020451428453730287,-0.055632728772828204,-0.037507763036681754,0.0048105559582344495,0.04102816365888541,0.1017068799477252,0.0,-0.04338037967402141,-0.11182531185227514,-0.07324660637842077,0.0,0.19449738716910214,0.005666890321799316,0.0204534766622341,-0.01994011747022888,0.02947261710305738,0.0,0.006334019478078698,-0.05167730591894571,-0.015665269969999153,0.0,-0.01711973187214441,0.0,0.06704978854978923,-0.005853918678582497,-0.0661455176622756,0.09828375493301322,0.0694571311719709,-0.02470741745165782,0.0006617464914375325,-0.01370990671105455,0.1809526394086396,0.09446123347245647,0.002165784036530371,0.0,0.0374891253404768,0.0,-0.07442376456975407,-0.03317665572208387,0.0,-0.10534401434142421,0.0,-0.09363277232305738,-0.0727491735033307,-0.01726445931199192,-0.13908626530043902,0.0,0.0,-0.03959117214973192,0.011731277425609999,0.0,-0.003802107991414096,0.011457307802002123,0.0,0.03789021902498971,0.0,-0.0493700035756567,-0.023761529869332908,-0.03679189425904922,-0.07984766232734035,-0.00176107926598147,-0.049833961265350585,-0.022763816315957506,-0.057671400916886585,0.03253273380688108,0.0,0.0,-0.02470741745165782,0.09470750074084615,-0.023164871449401075,-0.06948593750136912,-0.07739929514866543,-0.09951824990806045,0.0,-0.13058174820903753,-0.09297778843407799,0.0,0.0,0.0,0.0,0.008423487197062785,-0.036001519995248615,-0.02865015616194125,0.02521205712064336,0.0,-0.03207068470791872,0.013153850979127689,0.0439741654999206,0.09845345624032889,-0.08635021920112118,-0.02470741745165782,0.0715348622521228,-0.030638913952940598,-0.0475880702943419,0.08646116268471452,-0.01969194874716252,0.027275922895017297,-0.0783665032800375,-0.05293978859973002,-0.09669369579731933,-0.017028504685635083,0.0,0.0,-0.07863769506879123,0.059265560378021304,0.09502149430092936,0.0,0.04462562777361362,-0.09641455866593747,0.0,-0.0729920734404767,-0.03879777364117679,0.0,-0.11044279579003961,0.08641297830319448
Gefitinib,0.0,-0.1266812268426718,-0.13054569955841772,0.009514068664408314,-0.05925435683360488,0.11492119297276203,-0.25078835402101896,0.05666449806534491,0.0,-0.028155064778642182,-0.13238425088103828,-0.061249047095947855,0.011501258543381802,-0.17277765803592332,0.0,-0.04130425461360037,-0.034560429749030785,0.02265448534652404,0.021876377624446868,-0.12152979462421175,0.03782461789802053,0.004109659893775272,0.0,0.0,0.012741489217951986,0.008423487197062785,0.0030777713463190164,-0.2019637411017391,-0.43411790541901457,-0.17499995451918512,-0.08693892295106623,-0.09045334611948799,0.04670036687094696,-0.029650442110962794,-0.06274122541636952,0.13332742910328804,-0.10785826566990854,0.004228046829433205,0.1321563202037388,-0.19473841297614344,0.0,0.032749199813541165,-0.03758072867764183,-0.1675398510078668,-0.03890420038367653,-0.03210037623729185,-0.040285269283535576,-0.2198032779574643,0.0,-0.07239328728222964,-0.36199953026926607,-0.036647983340692476,-0.12514892573499026,-0.004610847701973995,0.0,-0.0483315775020809,-0.14685962216758777,0.0,0.05628244541689915,-0.06274122541636952,-0.2380081892228172,0.0,-0.04438125068554456,0.1083908218448021,0.03327739475283597,-0.19929195714259415,-0.043219906741915226,-0.1684611946385982,-0.012563773106938701,0.012741489217951986,-0.012446535208451556,0.08218865949092131,-0.15488125032617361,0.21692594684715344,-0.038701393191678014,-0.18260150451395812,-0.2126317558977991,0.0,0.02181944263146425,0.0,0.0,-0.18818502054636332,-0.191662133082259,0.0018575099138752825,-0.18279829705914521,-0.3503748560787091,0.0,-0.16983115495521361,0.0,-0.019391203440996096,0.0,-0.06894513663159318,-0.034806264324932036,-0.15531607998741215,-0.16241872251227024,-0.16249493807042928,-0.054651629253410446,-0.012563773106938701,0.0,0.0,0.0,0.0,0.0,0.0,-0.1133120488963217,-0.07880829323765912,0.011501258543381802,-0.2235827791094137,-0.13640701062525135,-0.14100947949655748,-0.041491989244462055,-0.021686260519540337,-0.029779928654957405,-0.047675310276057696,-0.025701356218998866,0.03888629996217331,0.03475223542553245,-0.18966205811092857,0.11516731783825825,-0.11958120713039992,-0.10933475469016118,0.07899201382328255,0.018379675315997913,0.03829045683550692,0.05385848887647952,-0.09232588044633608,-0.10064782642838757,-0.08241152252580172,-0.08078366453594744,-0.044689671039176856,-0.16867215353454387,0.0,-0.11641381395806866,-0.08952750511865493,0.14719091061762413,0.04124193605017226,-0.010642247535349276,0.0,-0.005036462221056276,0.02571847786220388,-0.0846421243934258,-0.1432176122938128,0.0,0.0,-0.03945847572283492,0.026596215553573194,0.0,-0.15149355027218797,-0.17086218180170742,-0.13399798509691255,0.0,0.08613591366134062,0.007313662238179084,0.0009847999700394287,0.027341678907198217,-0.04262612428451564,0.009256690678553364,0.2054198333977786,-0.09742000914753576,-0.003473419118647047,0.0,-0.04338037967402141,-0.4049532841312659,-0.13347241941612234,0.0,-0.04402760555890982,0.0,-0.0681139182190818,0.013519234453935235,0.07063557120991329,-0.07814403870774081,0.006334019478078698,-0.08940710625689682,-0.3022318166237895,0.0,-0.08577559370593926,0.0,0.021908293446795058,0.002358561991717815,0.0437496733288506,-0.05592559409252929,0.06966264573388364,0.045163239521963106,-0.00789285955293627,-0.020603465472293275,0.08837609595733469,-0.004260806508800313,-0.05431173748057506,0.0,0.06936273307569545,0.022743406840913798,-0.03298570148540598,-0.2688412631420145,0.01452211784089593,-0.29287632447161,-0.02984556561918078,-0.2207727502424876,-0.19606443678418195,-0.10376723798075989,-0.19677973162251053,0.023790828070709265,0.0,0.04060371250826993,0.0470988603779409,0.0,0.0026060926359575813,-0.006229753628860003,0.0,0.17665088946645754,0.0,-0.10306382906599061,-0.11146934538493496,-0.1980350809445291,-0.2558835928435514,-0.08600119806715449,-0.2320319024548047,-0.11606467059546688,-0.00785212866449179,0.004494073977441402,0.0,0.031182713295589002,-0.024841087775317648,0.07526626334046503,0.006109462440642787,-0.11733719896700381,-0.10574125337919407,-0.04766718749135292,0.0,-0.1264061449999441,-0.07863888313136497,0.0036652074769004126,0.0,0.010768954164159015,0.0,0.008423487197062785,-0.2550303924018912,0.04800035607799437,0.02603242660344652,-0.06274122541636952,0.10885373828081027,0.06955869213438584,0.034160707890751464,0.042140036573239635,-0.15225267920927252,-0.017577985894406407,0.04234121068811399,-0.0033567365892259275,0.047853423894653475,0.09588910759708821,0.03647160742005494,0.011501258543381802,-0.10268925260538579,-0.024507796197189007,-0.07275395631388609,0.021395454437236144,-0.06274122541636952,-0.03533169010158261,-0.1299606655626032,-0.01027131922677088,0.013837602666235694,0.0,-0.0703133467374685,-0.16979237642090572,0.0,-0.2222309055708776,-0.08922371448590566,0.0,-0.23216784068033813,0.008890431599952085
Navitoclax,0.0,-0.07246185774283775,-0.013614713558339778,-0.049844032058545075,0.04373914652400138,0.0,-0.052387193372120854,0.0,0.0,-0.031070472273287193,0.0,-0.04971634711809624,0.0,-0.08594566561830154,0.0,-0.04971634711809624,0.0,-0.03697347904155626,0.0,0.029641682747379335,-0.08562478202674231,0.0,0.0,0.0,0.0,0.0,0.0,-0.1052940324747784,-0.06863436623443668,-0.06863436623443668,-0.04971634711809624,0.0018575099138752825,0.0,0.0,0.0,0.0068886712003445524,-0.040656353202661866,-0.06863436623443668,0.013344001101803789,-0.04971634711809624,0.0,0.0,0.050417211777595054,-0.016045831741751802,-0.05126153250366779,-0.04971634711809624,-0.09007877227371916,-0.08594566561830153,0.0,-0.06863436623443668,-0.12102155960655753,-0.016813403197099085,0.0,0.0,0.0,0.0,-0.08791564721282734,0.0,-0.04971634711809624,0.0,0.02394918040280971,0.0,0.0,0.0,0.0,-0.03508695609904311,0.0,0.0,0.0,0.0,0.0,0.025802069405767097,-0.04581519942957997,0.0,-0.06414439701658535,-0.08594566561830154,-0.12102155960655753,0.0,0.0,0.0,0.0,-0.06863436623443668,-0.04971634711809624,0.0018575099138752825,-0.10024603057634182,-0.08114188359923567,0.0,-0.030055794812573845,0.0,0.0,0.0,-0.01891801911634044,0.0,-0.06941279988410545,-0.040656353202661866,0.0,0.0,0.0,0.0,0.0,0.0,0.0,0.0,0.0,-0.06863436623443668,-0.01891801911634044,0.0,-0.06863436623443668,-0.1021035404902171,-0.01628555981236439,0.0,-0.1240172807725838,-0.04798652214466979,-0.014642080482009254,-0.08668982615965251,0.04855970186371977,0.0,0.0026692189018555977,-0.030675222760804935,-0.10746535518986823,-0.03366274627263321,0.0018575099138752825,0.0,0.0,0.012458068303963307,-0.04971634711809624,-0.04971634711809624,-0.04754502440300642,-0.04754502440300642,0.0,-0.08594566561830153,0.0,-0.027303793037602598,-0.030675222760804935,0.0,0.0,-0.04971634711809624,0.0,-0.10560784527599294,-0.031070472273287193,-0.031070472273287193,-0.0667768563205614,0.0,0.0,-0.015868961257608123,0.0,0.0,-0.05058819259989605,-0.01891801911634044,-0.04581519942957997,0.0,-0.060908030168585335,0.0,0.0,0.0016545414411422467,0.0,-0.033672142728513446,-0.033672142728513446,-0.08078681939138344,-0.052387193372120854,0.0,0.0,-0.1364753490765471,-0.04971634711809624,0.0,-0.04971634711809624,0.0,-0.0657710776883502,0.0,0.0,0.0,0.0,0.0,-0.04971634711809624,0.0,0.0,0.0,0.017183614443416026,-0.08424759906302726,-0.03400782465009224,0.0,0.002104615919241354,0.0,-0.06453964652906762,0.020572560557482685,0.0,-0.07146982829600672,-0.06990146122871874,0.0,0.0,0.0,-0.04754502440300642,-0.06863436623443668,0.0,-0.04971634711809624,0.0,-0.05487519334501434,-0.061868800275043,-0.032532732674680216,-0.08485839169989703,0.0,0.0,-0.052387193372120854,-0.04282767591775169,0.0,0.0,0.0,0.0,0.0,0.0,-0.06744281828957965,-0.04173416071594359,-0.06744281828957965,-0.04971634711809624,-0.06863436623443668,-0.08594566561830154,0.0,0.0,0.0,0.0,0.0,0.0,-0.1021035404902171,-0.031070472273287193,-0.08153097993273441,-0.04283229682866958,-0.043258023657888126,0.0,-0.11699272697759243,-0.04971634711809624,0.0,0.0,0.0,0.0,0.0,-0.06863436623443668,0.012458068303963307,-0.04971634711809624,0.0,0.0,0.012458068303963307,-0.01891801911634044,0.0068886712003445524,-0.03583406898772303,0.0,0.036101633559756464,-0.04971634711809624,-0.03883098895543155,0.020572560557482685,-0.05754603959903895,0.0,-0.04971634711809624,0.0,-0.07379321246135478,-0.012152453156946756,0.0,0.0,-0.03583406898772303,0.036101633559756464,0.0,0.0,0.050417211777595054,-0.04971634711809624,0.0,-0.0670276465019611,-0.005158846226918099,0.0,-0.07861549667629361,0.00645832346020812
Vorinostat,-0.026746614066898124,-0.35105783539576835,-0.1583794785058444,-0.17924704401987923,0.04988089084994821,0.040160571239965324,-0.20529048103399117,-0.0419428713497734,0.0,-0.12476944180533378,-0.08758130551920948,-0.1106025018202681,0.009572019193781709,-0.07670980634366832,-0.008875137612762882,-0.21569008224211417,-0.010647420930191172,-0.036676787086801436,0.04323114599833753,-0.20229139880343597,0.17492197750869953,0.012843459246105575,0.001729614952561104,0.001729614952561104,0.08794130255948657,0.004860817962603799,-0.0007311633396038281,-0.24165592807268002,-0.05001054810712945,-0.1837344383768846,0.01820639836547944,-0.020741984881485598,0.0,-0.021874151337637815,-0.08005626602428054,0.10198831538466271,-0.11212671952911384,-0.06761343715211166,-0.005159953971779305,-0.2211734811815541,0.019732781978758607,-0.0007493113531266728,0.01978987242407298,-0.13412894035928866,-0.010196280194834614,-0.10860785324481546,-0.06816749626627792,-0.29098375954410566,-0.04578312407973395,-0.21973546025670174,-0.32230572033230137,-0.016276617886892338,-0.09843615200921532,-0.0034061212545526327,0.024050872382211298,-0.011896224554253869,-0.209684858212072,0.0,0.04832587505044068,-0.10596803933769221,-0.1497499277662178,0.0,0.1288648800312443,0.09503584819112638,0.004044652811240001,-0.2987944015300436,0.004120157905390734,-0.23291798915588102,0.01721469023460601,-0.0032812356806657603,-0.09930055765317988,0.020198859559992156,-0.07118820959905447,0.19145347443794955,-0.029726742108795078,-0.2395959697108623,-0.3041262261757529,-0.013510658378529551,0.041390064073245136,-0.018012814714567824,0.0029114184201170716,-0.17061549275407317,-0.17337433837578684,0.0018575099138752825,-0.05401085498087816,-0.13270166312781395,0.0,-0.3467925650527559,-0.008875137612762882,-0.038496150809597,-0.008875137612762882,-0.0966309086194966,-0.11710094772009862,-0.11309795264029723,-0.16474188803265727,-0.2765895552847445,-0.17052327196222428,0.046281705092872105,0.0,-0.013510658378529551,0.0,-0.008875137612762882,0.0,0.0,-0.1744464552872453,-0.19018842655256768,0.008989576306966571,-0.4468307929733276,-0.1343718948774833,-0.19056734763037553,0.031366896357950105,-0.10347083543998825,-0.03722849466055406,-0.08874916849700887,-0.06688786664302586,0.13384878890376722,0.04942137921675073,-0.0985738044377878,-0.09482963963526661,-0.00685849588236904,-0.16034927016279818,-0.022314144846153666,0.07137880838317906,0.025687218763753655,0.06785921553055084,-0.252832113923531,0.012792359476479751,-0.12622167119544528,-0.20953014522504457,-0.09331153905765799,-0.44721307177537,-0.03100230094323942,-0.057739578345975116,-0.055217813053637,0.1543032460605577,0.031350314262371955,-0.09954779671344789,0.008733799352330303,0.08046993192860166,-0.031474189502141134,-0.10109618817090815,-0.19700235549319395,-0.009251076775612405,0.0,0.13400991706258164,-0.06204989618196468,0.0,-0.2604767283134313,-0.2310954683123593,-0.08132387036269174,0.02554804652825296,0.06310221061313079,0.0,0.004044652811240001,-0.006427616911646538,-0.09962695605710374,0.14642866337648627,0.13614130055323212,-0.05552486810915733,0.29714687508350773,-0.008875137612762882,-0.06247908082343978,-0.2293025888426937,-0.14982146289851112,0.0,0.030656369821929694,0.005666890321799316,-0.15762469275405644,-0.004187652277962575,0.010850500097520555,0.003684448562787046,0.006334019478078698,0.11193609523859911,-0.14068659743182646,0.005292107112443561,-0.06729410270528718,0.0534318137764082,-0.031662356817538574,-0.06524513626230438,-0.09873719937359227,0.05631218105304807,-0.05847223802558981,-0.026890893772154846,-0.08205856986188866,-0.05614070830615593,0.39354443952011037,-0.012973739181916924,0.0310883596926253,0.030796629810827196,0.12073556269815022,-0.014999351416825145,-0.13029271586554184,-0.15222475582274522,0.0,-0.20619179732600562,-0.018689385189016902,-0.2527530605048088,0.018965841131053946,-0.21616876118702316,-0.16559823200655807,-0.01721900581309562,-0.03150178784319729,0.023841288639066135,0.048670041676097744,0.0,-0.012135464285061046,-0.0019993368155682527,-0.005016142476054792,0.1456649026837617,0.010821916417758792,-0.05781625063091667,-0.00673863665375306,0.025848229505478652,-0.23064379062510443,-0.2900756425056787,-0.22058825989897812,-0.13667110505144697,-0.1264414734629663,-0.03656329287312112,0.02393764255507576,0.0,-0.08790864389013177,0.38948752293989597,-0.09994045973996103,-0.12427557958755935,-0.041219916250595415,0.0389981135322247,0.017401915863371448,-0.10030395992119764,-0.23271017995991414,0.01839938766972901,-0.020115684130464037,0.0040711083401111445,0.0,-0.012358187850491822,-0.2127888672609386,0.07904935503181106,0.13352695925513927,-0.07511541472933778,0.0691598684133158,8.951031430561723e-05,-0.1292822309869057,0.12684860951159754,-0.2292752511821181,-0.13564782008780452,0.08056137890684029,-0.03911923085860344,0.09110526105862381,0.06495991799924512,0.03175811756926994,0.017257378414439573,-0.14050050082942925,0.08376344572074504,-0.16505912856381982,-0.06358510512745781,-0.07140376259906245,-0.04399422728427554,-0.08651394097713842,0.001380667690550074,0.113134742751236,0.0,-0.03307231551510377,-0.11600423150505379,0.008733799352330303,-0.2194680147702149,-0.11880831869734718,0.0,-0.13992512663961987,-0.04122989805326076
Nilotinib,0.0,-0.19221127173095998,-0.1968581180931583,-0.14827534491095823,-0.045740226943730304,0.020256085046165374,-0.19840116064889812,0.0027021178631290894,0.0,-0.06191730696595719,-0.17484537253987228,-0.15737306003735427,0.0,-0.23146377616029304,0.0,-0.14733811074527475,-0.10950331779817116,0.04138673910113133,0.0,-0.19076008112264545,-0.06053131832154351,0.004109659893775272,0.0,0.0,0.0,0.0,0.0,-0.17842501720448545,-0.44614022254851904,-0.25119433142330944,-0.10166167944313845,-0.06799682818531397,0.04670036687094696,0.0,-0.06274122541636952,0.029316923564496146,-0.15706973680448774,-0.09993633389008302,0.10829111638839808,-0.19473841297614344,0.0,0.0,-0.11465281191805593,-0.25873797113947694,-0.11434273995279126,-0.1514341030848873,-0.1614648274950518,-0.2691512579745246,0.0,-0.098494473653875,-0.3677080358319877,-0.21237914998168583,-0.1701236823267447,-0.004610847701973995,0.0,-0.09138691825931046,-0.1849399757636641,0.0,-0.060563635419458244,-0.06274122541636952,-0.22889804063660085,0.0,-0.07634789440046127,0.06769312940091818,0.014350996201298984,-0.2533777643637892,-0.06274122541636952,-0.21343595123035264,-0.011331662262743972,0.0,-0.054907656867285576,0.08498479243455928,-0.23740659235085682,0.15068799525006818,-0.1660123058831508,-0.2504661426024589,-0.19295826332286323,0.0,0.0,0.0,0.0,-0.20689267507881817,-0.21609681141962409,0.0,-0.1935731782959182,-0.31518735533085845,0.0,-0.20007020346475107,0.0,-0.061852325099830116,0.0,-0.09536946307801411,-0.07726738598376606,-0.14189219618942572,-0.21990927609569136,-0.16249493807042928,-0.09711275091224447,-0.011331662262743972,0.0,0.0,0.0,0.0,0.0,0.0,-0.1688941128982438,-0.09551539865413049,0.0,-0.25227165112748945,-0.14389948366612543,-0.11372058026035353,-0.05991739406448665,-0.2100425459618956,-0.2194300467657214,-0.21492648570353595,-0.12043597921009278,-0.01624004686342608,0.0,-0.35209214747680223,-0.14503622383580347,-0.272992960992527,-0.21510084703445023,-0.009643896401435237,-0.0011416433584563795,-0.09773843955530068,0.0,-0.13314334436460962,-0.17556569514268303,-0.08458284524089155,-0.19086178508095308,-0.08715079269801088,-0.1801984946271745,0.0,-0.10130947984201187,-0.3134719698371942,0.040388358245747547,-0.045833249933574724,-0.05411703183981479,0.0,-0.12359774330452915,-0.02821992839915774,-0.14022418839534792,-0.24613453980901917,0.0,0.0,-0.25001154264874265,0.018172728356510407,0.0,-0.23935624875884914,-0.20999534880017884,-0.15370481807363154,-0.011331662262743972,-0.040902824113978054,0.007313662238179084,0.0,-0.0022139422400672794,-0.07862590552281128,-0.007361182067983762,0.13826085479938025,-0.1637585455807299,0.01509992540911647,0.0,-0.04338037967402141,-0.4237270527571398,-0.22342135608994798,0.0,-0.18634355696546626,0.0,-0.12239505360814132,0.0,0.04670036687094696,-0.09711601244205119,0.0,-0.07885471705149177,-0.3737287383818885,0.0,-0.08413193596537877,0.0,-0.07033897460359574,-0.0520658360018783,-0.07571938341506722,-0.07270991470061508,-0.028621550622093008,0.005538892870825087,-0.004066585845953144,-0.013862301297426737,-0.03305147302656403,-0.24958299899097386,-0.1552892372678122,0.0,0.013233756643910547,0.002836775007695997,-0.07761814585932983,-0.25280446792960143,-0.004449855893414449,-0.305617813689562,-0.02984556561918078,-0.23975383379981186,-0.21732940433719322,-0.18608272079621976,-0.22764134317129353,0.023790828070709265,0.0,0.06674199423061777,-0.11671340432908481,0.0,-0.003802107991414096,0.0,0.0,0.06290856889810152,0.0,-0.15312907397593115,-0.20024411082524735,-0.1754729898970935,-0.2558835928435514,-0.18472778046594945,-0.24270083827805278,-0.11606467059546688,-0.05031325032332582,-0.035029530204140985,0.0,0.031182713295589002,-0.06730220943415166,-0.056033216877548864,-0.037683012180250726,-0.15225416262004482,-0.16761667383016787,-0.1650196517346914,0.0,-0.19506792242769572,-0.12110000479019899,0.0,0.0,0.010768954164159015,0.0,0.0,-0.34248503151077425,-0.018456145121750922,-0.10388985140032655,-0.06274122541636952,0.042943528712078065,-0.008518861307017199,0.02103976554766339,-0.09037473301537187,-0.32889193651235576,-0.060039107553240434,-0.0036651370818984634,-0.12677783470576817,-0.04793625423089677,-0.04958388359638174,-0.024273367411616856,0.0,-0.09615957801782805,-0.024507796197189007,-0.1948412335125633,-0.021065667221597882,-0.06274122541636952,-0.03533169010158261,-0.2967327877295054,-0.08755042540989899,-0.015051269702362008,0.0,-0.15008959164343982,-0.2161422368912559,0.0,-0.2801454939049957,-0.10176454311605311,0.0,-0.28025215985040164,-0.051170945883622115
Olaparib,0.0,-0.061132101918478135,-0.041592870690780395,-0.014081686476479793,0.04799422154638906,0.01562574074327439,0.0,0.0,0.0,0.02243793825150041,0.0,-0.04971634711809624,0.0,-0.09293433584187329,0.0,-0.04971634711809624,0.04418157891162861,0.0018575099138752825,0.0,-0.01891801911634044,-0.07834001033931606,0.004109659893775272,0.0,0.0,0.0,0.0,0.0,-0.05833956709203101,-0.06863436623443668,-0.06863436623443668,-0.04971634711809624,0.0018575099138752825,0.0,0.012781507430964872,0.0,0.07707002378403871,0.07948250078939496,-0.0645247063406614,0.01785491861249321,-0.04971634711809624,0.0,0.0,0.06684541019093787,-0.0437992122400376,0.03685099277540882,-0.04971634711809624,0.0063977732583135535,-0.07328455507542489,0.0,-0.06863436623443668,-0.07738927826274326,0.023541034031182018,0.0,0.0,-0.013242828080412307,0.0,-0.03940111064737305,0.0,-0.04971634711809624,0.0,-0.012152453156946756,0.0,0.0,0.0,0.0,-0.06941917574064424,0.0,0.0,0.0,0.0,0.005131450685954857,0.0,0.029524999381032292,0.0,0.05461150630446921,0.025496166752067187,-0.07493916763954266,0.0,0.015749691984229236,0.0,0.0,-0.06863436623443668,-0.04971634711809624,0.0018575099138752825,-0.07362620478034837,-0.02558538260319484,0.0,-0.09483668169869731,0.0,0.0,0.0,-0.01891801911634044,0.0,0.027353676665942468,-0.07675798676241834,0.0,0.0,-0.013242828080412307,0.0,0.0,0.0,0.0,0.0,0.0,-0.06863436623443668,-0.01891801911634044,0.0,-0.061132101918478135,0.030475755312169436,0.0,0.008416368317842083,-0.013138280564488049,-0.020640544880446594,-0.033700505742238304,-0.040356572888262415,0.05828876459706156,-0.0024212267901753287,-0.043799212240037605,-0.004378431829724569,-0.081649178590956,-0.049660916445924304,0.04603908882550389,0.0,0.004109659893775272,0.0,-0.04971634711809624,-0.0422140828021377,-0.04754502440300642,-0.04754502440300642,0.0,-0.08078681939138344,0.0,0.016074681794923863,0.0031238324862339767,0.0,0.01161192420973382,-0.04971634711809624,0.0,-0.059274592004602854,-0.031070472273287193,-0.031070472273287193,-0.014471800981616946,0.0,0.0,0.07160426551225006,0.0,0.0,-0.04785883720422096,-0.01891801911634044,-0.07675798676241834,0.0,0.09074881509748949,0.0,-0.018760565766926456,-0.017060509202465157,-0.030925311321170382,-0.04210915289358208,0.0,-0.08078681939138344,-0.01437188702167927,0.0,-0.04338037967402141,-0.07892930947750815,-0.005534768206467628,0.0,-0.04971634711809624,0.0,-0.03093508793111909,0.04418157891162861,0.0,0.0,0.0,0.0,-0.04971634711809624,0.0,0.004109659893775272,0.0,-0.014808359222565166,-0.05896077920338831,0.06070504386902575,0.0,-0.012017068814778653,0.0,-0.008877696071098805,0.0018575099138752825,0.0,0.13982092667380863,-0.04321798872377705,-0.013242828080412307,0.0,0.0,-0.04754502440300642,-0.06863436623443668,0.0,-0.04971634711809624,0.0,-0.04971634711809624,-0.061868800275043,-0.05600065123252328,-0.028763765216029268,0.0,0.0,0.0,0.00671775977576991,0.0,-0.003802107991414096,0.0,0.0,0.0,0.0,-0.09466894598101416,-0.07410012450622533,-0.09704399573564856,-0.06129363846301643,-0.06863436623443668,-0.040772913975421765,-0.022763816315957506,0.004109659893775272,-0.007816024532085054,0.0,0.0,0.0,0.008572417478965318,-0.026960812379511923,-0.07220349865394049,-0.0028433373214165744,0.016710910001705694,0.0,-0.08029248484416704,-0.04971634711809624,0.0,0.0,0.0,0.0,0.0,-0.06863436623443668,0.05828876459706156,-0.04560668722432097,0.0,0.0075022643159585465,0.0075022643159585465,-0.03414930269322197,0.029075802237649648,0.04082493787408363,0.0,0.0561176979737049,-0.04971634711809624,0.0075022643159585465,0.060212414425844865,0.0075022643159585465,0.0,-0.04971634711809624,0.06513869061978775,-0.09029207391678883,-0.012152453156946756,0.0,0.0,-0.002263468119595482,0.0,0.0,0.0,0.06014627451093684,-0.04971634711809624,0.0,-0.09761503584941768,-0.022763816315957506,0.0,-0.07049202024897777,-0.033453610602662484
Axitinib,0.0,-0.15219605741321762,-0.14054593704011023,-0.14827534491095823,-0.0485770019514263,0.020256085046165374,-0.19840116064889812,0.0027021178631290894,0.0,-0.06191730696595719,-0.17484537253987228,-0.15737306003735427,0.0,-0.23146377616029304,0.0,-0.14733811074527475,-0.10950331779817116,0.04040747400731062,0.0,-0.1597102532407205,-0.05867380840766823,0.004109659893775272,0.03104982788192495,0.03104982788192495,0.0,0.0,0.0,-0.17842501720448545,-0.44897699755621506,-0.2540311064310054,-0.10449845445083444,-0.06613931827143868,0.04670036687094696,0.0,-0.06274122541636952,0.04297659492188483,-0.15521222689061245,-0.09993633389008302,0.18261387027043255,-0.19473841297614344,0.0,0.0,-0.11279530200418064,-0.25688046122560165,-0.11248523003891599,-0.1514341030848873,-0.13833100378879445,-0.2719880329822206,0.0,-0.06986048410497489,-0.3677080358319877,-0.21052164006781054,-0.1701236823267447,-0.004610847701973995,0.0,-0.09138691825931046,-0.18591924085748482,0.0,-0.060563635419458244,-0.06274122541636952,-0.22889804063660085,0.0,-0.07634789440046127,0.06769312940091818,0.014350996201298984,-0.2251647114895603,-0.06274122541636952,-0.21343595123035264,0.0,0.0,-0.054907656867285576,0.08498479243455928,-0.23554908243698153,0.14785122024237218,-0.1669915709769715,-0.2504661426024589,-0.1619084354409383,0.0,0.0,0.0,0.0,-0.20972945008651417,-0.21893358642732008,0.0018575099138752825,-0.12277960552157527,-0.27475120433844497,0.0,-0.20007020346475107,0.0,-0.061852325099830116,0.0,-0.06389869852141801,-0.07726738598376606,-0.14003468627555046,-0.18658100162521998,-0.16249493807042928,-0.09711275091224447,0.0,0.0,0.0,0.0,0.0,0.0,0.0,-0.1688941128982438,-0.09551539865413049,0.0,-0.25227165112748945,-0.06103358892472542,-0.11372058026035353,-0.05991739406448665,-0.20818503604802033,-0.2175725368518461,-0.2017373135269167,-0.11857846929621749,-0.01624004686342608,0.0,-0.35023463756292694,-0.13421332748611078,-0.27582973600022304,-0.20144117567706155,0.04852579456548812,-0.0011416433584563795,-0.09773843955530068,0.0,-0.13314334436460962,-0.17556569514268303,-0.08458284524089155,-0.15981195719902813,-0.08715079269801088,-0.1801984946271745,0.0,-0.06983871528541577,-0.2711783089309054,0.040388358245747547,-0.045833249933574724,-0.056953806847510786,0.0,-0.037214999463376856,-0.02821992839915774,-0.14022418839534792,-0.18796484884209583,0.0,0.0,-0.2379198440770731,0.018172728356510407,0.0,-0.23749873884497386,-0.20999534880017884,-0.12037654360316015,0.0,0.004227611800006734,0.007313662238179084,0.0,-0.00035643232619199817,-0.07862590552281128,-0.007361182067983762,0.13826085479938025,-0.16659532058842585,0.01509992540911647,0.0,-0.04338037967402141,-0.4247063178509605,-0.22625813109764398,0.0,-0.13286815092011417,0.0,-0.12053754369426604,0.0,0.04670036687094696,-0.09711601244205119,0.0,-0.07885471705149177,-0.3202533323365364,0.0,-0.08413193596537877,0.0,-0.0392891467216708,-0.0520658360018783,-0.002375894626853477,-0.016397733647567005,-0.017798654272400318,0.0027021178631290894,-0.004066585845953144,-0.025886369660166247,-0.03588824803426002,-0.09963158935293136,-0.1581260122755082,0.0,0.013233756643910547,0.0,-0.07761814585932983,-0.22133370337300529,-0.004449855893414449,-0.274567985807637,-0.02984556561918078,-0.24259060880750785,-0.21732940433719322,-0.18608272079621976,-0.18298140643807817,0.023790828070709265,0.0,0.06674199423061777,-0.10589050797939213,0.0,-0.003802107991414096,0.0,0.0,0.06290856889810152,0.0,-0.11269292298351764,-0.18439083818291663,-0.1468390003481934,-0.2558835928435514,-0.1418757911405111,-0.16225078186967762,-0.11606467059546688,-0.05031325032332582,-0.023227368760627587,0.0,0.031182713295589002,-0.06730220943415166,-0.05886999188524486,-0.05156459045686551,-0.15323342771386553,-0.16761667383016787,-0.16316214182081612,0.0,-0.1649973596395915,-0.12110000479019899,0.0,0.0,0.010768954164159015,0.0,0.0,-0.34248503151077425,-0.018456145121750922,-0.10388985140032655,-0.06274122541636952,0.042943528712078065,-0.008518861307017199,0.07735194660071146,-0.032205042048448526,-0.3270344265984805,-0.060039107553240434,-0.006501912089594461,-0.12961460971346417,-0.04793625423089677,0.008585807370541619,-0.024273367411616856,0.0,-0.09615957801782805,0.015506109218772664,-0.15482601919482095,-0.021065667221597882,-0.06274122541636952,-0.03533169010158261,-0.29771205282332613,-0.09038720041759499,-0.015051269702362008,0.0,-0.15106885673726053,-0.2189790118989519,0.0,-0.28298226891269174,-0.07071471523412817,0.0,-0.28025215985040164,-0.04931343596974683
AZD7762,0.0,-0.214083052987803,-0.150651558326257,-0.1546991652365976,-0.08114490624343097,-0.011546702176052717,-0.17601867475370256,0.0027021178631290894,0.0,-0.14168906786411262,-0.10407811896860909,-0.13698204849106974,0.0,-0.2130885716560365,0.0,-0.14733811074527475,-0.0668602541443121,0.05871684783805613,0.0,-0.24992800517896266,-0.12153483754002109,0.0,0.0,0.0,0.0,0.0,0.0,-0.14427256859787987,-0.32398453740708094,-0.34097568074448265,-0.10449845445083444,-0.06613931827143868,0.04670036687094696,0.0,-0.06274122541636952,-0.05779789561243911,-0.20732223648108905,-0.2201424059723495,0.0156902630967058,-0.19473841297614344,0.0,0.0,-0.10217794090936863,-0.32117556953085047,-0.15947331990941546,-0.21633321505282468,-0.17477099293520024,-0.36295885737308836,0.0,-0.11403924236413182,-0.30880779583386353,-0.2974662143812878,-0.09692098980974581,-0.006408608341250733,0.0,-0.09138691825931046,-0.2184848053770025,0.0,-0.09618263778331781,-0.06274122541636952,-0.1862549769827418,0.0,-0.06366996671070187,0.010995245540195053,0.014350996201298984,-0.2311670477324192,-0.06274122541636952,-0.19105346533515707,0.0,0.0,-0.060039107553240434,0.01759931149201472,-0.3079048485621128,0.07213460003447582,-0.19422733299563907,-0.19127804435945533,-0.23140601804278402,0.0,0.0,0.0,0.0,-0.22567568417687872,-0.24521777428255928,0.0018575099138752825,-0.20337847078668866,-0.3282238496426012,0.0,-0.26324339504502975,0.0,-0.061852325099830116,0.0,-0.12863415020782018,-0.07017647859858488,-0.23393847344326096,-0.2465434706085538,-0.07993568658436478,-0.09711275091224447,0.0,0.0,0.0,0.0,0.0,0.0,0.0,-0.21364666902327056,-0.08920958063692051,0.0,-0.307544309426494,-0.13447011009043705,-0.11372058026035353,0.008416368317842083,-0.27707476484831195,-0.3171472942896005,-0.23430287804643438,-0.1813544461803007,-0.052084743193494765,0.0,-0.40065995400177734,-0.27872093483022287,-0.19972565715882565,-0.290225289255087,0.09872896455554213,-0.002939403997733118,-0.08772411510762458,0.0,-0.08181490179114645,-0.2511029931272903,-0.07226823889873471,-0.16189607572954934,-0.04450772904415182,-0.24523595593116285,0.0,-0.1587335864590252,-0.37349589071551065,0.040388358245747547,-0.05477717033162908,-0.0717374310666902,0.0,-0.07989332364389468,-0.042412855661044656,-0.12516483347016022,-0.23388779892891154,0.0,0.0,-0.3136078728563783,0.018172728356510407,0.0,-0.2681755394606209,-0.15882234859137984,-0.2156716241527022,0.0,-0.15610586936388274,0.0,0.0,-0.00035643232619199817,-0.060039107553240434,-0.059202776041004566,0.07672871043437803,-0.2286257524263184,0.048857617489996355,0.0,0.0,-0.4060699448251976,-0.2636579561214407,0.0,-0.23144762243808742,0.0,-0.18089553650529344,0.0,0.04670036687094696,-0.023913319925052287,0.0,-0.06757534306610452,-0.3774181181120874,0.0,-0.08824159585915405,0.0,-0.1334054875696533,-0.1357598083977363,-0.1201809261673866,-0.05231890315433054,-0.1523526199702709,0.0027021178631290894,-0.05209389905682787,0.07139493050980691,-0.04111219998144061,-0.31449049169802246,-0.007194978495633365,0.0,-0.007026821114752927,0.0,-0.065303539517173,-0.23262098049848,0.0,-0.3403929047154021,-0.042092715321664066,-0.26285118656617135,-0.28641389655135563,-0.25622730536586485,-0.3200040499941437,0.023790828070709265,0.0,0.09974008104647791,-0.16159113421856783,0.0,0.0,0.0,0.0,0.0013764245330993028,0.0,-0.15271065460684388,-0.17929695340233423,-0.17874794666916438,-0.21374667263549135,-0.23058701196423717,-0.2059306521813162,-0.06274122541636952,-0.07468348797576456,0.0,0.0,-0.005045241715927203,-0.03674258057101181,-0.09388241922964599,-0.10042680647566755,-0.19183102310220357,-0.29023132884943037,-0.20946381990304186,0.0,-0.22375678711071023,-0.07045742301968967,0.0,0.0,0.010768954164159015,0.0,0.0,-0.3095950578585446,-0.02082948713435353,-0.14085576741206285,-0.06274122541636952,-0.03175621693751916,-0.07103161535110532,0.05889689501472754,-0.07031882379438409,-0.3443404302576685,-0.060039107553240434,-0.0239459184978792,-0.16247086583142523,-0.07457152137734178,-0.006660680140946881,-0.04471718951783956,0.0,-0.10295596696978747,-0.03190651073422019,-0.2410334347215974,-0.09062282224414744,-0.06274122541636952,-0.03533169010158261,-0.29209155872403264,-0.09038720041759499,0.0,0.0,-0.0929994758290171,-0.2080826032826002,0.0,-0.26016303404944374,-0.11799825295950532,0.0,-0.2807920540900064,-0.04931343596974683
SB216763,0.0,0.029284063762166038,0.0061829292186021,0.05871135167500158,-0.02461557505504073,0.05732710154986406,-0.14159262038808582,0.045163239521963106,0.0,-0.04311086203266033,-0.017061193191191364,-0.03805536808042968,0.0,-0.07670573908808934,0.0,0.05281013669932508,0.021807065231729993,-0.008822888695302324,0.0,-0.056506263581692986,0.0010777440385249647,0.0,0.0,0.0,0.0,0.0,0.0,-0.006032021868053608,-0.10964198606937951,-0.10007680559131515,0.0,-0.06613931827143868,0.0,0.0,-0.023356174290233116,-0.06431567509998543,-0.05020638373744764,0.003465525176736794,0.00489169086493969,-0.0557549603155391,0.0,0.0,-0.04689256998626391,-0.007244029617423939,-0.05672707357504814,0.02578067800683812,0.05589679038260477,-0.1316100840863142,0.0,0.042564182931121124,-0.03677751825719343,0.006943018263495226,-0.053902722516092606,-6.308308896498239e-05,0.0,0.007646897177361965,-0.03588929501203285,0.0,0.1019914603926825,-0.023356174290233116,-0.11889004310058922,0.0,0.0,0.051212023534580056,0.0,0.05153622856024205,-0.023356174290233116,-0.0638341849583374,0.0,0.0,0.021807065231729993,0.02198005416560194,-0.14511491330664664,0.07550853155154125,0.06471183127971744,-0.027996893873588006,-0.07219636402002275,0.0,0.025124785203826085,0.0,0.0,-0.008876219025277654,0.03496822524010678,0.0018575099138752825,0.07423381714135607,-0.12160615178291682,0.0,-0.023743936220114104,0.0,0.021807065231729993,0.0,-0.0004973073614010989,-0.0038616843227030663,-0.06287310063731041,-0.0028104588654422665,-0.05440371715411439,-0.015266578127274043,0.0,0.0,0.0,0.0,0.0,0.0,0.0,-0.013421343966960311,0.004243137402131003,0.0,-0.06208450574736401,0.09941045066115486,-0.09141608556451207,0.0,0.09479609848060172,-0.07351187822578205,-0.01770986111534731,0.07209494068809583,-0.014762162842439246,0.025124785203826085,0.04102753544516389,0.015237190905379292,0.13254555332638515,-0.03795333383528815,0.028841315539152854,0.0,0.008005454900434339,0.04346113977155839,0.06349374231485208,-0.004670442091214274,0.0,0.004243088534540484,-0.013741443300791089,-0.031785130796333765,0.0,-0.031014213458278126,-0.06288158411987378,0.03100307146759508,-0.015071954273200969,0.008117824731504533,0.0,-0.03149688048562103,0.01762619889692097,-0.012497648378477883,0.03632128978440602,-0.001707122515926038,0.0,0.10339044554848213,0.0,0.0,-0.01899103197546234,-0.07372680357862611,-0.05672707357504814,0.0,0.05156620984078994,0.0,0.0,0.028841315539152854,0.021807065231729993,0.026504606082922235,0.12955297339911884,0.01762619889692097,0.026983805625277572,0.0,0.0,-0.09988584194272836,0.006901328891457165,0.0,-0.034429226655487345,0.0,-0.03195484559936956,0.034592707432395176,0.0,-0.023356174290233116,0.0,-0.011984173925312277,0.035317280740800025,0.0,-0.023356174290233116,0.0,-0.012573362939945746,0.05772620793461083,0.019503553813137488,-0.020391011546284532,0.08331955670786119,0.045163239521963106,-0.005729975393312143,-0.022835015324789834,0.05867145688119657,0.018984824515185843,-0.004997873699364103,0.0,0.03661926880373443,0.0,0.045163239521963106,-0.08576973404493805,0.0,-0.09007485312556988,0.0,-0.07599241138027396,-0.016047911163915983,-0.05288849951149892,-0.09390288977206658,0.0,0.0,0.026983805625277572,0.011630984009828678,0.0,0.0,0.0,0.0,0.09390186422972344,0.0,-0.07966208514566644,0.018463050736984517,-0.07431781433467773,-0.05440371715411439,0.028683675560007484,-0.08153984365460311,-0.023356174290233116,0.027423262567869346,0.0,0.0,0.0,0.021807065231729993,0.03716051675127719,-0.024776152731592616,-0.0580486992718904,-0.09841730830040828,0.022021990584574058,0.0,0.042355731064329626,0.04109950228335941,0.0,0.0,0.0,0.0,0.0,-0.07602581915647819,0.024777157764047653,-0.0033188636480185416,-0.023356174290233116,0.056828220870719405,0.06928628917468271,0.0540210979518358,-0.02372277038217338,-0.08871514064252146,0.023763825560723466,0.00424529583600518,0.035317280740800025,0.005389666460553588,0.034817341710463835,0.0055717259398531446,0.0,0.01863793658287586,0.025124785203826085,0.0329238175015262,-0.030558652549289335,-0.023356174290233116,0.004053361024553795,-0.025794948693436806,0.0,0.0,0.0,-0.003047143099990641,0.018675535863684874,0.0,-0.07670533054660826,-0.0931576544040344,0.0,-0.04568294715647495,0.0030174394489803393
KU-55933,0.0,-0.1660589910076534,-0.14502325838201463,-0.07369765268746387,-0.12379672711506179,0.011218913150734044,-0.12643491976879723,0.045163239521963106,0.0,-0.053177215717253125,-0.034319236170774814,-0.097719607886387,0.0,-0.20061977480230683,0.0,-0.02254565477106685,0.004924044740763772,-0.07372548248703836,0.0,-0.16700479216985864,-0.1013219203009636,0.0,0.0,0.0,0.0,0.0,0.0,-0.1404410750331803,-0.2668129359598146,-0.19230407250489603,-0.027993209192876126,-0.06799682818531397,0.0,0.0,-0.023356174290233116,0.02306849502339567,-0.14496667260037338,-0.07783565236967047,0.13933266994851734,-0.15179212978690595,0.0,0.0,-0.11418020741505952,-0.24991604586332264,-0.10393203967993017,-0.13500594734573987,-0.021719502636048854,-0.16211237274208926,0.0,0.021395226061963868,-0.19407721375955017,-0.14535387493389015,-0.025136690924669934,-6.308308896498239e-05,0.0,-0.023356174290233116,-0.13727066997713233,0.0,0.04980168509326661,-0.023356174290233116,-0.07366772044395414,0.0,-0.08288697407019463,0.0397285424471682,0.0,-0.160126233483626,-0.023356174290233116,-0.09900858869141774,0.0,0.0,0.021807065231729993,0.08690094006604414,-0.15633289580433116,0.13458719598158975,-0.13405053896980704,-0.16596233941368646,-0.08554137686551148,0.0,-0.009001960196137075,0.0,0.0,-0.1951422547690011,-0.08684268159257771,0.0,-0.11778128965585563,-0.24179961338055028,0.0,-0.14898167942723167,0.0,0.019993847685140308,0.0,0.10274545516108052,0.0016078202864909866,-0.13273774614409573,-0.0688809453090464,-0.11963463355671905,-0.015266578127274043,0.0,0.0,0.0,0.0,0.0,0.0,0.0,-0.0647059573133004,0.04346243737342703,0.0,-0.13133048682781695,-0.08534855026004842,-0.09953368944134537,-0.05991739406448665,-0.09090987422528554,-0.09838466452596825,-0.11997657677476624,-0.06884701575105104,-0.07948665289617932,-0.024344661449719536,-0.21711427093208527,-0.0022699241830133055,-0.1390258102594525,-0.10058921128504686,-0.05247565538940792,0.0,-0.03807840565639081,0.0,-0.020463021224210086,-0.07179674249236531,-0.05748451993243528,-0.15537148998232844,0.027276569840924046,-0.11811566149503261,0.0,-0.03889412378190034,-0.2190959681091712,0.0,-0.04638151937145069,0.028453598000560704,0.0,-0.16763242629624744,0.07643223115707302,0.005834583177843893,-0.15296456452753093,0.0,0.0,-0.028160727592258968,0.018172728356510407,0.0,-0.1385903020690601,-0.076787235524372,-0.05987180007549236,0.0,0.014123006263839612,0.0,0.0,0.014507978433498572,0.046542140752062616,-0.05347526127173108,0.12438184593821523,-0.06037401494605646,0.04574235678000666,0.0,0.0,-0.24792340124881682,-0.12206997551270059,0.0,-0.16343492124762568,0.0,-0.036266458212647026,0.0,0.0,0.0054098573011895565,0.0,-0.04698377494517097,-0.33822176875873955,0.0,-0.04885654473301764,0.0,0.04076498266945943,-0.014324528790496671,-0.03856337411749001,-0.020391011546284532,-0.0270818236033679,0.045163239521963106,0.08735548815055431,0.011402660967926947,-0.07997156303210134,-0.07589122074515317,-0.07189798008976155,0.0,0.013233756643910547,0.0,-0.008058698892039542,-0.17253911486490056,0.009362962945622126,-0.22827900677972612,-0.02984556561918078,-0.18720399475082308,-0.11951262156114022,-0.12948713755606522,-0.15230801515718223,0.0,0.0,-0.0018330736188986018,0.0016537403129966502,0.0,0.0,0.0,0.0,0.0669920658879272,0.0,-0.04037279037505456,-0.09490806571190528,-0.09749755442805745,-0.13141533832011748,-0.1101338228637937,-0.18177742930221338,-0.023356174290233116,0.027423262567869346,-0.035029530204140985,0.0,-0.008199133903907047,0.04510359221395861,-0.11046977921925624,0.03902258073171463,-0.11743621949177467,-0.10624357143930085,-0.07168083030541222,0.0,-0.07585826789666304,-0.10327472393482832,0.0,0.0,0.0,0.0,0.0,-0.2814611218535921,-0.04644307854215915,-0.13423922013211997,-0.023356174290233116,0.062412601582952115,-0.013121399865409736,0.047432766307623164,-0.05944152912155321,-0.1904501804872308,0.021807065231729993,0.0018927999312202699,-0.13545171360331443,-0.07316050394779558,-0.04901010895655067,0.011869212798246941,0.0,-0.05321329482859057,0.0,-0.03490083984123535,0.056859758328951564,-0.023356174290233116,0.004053361024553795,-0.1552344373392071,-0.09038720041759499,-0.015051269702362008,0.0,-0.06685105660730897,-0.20999693330674613,0.0,-0.11220781361511897,-0.06521250346876173,0.0,-0.16941612886825694,-0.035311120516537765
Afatinib,0.0,-0.1239837535203632,-0.14054593704011023,-0.09209906181064059,-0.0485770019514263,0.06331142580339494,-0.19870967941814935,0.0027021178631290894,0.0,-0.049104883392120345,-0.17515389130912354,-0.14425211769426619,0.0,-0.18995291993709112,0.0,-0.10219078109245898,-0.10981183656742238,0.04445085039867573,0.0,-0.17794765754880862,0.028958530431353394,0.004109659893775272,0.0,0.0,0.0,0.0,0.0,-0.16313275214630754,-0.435856055213127,-0.19785482333068777,-0.10449845445083444,-0.07164970396637572,0.04670036687094696,0.0,-0.06274122541636952,0.013280128352083061,-0.17458808508287277,-0.04406856955901661,0.0788248600636457,-0.19473841297614344,0.0,0.0,-0.12168456549739208,-0.20069888409332068,-0.09905047489461337,-0.10837876232765775,-0.12311461968749138,-0.24700816582277396,0.0,-0.11736804387398408,-0.3545870934888996,-0.14340684565897927,-0.17043220109599594,-0.004610847701973995,0.0,-0.0483315775020809,-0.19048304358044457,0.0,-0.017508294662228675,-0.06274122541636952,-0.24534693764005155,0.0,-0.07634789440046127,0.11074847015814775,0.014350996201298984,-0.21098787589916584,-0.06274122541636952,-0.21374446999960386,0.0,0.0,-0.054907656867285576,0.05378837649368828,-0.23847604362579114,0.19299854989518794,-0.11090573001564209,-0.27549006162760675,-0.1801458397490264,0.0,0.0,0.0,0.0,-0.1966085077434261,-0.21893358642732008,0.0,-0.15621304732950664,-0.3450105451789658,0.0,-0.21393567596207433,0.0,-0.061852325099830116,0.0,-0.1114062582904272,-0.07757590475301729,-0.16158186718290057,-0.22128724613987694,-0.1628034568396805,-0.09711275091224447,0.0,0.0,0.0,0.0,0.0,0.0,0.0,-0.15577317055515572,-0.08270297508029364,0.0,-0.23915070878440137,-0.13000188046439703,-0.11372058026035353,-0.05991739406448665,-0.13897825274360281,-0.17752349110292978,-0.19195543416367583,-0.06249262833488807,-0.03424645158152327,0.0,-0.28094852043900587,-0.07711722439445792,-0.2050739615511815,-0.1874718656600195,0.059998787054941466,-0.0011416433584563795,-0.0525911099024849,0.04305534075722957,-0.13345186313386084,-0.11762234426747832,-0.08241152252580172,-0.14563512160863373,-0.08715079269801088,-0.16738607105333764,0.0,-0.11048415414826239,-0.24555297039584864,0.0855356878985633,-0.0027779091763451575,-0.056953806847510786,0.0,0.0006334371898644581,-0.015098986056069663,-0.12741176482151106,-0.12255717694919058,-0.001707122515926038,0.0,-0.19124107256279937,0.018172728356510407,0.0,-0.18297040559829095,-0.21363182222979268,-0.15477426934856586,0.0,0.02746756455663176,0.007313662238179084,0.0,0.022959269392655284,-0.10982232146368229,0.0356941586892458,0.1813161955566098,-0.1513823893497516,0.027895946631505394,0.0,-0.04338037967402141,-0.35790004221138044,-0.18320279034041442,0.0,-0.07492480004490949,0.0,-0.1105325023216764,-0.016448897003450688,0.04670036687094696,-0.09742453121130243,0.0,-0.08619498940007914,-0.27719799157930686,0.0,-0.08413193596537877,0.0,-0.0575265510297589,-0.007772642465482896,-0.029383226913606286,-0.016397733647567005,0.00835624113741641,0.0027021178631290894,-0.004066585845953144,-0.013164388225317611,0.022055102840944682,-0.1439096505158557,-0.10381913482991736,0.0,0.05807256752747509,0.0,-0.07575534191349123,-0.2688412631420145,-0.0047583746626656785,-0.305617813689562,-0.02984556561918078,-0.22770259868953271,-0.20420846199410514,-0.1299064376959021,-0.18711981264864325,0.023790828070709265,0.0,0.0795380154530067,-0.10433724809810653,0.0,-0.003802107991414096,0.0,0.0,0.10596390965533108,0.0,-0.17231116296529145,-0.20095373740746086,-0.19434656011720258,-0.2558835928435514,-0.12855149736563182,-0.2324166709426607,-0.1163731893647181,-0.05031325032332582,-0.035029530204140985,0.0,0.031182713295589002,-0.06761072820340289,-0.0009266410100401568,-0.03635165921819123,-0.09923957564812232,-0.1709446284905305,-0.1049049781443969,0.0,-0.12676107039759532,-0.12110000479019899,0.0,0.0,0.010768954164159015,0.0,0.0,-0.28630874841045656,-0.018456145121750922,-0.058742521747510774,-0.06274122541636952,0.08599886946930763,0.03453647945021237,0.09047288894379954,-0.008145588396846799,-0.3157709941692677,-0.060039107553240434,-0.006501912089594461,-0.08655926895623461,-0.0027889245780809997,0.06257965943628484,0.03336146469433662,0.0,-0.09615957801782805,-0.024507796197189007,-0.12185839318931539,-0.021374185990849115,-0.06274122541636952,-0.03533169010158261,-0.22850526951890865,-0.0882952115220088,-0.015051269702362008,0.0,-0.1693752636545865,-0.17592367114172233,0.0,-0.24023544692471338,-0.10207306188530435,0.0,-0.28140879179567446,-0.035669120765203656
Staurosporine,0.0,-0.18432728994257913,-0.20738083047588007,-0.029451386585546357,-0.05600487827225705,0.0701805736837935,-0.2789506809666775,0.045163239521963106,0.0,-0.07302003184573135,-0.16054657782669685,-0.14066589107562447,0.0,-0.18345400817858845,-0.020929405861728704,-0.05972965943362496,-0.10359007586621344,-0.03495071641755771,-0.028162326945658577,-0.17272048507597876,0.11623329950751464,0.004109659893775272,0.0,0.0,0.0,0.0,0.0,-0.19699696788406532,-0.40504364718310226,-0.21936131845499357,-0.0709394923821136,-0.05334329704904975,0.01773116161090619,-0.021874151337637815,-0.06274122541636952,0.027169617535515056,-0.1013873149253266,-0.035269952061334486,0.12501110915402663,-0.19473841297614344,0.0,0.0,-0.15982334055293693,-0.19996886151583393,-0.09281606135008295,-0.06645650359217631,-0.05809317575382026,-0.23301437172334225,0.0,-0.07292767250930456,-0.4057964344909331,-0.12273063878353634,-0.15582488761356927,-0.029833770649899456,0.0,-0.07649390444773947,-0.17808397415310187,0.0,0.004633605726864635,-0.0909035523620281,-0.26927991900256404,0.0,-0.07634789440046127,0.08804958796621988,0.0,-0.19991319689720569,-0.06274122541636952,-0.20752270929839492,0.0,0.0,-0.012446535208451556,0.02691888641270258,-0.17781109109989887,0.2366163917200797,-0.1242541172426917,-0.18844866419423292,-0.27096258311420635,0.0,0.005008805787429354,0.0,0.0,-0.20972945008651417,-0.18013221380516217,0.0018575099138752825,-0.2035231021396121,-0.2842761381395425,0.0,-0.27194515085412035,0.0,-0.019391203440996096,-0.020929405861728704,-0.08206607897468125,-0.034806264324932036,-0.14761419075509302,-0.22799931371939997,-0.23522965014629094,-0.06303718203462817,0.0,0.0,0.0,0.0,-0.020929405861728704,0.0,0.0,-0.12643299123940976,-0.11117303792252492,0.0,-0.2430210718129576,-0.1447812272030879,-0.1661077736324744,-0.05991739406448665,-0.13355924198382121,-0.12957079346671288,-0.07323613097208267,-0.06818885211739785,0.08837064555282337,0.0,-0.2020046347490511,-0.04454267634868818,-0.20063273403320392,-0.19628749077544558,-0.031207469784104776,0.0017977606392767386,-0.019559902731627957,0.045435001679416734,-0.09068222270577558,-0.14599906988645894,-0.08458284524089155,-0.164768385504209,-0.09378140384656412,-0.2310950045182329,0.043617841824891763,-0.09091574767835787,-0.2294653485945742,0.12359668178020655,-0.018435548444739578,-0.023383736753301264,0.0,-0.05517782866616883,0.014241193259676288,-0.11357649583856237,-0.19854839881451727,0.0,0.0,-0.07518879179707304,0.018172728356510407,-0.020929405861728704,-0.21811505995502503,-0.20312443040783415,-0.20425597735617415,0.0,0.01839654918793298,0.007313662238179084,0.0,0.03041088760704989,-0.011700812963345263,0.04813408258633671,0.19123580551000033,-0.14974966784412402,-0.030484843667221786,-0.020929405861728704,-0.016257176344265125,-0.4114081419257928,-0.13705411719446484,0.0,-0.0539222878505663,0.0,-0.11611112660675695,0.036998838429234494,0.022739967398335545,-0.09711601244205119,0.0,-0.09997469610199837,-0.32644021053433947,0.0,-0.08413193596537877,0.0,-0.050931705440848934,-0.029073932610246864,-0.08247013584881112,-0.020391011546284532,0.021037224606045322,0.045163239521963106,-0.04542974159074651,-0.05315761696362045,0.04135615563697825,-0.041072500561405635,-0.08853124414109409,0.0,0.07537014225569091,0.0,-0.0351570242004958,-0.28196220548510254,-0.004449855893414449,-0.305617813689562,-0.02984556561918078,-0.2968046299077362,-0.2329408596179144,-0.16157712497853172,-0.35342873015422815,0.0,0.0,0.03923781947307073,-0.04296209520551715,0.0,0.0,0.0,0.0,0.15346389564633484,0.0,-0.13086030343678087,-0.19092026899309616,-0.22622744354590035,-0.24019664160485593,-0.16692365677548957,-0.24116332816306613,-0.1298487340063857,-0.00785212866449179,-0.023227368760627587,0.0,0.031182713295589002,-0.024841087775317648,0.0694946799620873,-0.007011479902445288,-0.13793856105274255,-0.10694824831091916,-0.08930366517182034,0.0,-0.15375685104538997,-0.10242971120207424,0.0,0.0,-0.020929405861728704,0.0,0.0,-0.2527752268080954,0.04750493520341346,0.0708004167491198,-0.06274122541636952,0.0776133166880899,0.028530587591181808,0.010917034648671511,0.034952354352115196,-0.2528146545595319,-0.04574031284006499,-0.022322449177471025,-0.033214835318977926,0.011358907676621765,0.10372878707654036,-0.05536520580693975,0.0,-0.11553890091907847,-0.03298404457454724,-0.1099519260240766,0.021395454437236144,-0.0909035523620281,-0.03533169010158261,-0.2151420203815168,-0.0865451786282308,-0.015051269702362008,0.0,-0.06613239958341344,-0.2173824944192599,0.0,-0.2560280721918419,-0.11554860652697191,0.0,-0.24844479883973827,-0.09919216020221579
PLX-4720,0.0,-0.22335339457206815,-0.1939187140954252,-0.16649515888686042,-0.045740226943730304,0.0231954890438985,-0.23402278292697648,-0.008212086963291466,0.0,-0.08946395255501839,-0.18575957736629284,-0.16007517790048337,0.0,-0.26953898871970616,0.0,-0.1582523155716953,-0.11220543566130023,0.017595911030422066,0.0,-0.21495078320454425,-0.07944933743788396,0.0,0.0,0.0,0.0,0.0,0.0,-0.19517171360573604,-0.4496708596869545,-0.24540493308799205,-0.0681027173744176,-0.06799682818531397,0.01773116161090619,0.0,-0.06274122541636952,0.011097109588593947,-0.1712800596627317,-0.12296401290019873,0.11363408790624266,-0.1700309955244856,0.0,0.0,-0.1658036948393825,-0.2738107995730803,-0.13108943635404188,-0.1596461900481788,-0.1809944127915075,-0.3122923484050083,0.0,-0.12011461063334453,-0.38128308343048356,-0.22419415367505183,-0.18103788715316527,-0.0016714437042408764,0.0,-0.09138691825931046,-0.2031597897395663,0.0,-0.06326575328258734,-0.07095331237966099,-0.23014050851136902,0.0,-0.07634789440046127,0.060152841654531525,0.0,-0.2634305453734671,-0.06274122541636952,-0.2243501560567732,0.0,0.0,-0.07095331237966099,0.02550644954643997,-0.20113618045733866,0.15068799525006818,-0.18283351486533675,-0.2713880744414902,-0.21378356799738915,0.0,0.0,0.0,0.0,-0.25322022950994555,-0.23755887036836287,0.0,-0.20564508017142763,-0.26339924732456715,0.0,-0.21317929072783035,0.0,-0.0645544429629592,0.0,-0.13049743814165116,-0.08818159081018662,-0.16011201016532794,-0.23169026613110955,-0.17853657520014665,-0.10802695573866503,0.0,0.0,0.0,0.0,0.0,0.0,0.0,-0.1987263368410048,-0.12534762259689147,0.0,-0.2821038750702505,-0.14660160152925453,-0.11372058026035353,-0.05991739406448665,-0.2309644778009269,-0.2306802416531003,-0.21537581347621015,-0.12043597921009278,-0.025762032725064714,0.0,-0.3688388438780529,-0.17200848858381643,-0.30812093605616403,-0.23850957010259147,-0.041646811435435964,0.0017977606392767386,-0.10184809944907594,0.0,-0.14405754919103017,-0.17129819391728882,-0.08241152252580172,-0.18133458094227,-0.09806499752443143,-0.2389000342350625,0.0,-0.10130947984201187,-0.3295300297587866,0.040388358245747547,-0.02523549237569217,-0.056819149702943876,0.0,-0.1699252977356565,-0.057353947201480494,-0.16935820719767067,-0.2621131549276265,0.0,0.0,-0.3011354368223932,0.018172728356510407,0.0,-0.23238662967032583,-0.2819580975634136,-0.20491421506639437,0.0,-0.057491679183609715,0.007313662238179084,0.0,-0.06326248617688147,-0.081599128005641,0.013236575489898785,0.1307205670529936,-0.18468047741976118,-0.0032093165014291988,0.0,0.0,-0.44264507187348023,-0.22612347395307708,0.0,-0.18340415296773313,0.0,-0.13634736635864933,0.0,0.01773116161090619,-0.09711601244205119,0.0,-0.10679367703242512,-0.4158592632023623,0.0,-0.08824159585915405,0.0,-0.10134145444239889,-0.06881253240312891,-0.13337376884381041,-0.020391011546284532,-0.02095372639313147,-0.005375311955595469,-0.017557342617783425,-0.051534707644750787,-0.05181141411217371,-0.3101808579331305,-0.19606656769035438,0.0,0.013233756643910547,0.002836775007695997,-0.07814894100736909,-0.2991320223607288,-0.004449855893414449,-0.3233518865144921,-0.02984556561918078,-0.2635446618705211,-0.23753840559835218,-0.21013219059851504,-0.23235817216936194,0.0,0.0,0.06674199423061777,-0.14276678685407096,0.0,0.0,0.0,0.0,0.06290856889810152,0.0,-0.19248328378033078,-0.24644712615479963,-0.19619556861434026,-0.24430630149863122,-0.24057732075871543,-0.260920652253955,-0.10151294124280083,-0.06533711504352165,-0.035029530204140985,0.0,0.031182713295589002,-0.07821641426057221,-0.08233344570954518,-0.08480826915296355,-0.11869520055132395,-0.18653469294650832,-0.15998836982485357,0.0,-0.21656385827831007,-0.1558050376873288,0.0,0.0,0.0,0.0,0.0,-0.36140305062711464,-0.018456145121750922,-0.11553979904048847,-0.06274122541636952,0.042943528712078065,-0.008518861307017199,0.005061150429056069,-0.10929275213171231,-0.3556435241777801,-0.07095331237966099,-0.029007660031413657,-0.12677783470576817,-0.04793625423089677,-0.09171440841685549,-0.024273367411616856,0.0,-0.10568156387946669,-0.024507796197189007,-0.22057103038580808,-0.0312816669075802,-0.06274122541636952,-0.06274122541636952,-0.31397693887819855,-0.08755042540989899,-0.015051269702362008,0.0,-0.1527917095065689,-0.24311426494015703,0.0,-0.24439925833062104,-0.08721281376338708,0.0,-0.29970097411478136,-0.04732575520088502
NU7441,0.0,-0.11157320779798532,-0.1360269063666236,-0.06947104054450576,-0.05507214403995143,-0.012186991605509108,-0.056132389386906546,0.0,0.0,0.014669061700289891,0.0,-0.14159813917195438,0.0,-0.14173884740668458,0.0,-0.09833954431832995,0.0,-0.03857342528455252,0.0,0.024605922255391578,-0.08162871038871618,0.0,0.0,0.0,0.0,0.0,0.0,-0.09070043231042543,-0.19492311862956932,-0.13055162938923368,-0.09833954431832995,-0.06799682818531397,0.0,0.0,0.0,0.012743322982498284,-0.1586972604957394,-0.11613729144593307,0.010323971991983542,-0.09833954431832995,0.0,0.0,-0.15092000863456712,-0.17012408113876967,-0.05914706855252221,-0.11157320779798532,-0.08663988794086115,-0.11571388171344972,0.0,-0.06947104054450576,-0.15391837492000565,-0.07161373538322102,-0.05186980786847393,-6.308308896498239e-05,0.0,0.0,-0.13746786872981973,0.0,-0.12883030098172474,0.0,-0.10694076129017961,0.0,0.0,0.0,0.0,-0.18279434278601786,0.0,-0.06799682818531397,0.0,0.0,0.0,-0.01090541977393614,-0.12528087712431063,-0.006406991759365842,-0.1388571689424252,-0.15179755517404409,-0.05728404893899664,0.0,-0.009001960196137075,0.0,0.0,-0.11017398954146931,-0.06255480120391971,0.0,-0.09833954431832995,-0.19228622121730274,0.0,-0.16812990588777713,0.0,0.0,0.0,0.04099241229036832,0.0,-0.1727147410889919,-0.09070043231042545,0.0,-0.013233663479655365,0.0,0.0,0.0,0.0,0.0,0.0,0.0,-0.05728404893899665,0.041055495379333305,0.0,-0.13746786872981973,-0.13972396711231705,-0.06805991127427895,0.0,-0.09253092129816883,-0.1605277494834828,-0.1586972604957394,-0.12778362910757848,-0.06805991127427895,-0.024344661449719536,-0.18607091843452814,-0.13562463271934255,-0.10281766219036237,-0.2060613627348485,-0.012186991605509108,0.0,-0.08123049166496933,0.0,-0.09833954431832995,-0.05728404893899664,-0.10260212583676258,-0.19996319018237327,0.0,-0.14173884740668458,0.0,-0.06577397979881229,-0.17906074910241052,0.0,-0.013233663479655365,-0.09649630830785279,0.0,-0.16574045905400578,0.03181244453222997,0.023886647982977904,-0.1360269063666236,0.0,0.0,-0.05729186618067669,0.0,0.0,-0.2015832448628161,-0.026941332805980663,-0.07851344070491634,0.0,-0.13645756083528468,0.0,0.0,0.0,0.0,-0.03859586560721172,0.02399967946495156,-0.13114078235285478,0.0,0.0,0.0,-0.22747510194294407,-0.11311456740728858,0.0,-0.17060735118050877,0.0,-0.05728404893899665,0.0,0.0,0.0,0.0,-0.06270265359337852,-0.18235370595078834,0.0,-0.025500370442784526,0.0,0.03863614987137785,-0.07845149243707487,-0.19793142399446223,0.0,-0.06947104054450576,0.0,0.041055495379333305,0.0,-0.07333930225095217,-0.2347427556854938,-0.039128324411489765,0.0,-0.013233663479655365,0.0,-0.09833954431832995,-0.14288088226109225,0.0,-0.16688249390841345,-0.008980451892569116,-0.22718922432084887,-0.1162896417866817,-0.12528087712431063,-0.1939441328549116,0.0,0.0,0.0,-0.08885719629994827,0.0,0.0,0.0,0.0,0.0,0.0,-0.07246044738979762,-0.08032976636111519,-0.04511684093653594,-0.1026105229951948,-0.05728404893899664,-0.05728404893899665,0.0,-0.013233663479655365,0.0,0.0,0.0,0.0,-0.05970339444695209,0.041055495379333305,-0.2528945974168693,-0.13618629689824677,-0.13358641667750215,0.0,-0.10306000126606908,-0.11052653592383907,0.0,0.0,0.0,0.0,0.0,-0.18188051735442934,-0.013233663479655365,-0.14067274945284197,0.0,-0.02221411537222448,-0.03440110697773359,-0.02935583900186451,-0.0036970607456934673,-0.13746786872981973,0.0,0.001843236010477165,-0.10203660506402341,-0.017496244998087985,-0.04557405321563922,0.014261799461631993,0.0,-0.12803117808035927,0.0,-0.08934359552823176,0.04289873138981047,0.0,0.0,-0.2105368126903591,-0.06194887478177397,0.0,0.0,-0.06615359217483681,-0.1571061535831778,0.0,-0.055440812928519476,0.034365171194513,0.0,-0.20589103926606386,-0.06859349400502879
Doramapimod,0.0,-0.18662455954159318,-0.19586877853963336,-0.14757713977051998,-0.050648875697631525,0.03161897624096127,-0.19840116064889812,0.053586726719025896,0.0,-0.07054593343867795,-0.13238425088103828,-0.14066589107562447,0.008423487197062785,-0.23605726918921666,0.0,-0.09645350188937796,-0.06704219613933712,0.02318262321978886,0.008423487197062785,-0.18782067712491235,-0.05210783112448074,0.0,0.0,0.0,-0.002071873746205223,0.008423487197062785,0.0,-0.17842501720448545,-0.3966580944018845,-0.2540311064310054,-0.07301136612831882,-0.07006870193151919,0.01773116161090619,0.0,-0.06274122541636952,0.030015128704934384,-0.15660523700768628,-0.09562250658679551,0.16700941439149725,-0.19473841297614344,0.0,0.0,-0.16050794371850646,-0.2517683520509536,-0.1320329299992911,-0.14301061588782452,-0.11691315415320397,-0.278449373402759,0.0,-0.05887012700273697,-0.30898973782888856,-0.20527613455871138,-0.12766256066791068,-0.0016714437042408764,0.0,-0.09138691825931046,-0.1891504193771271,0.0,-0.00967902656356145,-0.06274122541636952,-0.22400029529428278,0.0,-0.0679244072033985,0.060152841654531525,0.0,-0.21375341771265122,-0.05431773821930674,-0.17097482957151863,0.0,0.0,-0.017577985894406407,0.05976351092841123,-0.18646135780229325,0.14785122024237218,-0.17724680267596996,-0.20730681580318666,-0.18665346191775725,0.0,0.0,0.0,0.0,-0.2013059628894514,-0.19523240585409574,0.0,-0.19260825586662744,-0.2253159792715951,0.0,-0.19672922813159946,0.0,-0.019391203440996096,0.0,-0.0529083414191801,-0.034806264324932036,-0.1432658647951927,-0.1697803302078958,-0.17032448823685517,-0.054651629253410446,0.0,0.0,0.0,0.0,0.0,0.0,0.0,-0.12643299123940976,-0.09551539865413049,0.008423487197062785,-0.20981052946865544,-0.11912855205379122,-0.11372058026035353,-0.051493906867423875,-0.15845973196556057,-0.2054106090859023,-0.15553775129920164,-0.11201249201302999,-0.018311920609631306,0.0,-0.34366866027973947,-0.09620030453905987,-0.2249451271443262,-0.20588927438884463,-0.033434724472144496,0.010221247836339523,-0.09342461225201316,0.008423487197062785,-0.09068222270577558,-0.16017258885709693,-0.08458284524089155,-0.1902678480503162,-0.044689671039176856,-0.21046002925708343,0.0,-0.10130947984201187,-0.3155206593963474,0.04881184544281033,-0.04151942263028721,-0.016564558934881995,0.0,-0.11801103111516237,0.01493939840011452,-0.09706486159607566,-0.24319513581128605,0.0,0.0,-0.16876879300686704,0.026596215553573194,0.0,-0.23238662967032583,-0.16960610088755004,-0.14603699384467,0.0,0.004418256739604005,0.007313662238179084,0.0,-0.0022139422400672794,-0.011700812963345263,-0.003047354764696246,0.13914405425005638,-0.11501250659209084,0.005214170695633584,0.0,0.0,-0.4265638277648358,-0.18379700943880997,0.0,-0.17781744077836634,0.0,-0.07226610772034578,0.0,0.01773116161090619,-0.09711601244205119,0.0,-0.10149792591154909,-0.36814202619252173,0.0,-0.08824159585915405,0.0,-0.030998173285012056,-0.0520658360018783,-0.0923509459404886,-0.020391011546284532,-0.02379050140082747,0.045163239521963106,0.035817983867471155,-0.051534707644750787,-0.046224701922806914,-0.20283695898005277,-0.12025838364559782,0.0,0.021657243840973332,0.0,-0.0351570242004958,-0.25280446792960143,-0.004449855893414449,-0.305617813689562,-0.02984556561918078,-0.2579579496811543,-0.23224265447747616,-0.19121417148217462,-0.21768334951431653,0.0,0.0,0.06674199423061777,-0.07517068977260585,0.0,0.0,0.0,0.0,0.0713320560951643,0.0,-0.11557660107099835,-0.18520264252419208,-0.1801143245056958,-0.24430630149863122,-0.18472778046594945,-0.24483940814531055,-0.09330085427950938,-0.011961788558267067,-0.026606043007078202,0.0,0.031182713295589002,-0.024841087775317648,-0.07881860726638362,-0.012514923551368533,-0.11310848836195718,-0.1696885475763731,-0.1621596925399434,0.0,-0.13133313734079943,-0.10242971120207424,0.0,0.0,0.0,0.0,0.008423487197062785,-0.33406154431371143,-0.01003265792468814,-0.1071163118434257,-0.06274122541636952,0.042943528712078065,-0.008518861307017199,0.023979169545396507,-0.0924466067615771,-0.2936341392856818,-0.017577985894406407,-0.022322449177471025,-0.12119112251640139,-0.03951276703383399,-0.04958388359638174,-0.015849880214554066,0.008423487197062785,-0.08773609082076526,-0.024507796197189007,-0.09662787376734472,0.022093659577674375,-0.06274122541636952,-0.03533169010158261,-0.2925999436486781,-0.09038720041759499,-0.006627782505299223,0.0,-0.11253711873850701,-0.22931546578749878,0.0,-0.24723603333831703,-0.07900072680009561,0.0,-0.2551215036916091,-0.044201326795098805
Wee1 Inhibitor,0.0,0.08915531572370296,0.009609317188844772,0.014992988972937675,-0.04390897992214991,0.05630220733884347,-0.0742535561102936,0.02740953531478691,0.0,-0.012117169704072176,-0.08381812550024771,0.0016555826176826854,0.0,-0.038778235851995496,0.0,0.015093902150849426,-0.032769422927016914,0.013242559328583536,0.0,-0.0017616133383786675,0.01106160430746603,0.0,0.0,0.0,0.0,0.0,0.0,0.019897410246446992,-0.124591755488572,-0.13970398919247545,0.027400051936216353,-0.06799682818531397,0.01773116161090619,0.0,-0.023356174290233116,-0.07169558573349949,-0.03044728806629967,0.008998762902880812,-0.014296950961351196,-0.018554023864323928,0.0,0.0,-0.10834275910878996,-0.07441165652551228,-0.03418039950729373,0.05421018668735435,0.04953390663398251,-0.10268534136115576,0.0,0.10861210178370474,-0.08190376807897,-0.0421278583114583,-0.07140556731583547,0.0,0.0,-0.05200186713317406,0.01065590824835295,0.0,0.08637161047653417,-0.023356174290233116,-0.1726668067892,0.0,-0.018104253553951132,0.0034549577938084016,0.0,-0.02319989013474342,-0.023356174290233116,-0.07584278426099206,0.0,0.0,0.004053361024553795,-0.010432189865128593,-0.0957950000525479,0.0707303886834168,-0.01570393478836051,0.0012363613930087714,-0.05296756370405673,0.0,0.0,0.0,0.0,-0.01915260347824592,0.05052775381977385,0.0,0.034617158839343756,-0.049015791737266785,0.0,-0.03726417813775175,0.0,0.0022401434779641093,0.0,-0.004454174489694988,-0.032769422927016914,-0.03487212967444042,-0.06299391235346202,-0.07873298210612775,0.004053361024553795,0.0,0.0,0.0,0.0,0.0,0.0,0.0,-0.0003886365524470234,0.028937422075161666,0.0,-0.00043462303406164877,-0.034554294029433906,-0.06274872091386621,-0.006634901384519925,0.05205948843281282,-0.1275869146179117,0.006554886233598987,-0.02666711248488608,-0.03667913391907621,0.0,-0.01866527088138889,0.010109508943369202,0.12694090311830541,-0.07842746323374816,0.05705817548181247,0.0,0.00822234016017271,0.0,0.030278962176355555,0.010568585557319925,0.0,0.04247435200977408,-0.032769422927016914,-0.012700266041880173,0.0,-0.002681817877934831,-0.06320342471066688,0.02861849554438563,0.023208299385824353,0.06507288388701464,0.0,-0.0011721084347933643,-0.0030640044540427777,-0.029735066576812193,-0.013746857101388343,0.0,0.0,-0.07047567948579189,0.018172728356510407,0.0,-0.055497808903612715,-0.11001039911524088,-0.019724915869993646,0.0,0.0001250452877456093,0.0,0.0,0.052781482193940514,-0.0024079793959845865,-0.0490540171000071,0.1134525112900936,-0.06215171357488803,0.0335244380757768,0.0,0.0,-0.14360300915456806,-0.003752912212910313,0.0,-0.04307336133397515,0.0,-0.007919770699439091,0.0,0.01773116161090619,-0.060178958241803825,0.0,-0.06449456153619104,-0.05827347712399885,0.0,-0.0445855660561528,0.0,-0.040012946219225826,0.02187327683391888,-0.08432875449265641,0.0,0.09743348717053882,0.02740953531478691,0.022170053129914345,-0.05775901927610546,0.019918890599380908,-0.14529929364003133,-0.07103313781198595,0.0,0.07276421055167828,0.0,0.02740953531478691,-0.06271508803848513,0.0,-0.1086287857326918,-0.03630593309208758,-0.06620798026141841,0.010832374032868203,-0.01734174273150076,-0.14114134477099022,0.0,0.0,0.05705817548181247,0.004431327436337541,0.0,0.0,0.0,0.0,0.07621916834548668,0.0,-0.07100299729696037,-0.027024767850821835,0.02712593200546983,-0.04191019815455704,0.047206182162408454,-0.004529378864765489,-0.023356174290233116,0.07681757157623208,-0.007816024532085054,0.0,0.0,0.004053361024553795,0.04680927469492151,0.013589963758515691,-0.0043403612838189744,-0.08250220468325721,-0.042760355097200484,0.0,0.03567315803774794,0.06591368693227545,0.0,0.0,0.0,0.0,0.0,-0.07069894115254072,0.05541328533308838,0.02511064503249768,-0.023356174290233116,0.08090822913713377,0.08090822913713377,0.06260118732323446,-0.04114863649942108,-0.09355485657458379,0.004053361024553795,0.04280555602105596,0.04842099647825275,0.06171245100331289,-0.027597652460517035,0.005819356321413084,0.0,0.05705817548181247,0.0,-0.03328219206823779,0.016021776803106465,-0.023356174290233116,0.004053361024553795,-0.08361431245005572,-0.06194887478177397,-0.015051269702362008,0.0,-0.013260558058360376,0.02872085864586608,0.0,-0.020002182251158997,-0.01688139949116764,0.0,-0.053697572028581796,-0.01491506306983488
Nutlin-3a (-),0.0,-0.052387193372120854,0.0,0.0,0.0,0.0,-0.052387193372120854,0.0,0.0,0.029968131457385923,0.0,0.0,0.0,0.0,0.0,0.0,0.029968131457385923,-0.05052968345824557,0.0,0.0,-0.03054662020899494,0.0,0.0,0.0,0.0,0.0,0.0,-0.052387193372120854,0.0,0.0,0.0,0.0018575099138752825,0.0,0.0,0.0,-0.030987114601833357,0.0018575099138752825,-0.03284462451570864,0.0,0.0,0.0,0.0,-0.0010189831444474343,-0.030987114601833357,0.0018575099138752825,0.0,-0.052387193372120854,0.0,0.0,0.0,-0.052387193372120854,-0.0010189831444474343,0.0,0.0,0.0,0.0,-0.05052968345824557,0.0,0.0,0.0,0.0,0.0,0.0,0.0,0.0,0.0,0.0,0.0,0.0,0.0,0.0,-0.03284462451570864,0.0018575099138752825,0.0,-0.05340617651656829,0.0,-0.052387193372120854,0.0,0.0,0.0,0.0,0.0,0.0,0.0018575099138752825,-0.05052968345824557,-0.052387193372120854,0.0,-0.03284462451570864,0.0,0.0,0.0,0.0,0.0,-0.05052968345824557,-0.030987114601833357,0.0,0.0,0.0,0.0,0.0,0.0,0.0,0.0,0.0,0.0,0.0,0.0,0.0,-0.052387193372120854,-0.052387193372120854,0.0,-0.05052968345824557,0.0018575099138752825,0.0018575099138752825,-0.05052968345824557,0.0,0.0,0.0018575099138752825,-0.030987114601833357,-0.052387193372120854,-0.0010189831444474343,0.031825641371261204,0.0,0.0,0.0,0.0,0.0,0.0,0.0,0.0,0.0,0.0,-0.03240413012287022,0.0018575099138752825,0.0,0.0,0.0,0.0,-0.05052968345824557,0.0,0.0,0.031825641371261204,0.0,0.0,0.0018575099138752825,0.0,0.0,-0.05052968345824557,0.0,-0.030987114601833357,0.0,-0.055212255698273954,0.0,0.0,0.0018575099138752825,0.0,-0.052387193372120854,-0.052387193372120854,0.0,-0.052387193372120854,0.0,0.0,-0.05052968345824557,0.029968131457385923,0.0,0.0,0.0,0.0018575099138752825,0.029968131457385923,0.0,0.0,0.0,0.0,0.0,0.0,0.0,0.0,0.0,0.0,-0.06339124472470357,0.0,0.0018575099138752825,0.0,-0.052387193372120854,0.0018575099138752825,0.0,-0.05340617651656829,-0.052387193372120854,0.0,0.0,0.0,0.0,0.0,0.0,0.0,0.0,0.0,0.0,0.0,-0.0833743079739542,0.0,0.0,-0.052387193372120854,-0.030987114601833357,0.0,0.0,0.0,0.0,0.0,0.0,0.0,0.0,0.0,0.0,0.0,0.0,0.0,0.0,0.0,0.0,0.0,0.0,-0.052387193372120854,0.0,-0.0833743079739542,0.0,-0.05052968345824557,0.0,-0.05052968345824557,0.0,0.0,0.0,0.0,0.0,0.0,0.0,0.0,0.0,0.0,0.0,0.0,0.0,0.0018575099138752825,-0.0010189831444474343,0.0,0.0,0.0,-0.052387193372120854,-0.0010189831444474343,-0.052387193372120854,0.0,0.0,-0.03284462451570864,0.0,0.0,0.0,0.0,-0.0010189831444474343,0.0,0.0,0.0,0.0018575099138752825,0.0,0.0,0.0,0.0,0.0,0.0,-0.10516345040491051
