,ABC transporters,AGE-RAGE signaling pathway in diabetic complications,AMPK signaling pathway,Acute myeloid leukemia,Adherens junction,Adipocytokine signaling pathway,Adrenergic signaling in cardiomyocytes,African trypanosomiasis,"Alanine, aspartate and glutamate metabolism",Alcoholism,Aldosterone synthesis and secretion,Aldosterone-regulated sodium reabsorption,Allograft rejection,Alzheimer disease,Amino sugar and nucleotide sugar metabolism,Amoebiasis,Amphetamine addiction,Amyotrophic lateral sclerosis,Antigen processing and presentation,Apelin signaling pathway,Apoptosis,Arachidonic acid metabolism,Arginine and proline metabolism,Arginine biosynthesis,Arrhythmogenic right ventricular cardiomyopathy,Asthma,Autoimmune thyroid disease,Autophagy,Axon guidance,B cell receptor signaling pathway,Bacterial invasion of epithelial cells,Basal cell carcinoma,Basal transcription factors,Base excision repair,Bile secretion,Bladder cancer,Breast cancer,C-type lectin receptor signaling pathway,Calcium signaling pathway,Carbohydrate digestion and absorption,Cardiac muscle contraction,Cell adhesion molecules,Cell cycle,Cellular senescence,Central carbon metabolism in cancer,Chagas disease,Chemical carcinogenesis,Chemokine signaling pathway,Cholesterol metabolism,Choline metabolism in cancer,Cholinergic synapse,Chronic myeloid leukemia,Circadian entrainment,Circadian rhythm,Citrate cycle (TCA cycle),Cocaine addiction,Colorectal cancer,Complement and coagulation cascades,Coronavirus disease,Cortisol synthesis and secretion,Cushing syndrome,Cysteine and methionine metabolism,Cytokine-cytokine receptor interaction,Cytosolic DNA-sensing pathway,DNA replication,Diabetic cardiomyopathy,Dilated cardiomyopathy,Dopaminergic synapse,Drug metabolism,ECM-receptor interaction,Endocrine and other factor-regulated calcium reabsorption,Endocytosis,Endometrial cancer,Epithelial cell signaling in Helicobacter pylori infection,Epstein-Barr virus infection,ErbB signaling pathway,Estrogen signaling pathway,Ether lipid metabolism,Fanconi anemia pathway,Fat digestion and absorption,Fatty acid biosynthesis,Fc epsilon RI signaling pathway,Fc gamma R-mediated phagocytosis,Ferroptosis,Fluid shear stress and atherosclerosis,Focal adhesion,Folate biosynthesis,FoxO signaling pathway,Fructose and mannose metabolism,GABAergic synapse,Galactose metabolism,Gap junction,Gastric acid secretion,Gastric cancer,Glioma,Glucagon signaling pathway,Glutamatergic synapse,Glutathione metabolism,Glycerolipid metabolism,Glycerophospholipid metabolism,"Glycine, serine and threonine metabolism",Glycolysis / Gluconeogenesis,Glycosaminoglycan biosynthesis,Glycosaminoglycan degradation,GnRH secretion,GnRH signaling pathway,Graft-versus-host disease,"Growth hormone synthesis, secretion and action",HIF-1 signaling pathway,Hedgehog signaling pathway,Hematopoietic cell lineage,Hepatitis B,Hepatitis C,Hepatocellular carcinoma,Herpes simplex virus 1 infection,Hippo signaling pathway,Homologous recombination,Human T-cell leukemia virus 1 infection,Human cytomegalovirus infection,Human immunodeficiency virus 1 infection,Human papillomavirus infection,Huntington disease,Hypertrophic cardiomyopathy,IL-17 signaling pathway,Inflammatory bowel disease,Inflammatory mediator regulation of TRP channels,Influenza A,Inositol phosphate metabolism,Insulin resistance,Insulin secretion,Insulin signaling pathway,Intestinal immune network for IgA production,JAK-STAT signaling pathway,Kaposi sarcoma-associated herpesvirus infection,Legionellosis,Leishmaniasis,Leukocyte transendothelial migration,Linoleic acid metabolism,Lipid and atherosclerosis,Long-term depression,Long-term potentiation,Longevity regulating pathway,Lysine degradation,Lysosome,MAPK signaling pathway,Malaria,Maturity onset diabetes of the young,Measles,Melanogenesis,Melanoma,Metabolism of xenobiotics by cytochrome P450,MicroRNAs in cancer,Mineral absorption,Mismatch repair,Mitophagy,Morphine addiction,NF-kappa B signaling pathway,NOD-like receptor signaling pathway,Natural killer cell mediated cytotoxicity,Necroptosis,"Neomycin, kanamycin and gentamicin biosynthesis",Neuroactive ligand-receptor interaction,Neurotrophin signaling pathway,Neutrophil extracellular trap formation,Nicotine addiction,Non-alcoholic fatty liver disease,Non-homologous end-joining,Non-small cell lung cancer,Notch signaling pathway,Nucleotide excision repair,Olfactory transduction,One carbon pool by folate,Oocyte meiosis,Osteoclast differentiation,Other types of O-glycan biosynthesis,Ovarian steroidogenesis,Oxidative phosphorylation,Oxytocin signaling pathway,PD-L1 expression and PD-1 checkpoint pathway in cancer,PI3K-Akt signaling pathway,PPAR signaling pathway,Pancreatic cancer,Pancreatic secretion,"Parathyroid hormone synthesis, secretion and action",Parkinson disease,Pathogenic Escherichia coli infection,Pathways in cancer,Pathways of neurodegeneration,Peroxisome,Pertussis,Phagosome,Phosphatidylinositol signaling system,Phospholipase D signaling pathway,Phototransduction,Platelet activation,Primary immunodeficiency,Prion disease,Progesterone-mediated oocyte maturation,Prolactin signaling pathway,Prostate cancer,Proteasome,Protein digestion and absorption,Protein processing in endoplasmic reticulum,Proteoglycans in cancer,Proximal tubule bicarbonate reclamation,Purine metabolism,Pyrimidine metabolism,Pyruvate metabolism,RIG-I-like receptor signaling pathway,RNA transport,Rap1 signaling pathway,Ras signaling pathway,Regulation of actin cytoskeleton,Regulation of lipolysis in adipocytes,Relaxin signaling pathway,Renal cell carcinoma,Renin secretion,Retrograde endocannabinoid signaling,Rheumatoid arthritis,Ribosome,Ribosome biogenesis in eukaryotes,Salivary secretion,Salmonella infection,Serotonergic synapse,Shigellosis,Signaling pathways regulating pluripotency of stem cells,Small cell lung cancer,Sphingolipid metabolism,Sphingolipid signaling pathway,Spinocerebellar ataxia,Spliceosome,Staphylococcus aureus infection,Starch and sucrose metabolism,Synaptic vesicle cycle,Systemic lupus erythematosus,T cell receptor signaling pathway,TGF-beta signaling pathway,TNF signaling pathway,Taste transduction,Th1 and Th2 cell differentiation,Th17 cell differentiation,Thermogenesis,Thyroid cancer,Thyroid hormone signaling pathway,Thyroid hormone synthesis,Tight junction,Toll-like receptor signaling pathway,Toxoplasmosis,Transcriptional misregulation in cancer,Tuberculosis,Type I diabetes mellitus,Type II diabetes mellitus,Ubiquitin mediated proteolysis,VEGF signaling pathway,Vascular smooth muscle contraction,Vasopressin-regulated water reabsorption,Vibrio cholerae infection,Viral carcinogenesis,Viral myocarditis,Viral protein interaction with cytokine and cytokine receptor,Vitamin digestion and absorption,Wnt signaling pathway,Yersinia infection,alpha-Linolenic acid metabolism,cAMP signaling pathway,cGMP-PKG signaling pathway,mRNA surveillance pathway,mTOR signaling pathway,p53 signaling pathway
Camptothecin,0.19044534662682955,0.8463821171267869,-0.8439626655903096,0.6159894550169429,-1.7337804402578885,1.1682885321401815,0.23874870375904605,2.112145576749256,-0.12340351046845889,0.6003880190111802,0.6366190852050375,0.3487531359165508,2.8003839464198,-0.3851002283522271,0.21231350999956977,0.9770539557031451,1.689518292388754,-1.0381620784584087,-1.893768075440531,-0.08831274751419624,0.4153332552664856,1.5217669620944612,-0.2312837022652474,-0.24119640942721926,-0.18255470288944808,-0.31395968373774474,-0.27777053501288007,-1.0589283894121346,-0.7018613008059571,-0.18168209987420225,-0.6232131555874743,-2.3799373132125066,-0.7026821355944896,-2.7550784105706607,0.6481162678607127,1.5987077712052054,-0.11193929644303183,0.43173573270004906,1.4338846700174732,-0.10172103282425052,-0.11391385711312024,0.8295456608271147,0.1809079198278342,0.48739973952336313,0.9621271429252863,1.4948422488389588,1.3238438428524826,-0.1129868001484691,0.22076470127148917,0.665576801509067,-0.3284623065655049,0.19943515132099457,0.42712445670611826,-2.024201064353196,-0.14259486900484122,2.646883281195058,0.009131092268574064,-0.1674846894786221,1.1532427497826334,0.445543945363994,-1.2074596492549519,0.16012815380508721,0.8319870444365411,0.19186206890650015,-0.49410890649628364,0.39635009324497755,0.508874457618713,0.8943738034625511,-1.3020421838424048,0.3395343168643505,1.3781533949558025,-0.7406516714962693,0.27757077015894155,1.6570616549026382,0.5258700239505156,0.6945991735040156,-0.3205246935225307,0.1559519417384769,1.9100971662417674,0.17816588534478148,-0.2526455763199553,0.5754457726216473,-0.20309494411309403,0.2898450958435093,0.5876375961646506,0.012045317855216061,-0.16012815380508716,-0.3555025091286207,0.16689290012012523,1.3249075961989987,0.21231350999956977,1.0757105955126747,0.985764710570819,-1.564911787163826,-0.3380952244347698,0.2024325811283709,0.3500336828449223,-0.7583409502012723,-1.240690070570933,-1.387040060237225,-0.12340351046845853,-0.03422006830632712,-0.16549481017205764,-0.08130380616553287,-0.26602781525993024,3.230875590702247,3.084166649646115,0.8684089621957987,0.2077682357300668,-1.3130306905822942,0.39113047296850967,1.617322861803635,-0.3602898025356848,-0.5884611913962661,-1.7033879939744367,-1.0102495518386374,2.1942213060566806,1.18877560359295,0.7257661069835029,1.1100849332800586,-0.7556577343314551,1.9601579151997308,-1.8825911824108508,1.4806282583777226,3.091601531017547,1.6274440659409322,-0.2243415174883013,-0.2915439968906324,-0.7001521867605169,1.654874244592667,-1.2730831755709051,-0.10057081094412819,0.19711501208409335,0.7101962788929791,1.3148246717252168,1.0090858463814731,-0.17101104140772233,-0.10050378152592128,0.3958284486279036,0.32983653496281723,0.6549754914911959,0.47881142776646846,-0.09789401393860746,-0.18344365705379576,1.474323691946532,-0.8069548919571278,-0.061511221514020865,-0.6265460671134658,-0.910569592714876,-0.6775158729431123,-2.4895343389395417,0.6602697543142407,-0.3679648841090628,0.22598344020196848,3.5380112521678964,0.5596902090783549,-1.7848115133395823,-0.16591812737682043,-0.8766840712776929,-0.12756531382430428,0.21231350999956977,-0.1989286935248713,0.4937033675622537,-0.32250316163754145,0.0,1.0805409089632365,7.000000000000065,0.14310781873348224,-0.20328752863528274,-0.5263054012336169,0.2486325463354937,2.919556391613211,0.4782240979406567,0.16304157017677004,-0.04737411818157105,0.806401627710437,-0.14837061028313864,0.5358265123157843,0.6887859115397965,-1.1102007108106269,-0.4734051722923398,1.2227752530935223,1.175677373286044,0.6533183250660917,1.1868959570917688,1.0437455233833335,0.5860000879835692,0.8708237129430171,-0.05860162052987559,3.08704714380234,-0.47355058349572327,0.004823167932227558,-0.3053449168273176,0.16531567703487052,-0.3030516021232152,0.31596188352320553,-0.5354249439421825,0.8138383196064366,0.10689587398869506,-0.8658319071642272,-0.4498490693972075,0.15173634438148062,-0.3355671086454855,0.03407766207740568,-0.1658260141674557,0.9938696040317677,1.0310724943211775,-0.16060351436258316,2.241250551451022,0.24925116299920555,0.3560095458495643,1.1186297131949514,0.058946528230744914,-0.250875220716047,1.7526539774592222,-0.0755759294322068,0.20948820856489506,2.2194902499559612,2.267278597987974,-0.1904453466268296,-0.23544245433574965,1.2700580002326798,1.4529479559825405,0.49832378773551456,-0.8696217916836174,-1.113922323857984,-0.17313676167574796,-0.011083873886846984,-0.28350882520715814,0.5575958697953695,-2.290992576968242,0.1807049678581104,-0.3869016049895807,-0.17586311452816444,0.04743141087708807,-0.17448862053071462,0.6847934135104395,2.3882515249115714,0.6799475381782107,1.893583944749569,1.5116103172578101,0.4027063754469044,0.578159540184981,-0.37793884799243166,1.4171224495058532,2.07257513832379,1.7941767030241673,1.371723061469643,1.30016234141158,-0.06263242250822344,2.636894783802092,-0.4959764727264125,-0.04675959217630027,-0.24591168795635604,0.22441853604929035,0.6787091651117494,1.5924039065376416,1.000439832381561,-0.640622180452605,0.42208230710908756,0.07088812050083339,-0.7252871992569899,0.27974711386621454,-0.10050378152592128,0.8591305360316569,-0.013920084282612627,-1.6460793412687262,-0.8780620177457747,-0.3390300198573366
Vinblastine,0.19044534662682955,0.454257879515592,0.580575513590022,0.9320148784834335,0.8331284353444405,2.660118515079784,0.9152748545040746,-0.0728001537056247,-0.12340351046845889,-0.03418266717303157,0.9597354341581896,0.5612203814868443,0.2022129515758801,1.174978461389519,0.21231350999956977,0.41898356139936127,1.2472573441635633,-0.06466487157161589,-0.06576714777963381,0.5071370041776256,1.4937379616688948,1.5217669620944612,-0.2312837022652474,-0.24119640942721926,-0.18255470288944808,-0.31395968373774474,0.2819446661607454,1.0497276712925407,0.31918998242873087,0.9622707841372808,-0.17740988275737074,0.6879386694749022,-0.7026821355944896,-1.9301220059838975,0.6481162678607127,0.647141330913229,1.4442645498957563,1.1137953871945885,0.6446226720436394,0.7790258004670126,-0.11391385711312024,-2.1773542714856675,1.0068257669406069,0.6933748978777498,1.3645350578088864,1.6330332850584424,1.6268124171716782,0.8204930944132078,0.22076470127148917,1.87453074744859,0.41995600761497826,0.9737613675894082,0.5909297174436763,0.3662929489769368,-4.61259445490715,0.8284636975790766,2.584522341036388,0.3915976701025466,2.582727294913614,0.6055216911265888,-0.1631906185304312,0.16012815380508721,0.2308535260773499,-0.04463939570594462,2.0791538802080303,1.1371502613526567,0.508874457618713,1.6616249642699354,4.030374293124909,-1.2465670448217765,1.3781533949558025,0.9100785550634611,1.440839804346561,1.6234659026179528,1.7737642326859582,2.5231744478203812,0.4550760658968818,0.1559519417384769,-0.2381383408712707,0.17816588534478148,-0.2526455763199553,0.9971920531801993,0.7281395672453784,0.2898450958435093,1.1047202578482993,1.4234150583331873,-0.16012815380508716,1.3636873744254145,0.16689290012012523,1.3249075961989987,0.21231350999956977,1.076732904095727,1.2442021676323656,1.2674981719859915,0.7584474237189667,0.572394491673125,0.3500336828449223,-2.0506116002908996,0.07439860717017989,0.09406282803073275,-0.12340351046845853,-0.03422006830632712,-0.16549481017205764,-0.08130380616553287,0.6655595286140094,1.638289972733825,-0.4759951535298398,1.1550858607024281,1.5410635760773768,0.9757386617180098,0.23088686927987742,1.3608296554772616,0.9858377820648692,1.245370943793992,1.8504232198603177,2.1310485272249533,-0.09511034001715313,0.7389106008060827,1.3227135472576308,1.5054971822069545,0.24517965226207744,0.8879491922336803,-0.48441449852040924,2.6689903869466614,0.6340597408083856,2.067319433807867,0.47514087115892184,0.551822815337883,1.8387021563798516,1.164709887801591,0.9439361459462353,-0.5911111398983229,1.7999599247652176,1.1104684491997723,-0.7601753849262228,0.7171099329291668,-0.5249487435025237,-0.10050378152592128,1.4893002119830365,-0.26974258337679435,0.26606104545639,0.6313043223061603,0.008413774596329597,-0.18344365705379576,1.8396298234409503,-1.7060699337601415,-0.061511221514020865,1.4620516333853244,0.7832636331711309,0.41701572278317894,0.1956530753773762,2.0893634839887967,-0.3679648841090628,3.306629560073144,1.921055466138705,0.31409127784785607,1.2875130015992309,1.3058372140186034,-0.41900468475968206,1.0400160027517378,0.21231350999956977,-1.8996543067400447,1.2532034572938158,0.7103811880323241,0.0,1.4299475974708826,-0.1428571428571442,1.166681932387181,-0.22833909620347284,0.5366593705811046,0.5457520527499519,-0.34251778896020896,0.34987822405968627,0.97520257350368,-0.04737411818157105,0.806401627710437,-0.14837061028313864,0.6702591760944012,1.1804967186210216,1.6941579758776502,0.6924880016546305,1.5551951768284644,1.175677373286044,0.7347350182898164,1.5346765143984684,0.4000938959022884,1.4280489553950495,1.441272947153067,-5.075012603828166,0.6431124469526379,0.21738003717640875,0.8134714712399626,0.6317587156867724,0.16531567703487052,0.37535512730488774,-0.0715617542325274,0.8347242734579164,1.2012950335900041,1.1700019336747687,1.211348067955081,-0.4498490693972075,0.15173634438148062,0.7667508031233723,0.9217377601889318,-0.1658260141674557,3.1476151208707073,2.448303510583971,-0.16060351436258316,1.729174595180765,-0.16837723682408676,0.7162057122739443,1.5842729110483091,0.035630411625304115,0.6472089445479148,1.2794995450690838,0.4912603515324746,0.060090164819578795,2.2194902499559612,0.22813984242620403,-0.1904453466268296,-0.23544245433574965,1.2700580002326798,1.9608326999423171,0.22011425961457073,2.107211094230939,1.2752881442029491,1.5058487101094205,-0.011083873886846984,0.8739677016912837,1.6066745141927778,2.4887616962394787,-4.758425924850393,-0.3869016049895807,-0.17586311452816444,0.04743141087708807,1.0264241481194456,1.088997854088812,1.5387261022758236,0.6799475381782107,1.4249861049616506,1.8325717124366216,0.1567554338795888,0.34182057665840976,1.0658515098119496,1.1419268287100561,2.657840542567381,1.71745801820344,2.7606691920836135,0.8574991573251678,1.0703622922333644,0.16023133846918147,1.5776825397550254,2.426057792665358,0.7561107839694923,0.16310616535094896,0.6787091651117494,1.5924039065376416,0.6048667067321958,-0.8304873378407379,-0.2694844912159002,0.07088812050083339,2.930678431822924,1.051442085074144,-0.10050378152592128,0.8645025901124702,-0.6568089562623408,-0.1572959476024222,0.7997070481160373,1.3719419476166892
Cisplatin,0.19044534662682955,-5.498344884554699,-4.729151219880579,-0.04937143891953047,0.35690356017344044,1.8460629046490897,-2.5711622918220263,-4.054285774446548,8.1034971874288,-1.3778239381688098,-4.120332258605843,-1.9875585950309889,1.276764132091278,-0.04272031192152663,-2.3582059882454556,-4.063649961551915,-1.210136183586479,-1.8776014003448591,-2.116038740452572,-2.059970963031451,3.4847114771714556,5.756228970391371,1.5956719376614885,0.0155583620321962,5.242534500432879,1.8158702181700739,2.8328387899391516,-3.461435607194042,-1.5708361640876378,-2.7763328795643436,-1.2707372029857764,5.462873568649401,0.707216784313261,2.411315434023701,-1.9950638360743287,0.2770269753417705,1.7906667601600796,-0.01577172439742896,-1.5166726383197084,-3.469955713890088,4.691989077994838,5.95746205152279,0.1576786976802739,-3.0163044533343224,-1.66382544625723,-1.758483476043722,-1.0281094226833456,-2.426628938628526,-4.085329448553724,-2.362420133269056,-3.249812278030765,-0.03534670297070749,-3.0041328647090677,-8.624389742168308,1.7911748995102692,-1.0934051915001601,0.5808055896273492,7.087321774504986,-0.7979839765732982,-6.2253862151090935,-2.1972652902157535,-6.244997998398402,0.9743320708002002,2.402369296344206,6.3165518389719875,-2.923118064531881,0.0023015073306896206,-2.5709168757707466,7.967275574705481,-1.77105507596392,-4.013282033161305,1.8780361476082006,-0.17702542644167168,3.413027833445689,-0.1312940645168186,0.2286757473552992,-4.411075574353156,-4.324615849843467,6.5142592208720975,1.9781601145167529,3.9581140290126333,-1.692017155341345,-2.678309451988298,9.689601185193846,0.48290893061852025,-0.45291422445686225,-0.16012815380508716,-5.065098232017978,-4.5821116255055765,-1.859385557129381,-2.3582059882454556,-2.9159600094790354,-3.5954725726546175,0.6892924752973392,-1.7034777087828943,-5.589022005276515,-5.4698503579646,3.719550985037613,4.3238772132515,2.475845101696614,8.103497187428777,4.425083231895557,6.975768012147132,9.682232295656172,-2.8800018911372645,-1.2950635684206273,1.3302125412396968,-3.7752001434032727,-3.67712966421945,-1.1720600283671943,-1.8967014650381377,-3.3935610621037298,-1.1597201099191097,0.3240456949272045,-3.324129768530473,4.883543577338294,6.7179809918881865,-2.212017676098087,-3.1115697768804726,-1.559375560388316,0.14656693020100983,-0.3717101336674128,2.1954816454941213,2.4119798209064585,2.7722904453250363,-4.31257327964087,-2.311959319614087,-4.611932700925252,-2.9579793089934863,-4.571133216883376,-4.05108412030384,3.6002953644107367,-1.984701890943499,-1.0547697909464784,2.9957496551224816,0.6810120945034734,-5.495207016090057,9.949874371066207,-0.2173535470133249,-5.729577013392044,-2.8061060912357205,-3.8373809624177966,-9.330557928987702,7.099872080900567,0.9764953246684774,-4.0313881282182695,7.997378835235418,-2.710914388397225,-1.5790291368185418,-2.1252566179294514,6.139625973650476,-0.25299683964621783,-0.3679648841090628,-4.042056427421449,1.9495382104097172,-2.564611189415885,3.72042269459198,2.34988652077283,-3.551403674910914,5.694874543840798,-2.3582059882454556,3.927352285180306,-0.3846225681629132,-4.192822308832816,0.0,1.069758837394472,7.000000000000065,-2.3998461120464003,3.301636080761183,4.89403524610918,-0.584147255428845,2.919556391613211,-1.0464808879556826,-0.8913300120030727,-3.316684747155012,-2.2224418780140676,8.196632279295498,-5.107615995563795,-4.70364648504576,-3.0258895536244417,2.5134209140299886,0.9634860876357491,-4.6389109071254335,-2.6100382113303597,-0.7658851055580737,4.715195022818712,1.5326085814971842,2.788816468885183,-1.4023152148009737,4.938233078789028,-6.75513275094939,-4.314640376094822,-3.3742962370562526,4.4695272532426,-3.9838617728794614,-0.2863568667774621,-3.25440593965602,-0.9987142761939067,-1.6709717329081106,-1.4516607109932484,-2.008901492662836,-6.820428608132369,1.6966021970166054,-0.308269063799028,6.221511520254717,-1.6021017323967082,7.133863316571592,5.6553943398641495,3.9525171304147726,7.445192502157474,-3.631347932264957,-2.5108903750187337,-1.2241522631184287,-4.244935923757991,-4.218314515060943,-1.2141921097623154,-5.939321085463359,-2.4134992878078556,-2.7150556428747694,5.250850271282588,-0.9761382491837775,-5.6664684973951145,4.307943628808759,-3.7935392122357,-1.3154728099330182,0.5567479972318701,0.1854162096663339,4.322516951776018,-2.4942373328281655,-4.098319070066711,4.862303035573333,3.552758537904049,-1.3724082103769408,5.686240703077316,-3.9330169296564503,-1.2024039163257276,3.5706160525750925,3.3612650311662855,-3.471175220852867,1.0393990203895733,-0.6648701948539534,-8.098788623460225,3.8093338902907683,-3.023998912633753,-5.970651012569097,3.321057713700792,-0.7260715942514471,4.500019792710732,2.2774106408266377,-1.7221887876296735,2.388215623707236,-3.2142115127287156,2.071638334638707,-2.937220987605612,-3.0053886639617136,-3.634832883390102,-3.948153272458425,-1.2378922831844608,-0.9877722446942029,5.0389555067514245,0.07088812050083339,-1.8450203058110932,-3.393503046641124,9.949874371066207,-0.7134275102031039,-7.298342075890344,4.247086785259814,-0.4596422001939078,-0.43086238104004193
Cytarabine,0.19044534662682955,0.8823506012063425,0.753032289977441,-0.14071999482979658,-0.22343509710218953,-0.20866891184354752,0.15587348563369846,1.3536541861930986,-0.12340351046845889,-0.5040515285535029,0.7126342054480487,1.221349048346721,4.171349208720358,0.6360603541728207,0.21231350999956977,0.8153982035022781,1.2472573441635633,-2.045015254467033,-1.1006014085473932,0.8453767211277274,1.1283150150116104,1.5217669620944612,3.795074278784101,4.301846657401039,0.7115476395074937,3.3703668632959256,2.9131096045323344,0.05308085995658398,0.7327787427846335,0.7100333544997386,0.5224090959211197,3.5020520962457002,-0.7026821355944896,-2.7550784105706607,0.3589560048684149,0.539288671249207,0.8710675205630757,0.7460653091161052,-0.14906833002360334,0.5666543988350192,-0.11391385711312024,2.0636485459067093,0.9798260274652925,0.7506045903011338,-0.6279738607010004,1.207154297672504,0.41209519941415296,0.36605100381103595,0.22076470127148917,0.39519469994181045,-0.19998179213084477,0.7182476834349157,0.29086469367523216,0.3597630056065814,-1.5210250692143132,1.0799286634139194,0.8626781485972042,-0.1674846894786221,1.3768260279777147,0.10748033093273358,1.0439185874573722,0.16012815380508721,2.2725911024177057,-1.075988895380605,-0.49410890649628364,0.9572578645434124,1.191139570103113,0.9293350587323413,0.4927045028763564,-0.02900141586110383,0.8102862721483859,-0.5658193635911812,1.4390676719177977,0.5774051614345945,1.1596466288391012,1.0215988099326603,0.08201082400795395,0.1559519417384769,0.5177403879991385,0.17816588534478148,-0.2526455763199553,0.41899814741752645,0.7489678761889215,0.2898450958435093,1.712904356453699,0.694551344298422,-0.16012815380508716,0.7428884718072275,0.16689290012012523,1.2645443181910003,0.21231350999956977,0.058484910205506634,0.7708593280472267,0.9932292160979975,0.8796435636181155,0.23460865318664015,-0.03726743071449683,-1.1007522539837113,0.07439860717017989,0.09406282803073275,-0.12340351046845853,-0.03422006830632712,1.1881067763143172,-0.08130380616553287,0.20504515744857738,0.7635417974714525,3.8397343648441646,0.49435673022959026,0.732970615566182,1.6051510642369549,-1.2073378552800744,0.9374327351738151,1.4284566154325786,1.2352641538850917,0.9905070153907055,1.2664931408181623,0.9741624905820188,0.6202416264616766,0.9619741602727143,0.6376783751490565,1.09404702361835,0.1544322128264986,1.0912084614925004,1.6469451530863746,3.215822482136814,0.49610957254713917,1.0468631413890972,0.23087612399467647,1.1202578825230143,0.4598273068434858,0.3176172762124028,-3.3009454907131923,0.4640339414429146,1.0755138896408025,-0.058212196796120524,1.043010663937966,0.5147254522405548,-0.10050378152592128,1.1200603420098685,-0.713508330235368,-0.1525953046598003,-0.2157804364226433,0.008413774596329597,-0.18344365705379576,0.6813462921853234,-0.5467557911654422,-0.061511221514020865,0.9318766479485603,-0.23807234771607205,0.7155006190490253,-2.4895343389395417,0.11177026082014685,-0.3679648841090628,-1.0147323325680273,3.3094536259335,0.20293061867277948,-0.056104395537149326,-0.8291090273775163,0.1256445446166244,0.2806783546449277,0.21231350999956977,-1.8996543067400447,0.3711732816395485,0.23233528815061458,0.0,1.3824315227512705,-0.1428571428571442,1.8001057466323953,-0.7512535996192062,-0.6535792725422789,0.5457520527499519,2.919556391613211,-0.11702704185909917,0.446981512053907,-0.04737411818157105,0.806401627710437,-0.14837061028313864,1.4621438751382307,0.08992529298838765,-0.8387880731406808,0.6924880016546305,2.1172398175090184,0.1679390536700156,0.0154209487905897,0.826412551243355,0.7040688684822178,0.838730100151832,0.5391997955108058,-1.6055307114964579,-0.557281541886606,0.45781223903687024,0.5566305598509653,-0.060628071391015566,0.16531567703487052,0.5419148978693381,-0.0715617542325274,0.24084406999044417,0.5494515954946478,0.951975699239495,0.5088332657956582,-0.4498490693972075,-0.486346529014126,-1.092780085180391,2.0495613679699423,-0.1658260141674557,2.167955866003692,2.2099549845717843,-0.16060351436258316,1.0269813154501417,-0.16837723682408676,0.036444493482436176,0.10351118518324137,0.4501029150133383,0.6472089445479148,1.1025408135242334,0.6788292160910829,-0.3325168064927289,0.1745582747042353,0.30438970182156083,-0.1904453466268296,-0.23544245433574965,0.6703476550659424,0.8716753662838777,-0.3660035166110882,0.543368071835998,0.8815682194712493,1.4078734078043602,-0.011083873886846984,-0.1977882537805922,0.38872845538623696,-2.290992576968242,0.1807049678581104,-0.3869016049895807,-0.17586311452816444,2.732459925554775,0.4058493286389258,2.3503564736732714,0.8945630706190041,0.06097217566121289,0.20563414500032706,0.38826047555163223,-0.49212924485937526,0.01758850753660638,0.5912602866868698,0.6383903812593833,3.257208183165813,1.3481411748271726,0.13442675429206946,1.1889038155269585,-0.2693758153839517,3.9437447011859974,0.07455922849390069,-0.6237618901581883,0.8748400314244709,-0.24670456423792148,0.6787091651117494,1.5924039065376416,0.6886992076248384,1.0836246573164179,0.32945924666463533,0.07088812050083339,-0.5237290006803145,0.5917131135470765,-0.10050378152592128,1.1861306244970513,-0.0903999103947539,-0.1572959476024222,0.5387920479664647,1.1973331255362658
Docetaxel,-5.2508502712825855,-0.5758515450940143,1.0140800068884195,0.4001538867824077,1.1510735919691941,0.7279797531780825,-0.3301962585789798,-0.5087667796264187,-0.12340351046845889,0.9866462902937119,0.2461028931871108,-1.1558684772537702,4.171349208720358,0.6195911144025015,0.21231350999956977,-0.6103072393518495,0.20897477295867709,-0.607503333628961,0.711979764540889,0.8179085066328834,1.5632044305695998,1.5217669620944612,-0.2312837022652474,-0.24119640942721926,-0.18255470288944808,3.3703668632959256,2.9131096045323344,-0.7445628175623445,0.5704284893338307,0.37425383540982765,-1.0266687643595689,1.2900144184412747,0.7418444695954125,-2.407279014023893,1.536228130348012,0.9592107976531064,1.0254895973914315,0.29349824579696704,0.8715216145401924,-0.339771569741764,-0.11391385711312024,-0.21288794589003385,0.1371010037421612,0.01702047727019785,0.6921059844465809,0.4530148135418543,0.45293272802094314,0.3251498360329252,-4.176508835363834,-0.21676642254378034,-0.5584928314420426,0.1406757648968238,-0.2762290929852068,0.3662929489769368,-0.14259486900484122,1.0799286634139194,0.642519781679052,-0.1674846894786221,-0.7341162529897232,0.6055216911265888,0.4311721961177891,0.16012815380508721,2.610474103511401,-0.25213854435241106,-1.1463631868292576,-0.2864619804003693,0.7790254184527706,0.3178160826996749,-1.1383152907442007,-1.2465670448217765,-0.26171454091656166,-1.1840584122536322,1.0951979289919436,0.21148598867784696,-0.4870837679093836,0.7283530160023383,-0.0017135672920315116,0.1559519417384769,-0.012454991099637654,-5.433607262210787,3.9581140290126333,0.16159196585821553,-0.1019034401941048,0.2898450958435093,-0.21380990168213046,0.5431650962005223,-0.16012815380508716,0.1814894226035276,0.16689290012012523,-0.4540831981319988,0.21231350999956977,0.7543733994449345,-0.12281998408607983,0.7408907425342849,-0.125807738226878,0.44630295767087136,-0.5851142067440462,-1.18313947361113,0.07439860717017989,0.09406282803073275,-0.12340351046845853,-0.03422006830632712,-0.16549481017205764,-0.08130380616553287,-0.45117832153044457,0.42567951983694197,3.8397343648441646,0.0014530420825186843,-0.7559902271049042,0.6829205350147599,0.555830713290216,-0.714662102014261,1.0488907670367649,0.144773823880053,0.1026105893112555,0.9668764029577916,0.5171202500319215,0.09489832166932233,0.5476866790992371,0.5653973640067631,0.6111247856989891,1.6042163942457228,0.13948854588900853,1.0661246053774653,1.680324059892195,-0.7879915467616019,1.4251809941254532,-0.4513488290434967,0.21810639438775745,-0.21286231744786763,0.4462409343557022,-0.5911111398983229,0.8526703855727923,0.9996094322590293,1.7684487464820053,-0.4209245286258647,-1.271527046261874,-0.10050378152592128,2.021288277865699,-1.2501493232866,0.2798005430074258,0.4668343642134365,0.17101487138900712,-0.18344365705379576,0.7301322420088419,0.03412699859298808,-0.061511221514020865,0.5247627844258453,0.5692315697493612,0.12731070342176282,-2.4895343389395417,-0.8607924145704657,-0.3679648841090628,-0.2642961299115602,0.5314108947137631,-1.430233455713137,-0.5877092182153432,-0.499737452091267,1.2308373863265845,1.675887924035291,0.21231350999956977,-1.8996543067400447,0.26635976673909445,0.1350135037154648,0.0,2.1184192297836493,7.000000000000065,0.7428083626033447,-1.0488247450321795,0.5649027292298652,0.5457520527499519,2.919556391613211,-0.6932085522274627,0.6774159426890751,-0.04737411818157105,0.28695461056436894,-0.14837061028313864,1.4135838217088688,0.39384865395106883,-0.318118474002574,2.944404599215532,1.053487137725871,-1.7346879916110576,0.26654591008365214,-0.5873704217064816,2.651516394585284,0.9840655661834754,0.5296717834472948,-0.05860162052987559,0.9883777250447027,0.21738003717640875,-0.8751581932534147,0.5068970544428921,0.16531567703487052,0.11818641528827299,0.8504762489915288,0.09584152388816355,0.044537217564802535,0.6741193509283009,-0.26465671102634974,-0.4498490693972075,0.15173634438148062,-1.291076995977737,0.377399270737784,-0.1658260141674557,-0.5812890067202544,1.1386084023766183,-0.16060351436258316,0.21051085053992566,-0.16837723682408676,0.029437428495172512,0.3803728647208793,0.3134761593090325,-0.0029340130370974094,0.5590675792391815,0.3264412625364673,0.2369968781326359,-1.233344914044529,2.006138827927155,-0.1904453466268296,-0.23544245433574965,-0.46191565162645304,1.041882582446874,0.04553586798379715,0.0008775121561706662,0.014225322556326341,-0.6246618237350443,-0.011083873886846984,-0.728542390644338,-0.9771013360341898,-0.09667689140389236,0.1807049678581104,-0.3869016049895807,-0.17586311452816444,2.732459925554775,0.6683495703138408,-0.8205275814963305,0.5200949078615794,0.6799475381782107,-0.9775712427274165,0.5891998833346186,0.7428605038452082,1.649161952210626,0.20488814430403515,-0.31229497480551105,1.4599757919009717,0.07809695892223556,-0.7313687458039189,1.3844511949450813,0.06205597805159244,3.9437447011859974,-0.8546258148307239,-2.207242623971185,-0.4339792838920911,0.03643953713280599,0.6787091651117494,0.3741691165323624,0.19356664390505193,2.1350891675596357,3.7065319917675343,0.07088812050083339,1.0436853864477806,-0.1514707714533443,-0.10050378152592128,0.15765951312318394,0.15909096124715474,-0.1572959476024222,-0.05766295229297654,2.9066819555941956
Gefitinib,0.19044534662682955,-0.5222226112188219,-0.9835449757648281,0.6690605113864522,-0.9513768169550667,3.0644956693136467,-2.1456918877641935,2.6661838585324755,-0.12340351046845889,0.3716610471014005,-1.3576128532318235,-0.2853075235710712,1.5946484730759751,-0.9229018406667399,0.21231350999956977,-0.03665149642793378,-0.43785808766297407,0.7532636087036139,1.9407223090759673,-0.3794962606548108,0.6227856285209475,1.5217669620944612,-0.2312837022652474,-0.24119640942721926,0.6947599696156322,3.3703668632959256,0.2819446661607454,-1.6093331541637017,-2.074449039338251,-0.4799014749943577,-1.328503953390417,-1.5376811476653962,1.6060647218651307,-2.7550784105706607,-1.5079317174137679,2.542664959994233,-0.6623153485832708,0.7014582381516696,1.7415324908534342,-1.704039267629047,-0.11391385711312024,2.9023349461552224,0.004334133142154302,-0.5592627119736104,-0.06810093724568923,0.20694455169264114,-0.059337807349412575,-0.7940538570942339,0.22076470127148917,-0.7041143737318594,-1.8520584450819508,0.2836415066781578,-1.3979305734202487,-0.11208010053504723,-0.14259486900484122,-0.5764809237630492,-0.8707054276136533,-0.1674846894786221,1.0947878104578177,-1.1365665542787875,-1.6270681830549274,0.16012815380508721,-0.7376782345886116,3.185046116420647,2.474784735688996,-1.2288654396870953,-0.9140432478573093,-1.116234133232843,-2.306929364013201,0.6862348157625975,-0.03230805353113477,1.665116188012158,-0.7102653555586178,2.229018021493898,0.1047478849076141,-1.090177176421755,-1.4029454392262697,0.1559519417384769,0.8090905967643994,0.17816588534478148,-0.2526455763199553,-1.2943985978444472,-1.251720947925455,0.2898450958435093,-1.6189390172425493,-1.9962470149790614,-0.16012815380508716,-0.7109609087997473,0.16689290012012523,-0.2683157780370897,0.21231350999956977,-0.7053275560817654,-0.39614535861384786,-0.9821431313564534,-0.9717490271549126,-1.493863862676746,-0.4297227410717902,-1.3072040723892069,0.07439860717017989,0.09406282803073275,-0.12340351046845853,-0.03422006830632712,-0.16549481017205764,-0.08130380616553287,-0.6615424621676412,-1.0065919864171124,1.7784974399815,-0.9415780600059102,-1.423926554338572,-1.7348948660725332,-1.243714776360902,0.4628932729655565,0.4655876943693813,0.1663429513111925,0.2716237351035133,0.6566518947923865,2.2674494659257616,-0.41941162848005514,1.4033650515091436,-0.39034619570899187,-0.14671034765551055,1.279592519526057,1.1723100649530167,1.1245282260179525,2.7670379923317063,-1.0960650214607477,-0.41268705819321294,-1.1400972351507437,-0.27142220823522034,-0.7606606005293202,-0.5659136913364543,-0.10057081094412819,-1.345172340176367,0.13815848586357052,3.6851205733139776,1.7709900733282522,0.06564107212223001,-0.10050378152592128,0.356297399425678,1.2881087225704992,-0.6555881775406989,-0.6975577850250988,0.17101487138900712,-0.18344365705379576,0.09117732342082127,1.3608570142982592,-0.061511221514020865,-0.5258807100745476,-1.1089487304403245,-0.9969999807048678,0.1956530753773762,1.3859688241174295,2.4438288204192755,0.3328557308715914,0.7830962118198536,-0.957062193738921,0.4702886926557838,2.4103325335469346,-0.2907924424227971,-0.37578081497967264,0.21231350999956977,-1.8996543067400447,-1.625477864464921,-0.5248760973972025,0.0,0.03376587403092071,-0.1428571428571442,-0.45118515064005293,0.3186891637808602,2.209553035476586,-1.8448247155562787,2.919556391613211,-1.7988633773150948,-1.1912488480007082,-0.04737411818157105,-1.473232678437366,-0.14837061028313864,0.730012865336735,0.5271547894316606,0.9773031595361857,-1.4744848608358843,1.056316272729054,2.133481279027387,0.0316905127048086,-0.7911925093083401,1.373821090061029,0.43684007342850856,-0.3237568723283849,-0.05860162052987559,1.9895501641031483,1.8251054890491432,-0.16662236223206933,-1.6661145150207106,2.606667599267178,-1.4285068768935327,-0.9448630528576891,-1.2191269484749239,-1.308707033611528,-0.2443254873235741,-0.8166264951607499,1.6606269278638595,0.15173634438148062,0.43005236005047864,0.7937530766557708,-0.1658260141674557,0.6763623265258545,-1.0094872585376609,-0.16060351436258316,2.950569584203581,-0.16837723682408676,-0.6325654728838896,-0.49135551835273694,-1.718234576404007,-1.931817166454945,-0.2510336321535508,-1.645294447876718,-1.8228529462138965,0.20329633821734117,0.4197351588780514,-0.1904453466268296,2.5271345718155076,-0.46647581501475277,0.8346843925434221,0.7150783003703831,-0.5971383070072326,-0.28322963029833575,0.043461102491105415,-0.011083873886846984,-0.6740534676495038,-0.7502860475427945,0.3105117995406308,0.1807049678581104,1.4019025697916176,-0.17586311452816444,2.732459925554775,-0.9498983556823315,1.4415882088471943,0.5304251984112615,-1.4851531731696932,2.672260605231249,1.8399173444489019,0.5459547093555269,0.8206519234135647,-0.2717554880049853,-0.10883575553154967,0.7340227257199388,0.505673091261969,1.2184573954122964,1.5434093014467294,1.6813788826675464,1.487547424641378,-1.3537338935782357,-0.9486572528474367,-0.13112555425480046,1.002141187997389,-1.4522790517568986,-1.2463954733329796,-0.24358669572804925,0.5302470059490672,0.4801030540245959,0.07088812050083339,-0.4938124404591253,-1.028859367976267,-0.10050378152592128,-1.3669261711520222,-0.6066377047677941,-0.1572959476024222,-1.1869219384902947,0.8229339294057729
Navitoclax,0.19044534662682955,0.03644202091892174,0.4273020797544619,-0.06553543851066866,1.472870757703198,-0.19775897443386903,0.29946861296864674,-0.42040643280348683,-0.12340351046845889,0.3160356209933612,0.5890542243701582,-0.09208263534181926,-0.3094734012454928,-0.011574388989191938,0.21231350999956977,-0.15983675485726795,0.40843364091448503,-0.6678825980648074,-0.06576714777963381,0.9558713343501646,-0.8984062008830289,-0.4835042971073729,-0.2312837022652474,-0.24119640942721926,-0.18255470288944808,-0.31395968373774474,-0.23623954637131264,-0.4165370645424083,0.435423921465108,0.37803813019659116,-0.49879481563389516,0.6879386694749022,-0.7026821355944896,0.3557195669112798,0.6481162678607127,-0.022955347334548366,0.05581810730795196,-0.2725506197510321,-0.31916955527514757,0.19439858038810887,-0.11391385711312024,-0.21288794589003385,1.3388370266099263,0.6457474059815059,-0.24309191029935023,-0.010662475737816243,-0.6765735111535074,0.2625018980938885,0.22076470127148917,-0.6440866056035426,0.0995253967217631,0.4513231506460068,0.7467000253512395,0.3662929489769368,-0.14259486900484122,0.48034018553736213,-0.19575624817881057,-0.1674846894786221,-0.9256153122241039,0.6055216911265888,1.0843072078887324,0.16012815380508721,0.2541863576730265,-0.537001858912237,-0.49410890649628364,0.46436695798241007,0.508874457618713,0.7700088729607049,-0.003929657253594855,0.17830443962096126,0.36424778522603035,0.22689017931055544,0.28487768718082257,-0.85722842022474,-0.21752309299426423,-0.15700106757524984,-0.3814791402682053,0.1559519417384769,-0.2598969257818083,0.17816588534478148,-0.2526455763199553,0.11617961536927973,0.25306852940797686,0.2898450958435093,-0.48547026379353103,0.2811763443216265,-0.16012815380508716,0.5170061001093126,0.16689290012012523,0.4008487536088737,0.21231350999956977,0.17283131965346565,0.534131653868382,-0.02092300484808752,0.3276049383219273,0.6754083861046762,0.7239200356607384,-0.04931996918556865,0.07439860717017989,0.09406282803073275,-0.12340351046845853,-0.03422006830632712,-0.16549481017205764,-0.08130380616553287,-0.07141908233130995,0.06212339268010579,-0.283441814285983,0.3021976325519365,-0.8832668374689991,0.6829205350147599,0.39113047296850967,-0.4628289066392141,0.3187387513481238,0.47174854829075685,-0.612855673268849,0.813912720363277,-0.12589022942069764,0.7131721957569039,0.23286271435716696,-0.2824624199945555,0.4713505061157918,-0.4486583266054762,-0.1767414219832432,0.445128592993989,0.33391488315778217,-0.37245427167567347,0.16070817682911295,-0.4064510202268563,0.13459182166692113,0.4491593736428901,0.10848574781951865,-0.10057081094412819,0.11592423119605645,0.49886723458072024,-0.6215342239099356,0.4085563910289509,-0.772075652321572,-0.10050378152592128,-1.093232142670557,-0.5818072310609274,0.2517702578857344,0.03643791641612041,0.17101487138900712,-0.18344365705379576,0.231373551956323,-0.2235748196043548,-0.061511221514020865,0.4204342699070806,0.6832715869480568,0.14875314460688993,0.1956530753773762,-0.6598340853898454,-0.3679648841090628,0.22598344020196848,-0.16393651154411223,0.5497869815569911,-0.49901739823410785,-1.1240422683162854,-0.09608485776500968,-1.4048816292841075,0.21231350999956977,0.4838303871428112,0.13341627427248162,0.3812487473216731,0.0,-0.02209130427686004,-0.1428571428571442,-0.4181641813987297,-0.22833909620347284,-0.6535792725422789,0.5457520527499519,-0.34251778896020896,0.7518183492715254,0.48621786227829056,-0.04737411818157105,0.7067078956210301,-0.14837061028313864,0.6567293899399256,-0.9370914080944261,0.0758502692817968,0.20634805016999203,0.095730413823558,-0.3360498707059924,-1.576529848176957,0.40555569789137524,0.04835626895916442,0.03230583519856613,-0.5683201236635648,-0.05860162052987559,-0.2293145506857891,0.21738003717640875,-0.4120468901655121,0.21628716509922705,0.16531567703487052,0.5148067910296964,0.8504762489915288,0.46014129807398413,0.15516086319817554,0.5180367858284082,0.2214190570762939,-0.4498490693972075,0.15173634438148062,-1.5789375410199495,-0.29431986840143254,-0.1658260141674557,0.16587209617409268,-0.24855234921263095,-0.16060351436258316,-0.6015793617480745,-0.16837723682408676,-0.189116629844372,0.20830417454668793,-0.045158525973410496,0.2897596496446063,-0.07807896426434402,-0.03242402416788883,0.7096884423835574,0.4231260796545634,0.16135334846275684,-0.1904453466268296,-0.23544245433574965,0.3704212099617096,-1.2497852557773752,-0.1387181935219974,-0.14670677924945305,0.36488330886580667,0.09858644794763564,-0.011083873886846984,-0.5521637926652421,-0.3033326988563433,-0.09667689140389236,0.1807049678581104,-0.3869016049895807,-0.17586311452816444,0.04743141087708807,0.4521335635501833,0.4139806120928073,-0.46007016909241727,0.6799475381782107,-0.10229126236950238,0.5733406080880341,-0.5525465249693573,0.2789122978867468,0.547520795588667,0.38656231479121944,0.5762287533788591,-0.22810248457016352,-0.5445020341074395,0.23347106352564945,-1.0825826898402995,-0.3275251979648424,-0.2833448934093942,0.10712202122397085,-0.14410965891836158,0.16105941159266388,0.6787091651117494,0.3741691165323624,0.5399190898084815,1.6124995358898184,-0.09550699801482646,0.07088812050083339,1.1166105198832585,0.37053826494684977,-0.10050378152592128,0.21336350772450746,0.6478819108690166,-0.1572959476024222,0.2121081971715011,0.754998130236077
Vorinostat,-5.2508502712825855,-3.2765038084634153,-1.3473398293227512,-1.8403032020170653,1.609775861824686,0.9830389228047471,-1.5320699955004577,-2.8199061454636194,-0.12340351046845889,-1.5670026780815716,-0.6673987685763262,-1.1399377080396378,1.276764132091278,0.08021499562200915,-2.3582059882454556,-2.8428662746191944,0.1508651700756254,-0.6605957736732813,3.8583610610212182,-1.190540767937726,2.1131533652503585,5.756228970391371,-0.003729922115885789,0.0155583620321962,5.657931678372002,1.8158702181700739,-0.3595751675634866,-2.1415361340085592,0.5351554450479148,-0.5552025569727783,0.9347435947287122,0.1626228148464404,-0.7026821355944896,-1.9301220059838975,-2.128397715666205,1.9344738564801975,-0.7097396287997816,-0.25838369000154393,-0.6617094197002815,-2.0867097143097775,5.881639664157445,-0.2853531852701582,0.8874950175576083,-0.27565238237980966,0.32989507993380807,-0.768597185587293,-0.40090364189012356,-1.4323999306756094,-7.380451201817089,-3.2716367510698556,-1.4844417521607651,0.4558139810320765,-0.9154796140614054,0.013123155653118775,2.3147847236225267,0.225033005916038,-1.6434892552998224,-0.1674846894786221,0.9503294073242307,-2.4060571434225615,-0.6214300010019274,0.16012815380508721,2.902565923177079,2.7466090262798812,-0.12802754635636662,-2.433336205569702,0.6412958218411544,-1.9412141502977416,3.1050569252379856,0.04645232186808909,-2.947085215375963,0.07967637462454204,0.06391631737548462,1.896480370632336,0.21639287402970547,-1.6936580134055006,-2.5493609570359577,-4.324615849843467,1.7486598640324909,-3.5843665274500793,3.9581140290126333,-1.07455155929432,-1.0436309425313757,0.2898450958435093,0.10472640719586442,-0.09812708895872936,-0.16012815380508716,-2.6027862862496787,-4.5821116255055765,-0.9406704338226642,-2.3582059882454556,-1.2118251265318785,-2.736330045960826,-0.4981051144163012,-0.9983381783278917,-3.285409278556439,-3.1137758461184135,4.451855678530783,0.07439860717017989,-2.3747577034451126,-0.12340351046845853,-1.4606141948171747,-0.16549481017205764,-0.08130380616553287,-1.519126608952579,-3.193071830760901,1.3302125412396968,-3.2589445846321845,-1.3912564979487212,-2.794633677370797,1.5826206241155245,-0.2685712853601439,0.40584563991036504,-0.2285281559712781,-0.3193648179032751,2.140794176076746,3.253658422781935,0.1471037134783622,-0.33899773247584675,0.5606118297815538,-0.5937665625259025,-1.017724371306154,4.930228561736959,0.9037113412818888,3.568286700729364,-4.1655162052239785,0.8238317382472367,-2.1024992624800327,-1.9961621570733543,-2.142968005974829,-3.4667466466400434,-3.819786670301306,-0.3674957855795789,0.35118086289372213,3.878964323895461,1.4492029704894747,-1.8918614600075911,9.949874371066207,1.4777769506970244,-0.5954893297727913,-0.9449618960726623,-1.2543835891464234,-0.713482887743331,-0.18344365705379576,1.0505066858810312,-4.0902968358909755,-0.061511221514020865,-1.6836415903861173,-1.9122338113066948,-0.29933557145696627,6.139625973650476,1.0845145086139119,-0.3679648841090628,0.6642469271257337,-0.4669379873523574,-3.0804535366063788,3.3121725194193385,1.4640669377675433,0.19299280922099216,5.015037236889729,-2.3582059882454556,-2.983482889096982,-0.4037546576939792,-0.7119370401545273,0.0,0.7377423666936179,7.000000000000065,-1.77922722681152,-0.39928490783345727,-0.20086178982317265,0.6538038080309911,2.919556391613211,3.6413777472108677,-0.06027800999457316,5.305716254872263,-0.9867315643236806,7.040155860282699,-0.12150715072176327,-0.6042954709135284,-0.7317492087874697,1.8063808172919746,-0.8223472955494869,-1.8599896909715665,-2.093666795507698,-1.8652224119839558,5.242274200148731,0.3859641043964336,0.9482733512391119,3.461037019039636,3.542037541751289,-0.8630557272306055,-1.8823851772503537,-0.5151120747952923,0.16531567703487052,-0.6681826277623021,-0.2673880847950646,-1.5837275842253293,0.9389501779415302,-1.5800932953610376,-0.5135594631229243,-2.008901492662836,-2.2344229752521163,0.0815329095485226,0.8119215292501856,-0.1658260141674557,-2.228920351422568,-0.4922440921622841,-1.0856850850100628,2.367825701269428,0.8776762355543142,-0.07218089278077457,0.5404523377468207,1.012198447579658,-1.6288105198735612,-2.57273380262266,-1.5083004142216774,-2.3070660553422564,-3.3465261891688476,-1.9850155830803369,5.250850271282588,-0.23544245433574965,-2.6909061419380413,3.7990822302676475,-1.8105401849264693,-0.686531499930775,0.3809291114097434,1.0828869063161857,4.322516951776018,-0.3392290914772874,-3.396384566338855,1.9325476718426595,-4.758425924850393,0.2915945961955066,-0.17586311452816444,-3.9330169296564503,-0.6036224426613391,2.3111561389256896,1.8171946204907474,-1.929243043220453,1.6934002271599764,0.2895850782798576,-3.040579807663664,2.050951532228897,-0.8781952395654296,-3.6855797069759837,1.6804374548502952,-0.05726423264587494,2.044262819482845,1.0167118984201144,1.5488930134197418,2.388215623707236,-2.1571465451071212,3.529769083241242,-1.3451925075272857,-1.1855540610784432,-1.7576544983724007,-1.6527814643120833,0.12808525638761928,0.8068780315769757,4.393697592893718,0.07088812050083339,0.024235757124450415,-0.378532398151691,9.949874371066207,-1.336127124612291,-1.0758740706152872,-0.1572959476024222,-0.3163124621648826,-0.6113116018216467
Nilotinib,0.19044534662682955,-1.2456746410597432,-1.8705917803487153,-1.3912756546450025,-0.6185567353989854,0.40361908034598637,-1.442229653091781,-0.26929070754537165,-0.12340351046845889,-0.2829878491826884,-2.0454703018819482,-1.9947892912840235,-0.3094734012454928,-1.5947423731146309,0.21231350999956977,-1.674939640612854,-2.3821410665865765,1.1826529467513018,-0.06576714777963381,-1.0698405337344112,-0.5732040885308665,1.5217669620944612,-0.2312837022652474,-0.24119640942721926,-0.18255470288944808,-0.31395968373774474,-0.23623954637131264,-1.3060861362114131,-2.182619148244483,-1.165468950754487,-1.6660549189847962,-0.9761249684103558,1.6060647218651307,0.3557195669112798,-1.5079317174137679,0.4548545534687807,-1.2233870098662343,-0.7146216589792459,1.345542150149064,-1.704039267629047,-0.11391385711312024,-0.21288794589003385,-1.2688190504225365,-1.3955293575045289,-1.1734685390035775,-1.3519122837084798,-1.623099977239806,-1.2300346340336823,0.22076470127148917,-1.1277677801813804,-1.9068000346006562,-1.3734421416258307,-2.244496016345215,-0.11208010053504723,-0.14259486900484122,-1.5641550299017657,-1.3320212676878875,-0.1674846894786221,-1.144953679013482,-1.1365665542787875,-1.5180135677025164,0.16012815380508721,-1.4810602028345075,1.832032033623113,0.7981734717492297,-1.863681832418394,-1.5779437305941644,-1.6847718071436288,-2.079785437257571,0.17830443962096126,-1.4237916966314408,1.7344716670454177,-1.5526850579899234,1.3492102647711188,-1.6020846268305646,-1.8138787312728848,-1.1739056275674755,0.1559519417384769,-0.2598969257818083,0.17816588534478148,-0.2526455763199553,-1.5337799473306772,-1.5372246500319011,-0.23238981128167757,-1.7752670395971504,-1.6497772632374985,-0.16012815380508716,-1.003770171130527,0.16689290012012523,-1.7810251263784844,0.21231350999956977,-1.188412092106942,-1.5775386138622018,-0.8256612210793566,-1.6524670514284099,-1.493863862676746,-1.3730489047750116,-1.18313947361113,0.07439860717017989,0.09406282803073275,-0.12340351046845853,-0.03422006830632712,-0.16549481017205764,-0.08130380616553287,-1.4386599364580521,-1.3171371438925978,-0.283441814285983,-1.1989314650641343,-1.5448715711542669,-1.1771655554854297,-1.9925255798626118,-1.328921143592689,-1.2204282899741588,-1.5634068218991097,-1.1279971801607191,-0.2684728703822741,-0.12589022942069764,-1.6090758388280824,-0.8155503911047968,-1.9016239559808588,-1.104854935347655,-0.7177000224880238,-0.2613530460227346,-1.4145055456563056,-0.41775556727481394,-1.8218316712935543,-1.3180439844743281,-1.1867030919699373,-1.7293571238382746,-1.963772305091954,-0.6651692968252518,-0.10057081094412819,-1.0874219469081159,-1.4876481760709659,0.6202557846544088,-1.173093627680585,-0.8685730123973159,-0.10050378152592128,-1.3696277786313495,-0.48536336356068127,-1.654942565855732,-1.7966573511435187,0.17101487138900712,-0.18344365705379576,-1.3386426704846,0.8635253113724876,-0.061511221514020865,-1.4464891060511949,-1.6238929065088983,-1.2689818412597675,-2.4895343389395417,-0.3633883050269456,2.4438288204192755,0.22598344020196848,-0.3086603639932547,-2.282879109354876,0.10004888956314369,1.4938637979884772,-1.1047768208516644,0.0018066693729489253,0.21231350999956977,-1.8996543067400447,-1.7769014834526864,-1.6011886021287733,0.0,-1.4747609686753052,-0.1428571428571442,-1.2404233108160838,-0.22833909620347284,1.2610931875359912,-2.455788335394017,-0.34251778896020896,-1.4850819104103992,-1.7783490163721252,-0.04737411818157105,-1.4295688997821927,-0.14837061028313864,-0.766095545821219,-0.37743203343303117,-0.43810654696035184,-1.9984036864893497,-0.36278743503104977,-0.02724810767342035,0.13698511961102808,-0.5918608595938551,-0.47768687192189346,-1.2005523230330941,-1.9851107691448795,-0.05860162052987559,0.20566988867800465,0.4198956375595473,-0.9310881765680654,-1.4973641484234606,-0.5898616970832407,-1.5480630249293248,-0.9448630528576891,-1.4336784100270745,-1.5629146928273763,-1.2046508931016209,-1.1283983218817712,1.6606269278638595,0.15173634438148062,0.9624639437139876,-1.2677456686637643,-0.1658260141674557,-0.5812890067202544,-0.24855234921263095,-0.16060351436258316,0.7306297432122997,-0.16837723682408676,-1.2865545699727252,-1.4661016633878206,-1.4105464542166763,-1.931817166454945,-1.3013607343039912,-1.7748656902133573,-1.8228529462138965,-1.016442407548068,-1.8933544367558701,-0.1904453466268296,2.5271345718155076,-1.9476222208571516,-0.6712106152726895,-0.29399350125769147,-1.0543373838473329,-0.9667938254736073,-1.525940442063607,-0.011083873886846984,-1.6049854940359185,-1.4325480614805934,-0.09667689140389236,0.1807049678581104,1.4019025697916176,-0.17586311452816444,0.04743141087708807,-1.7339257427433543,-0.5095900527584436,-1.218137368434192,-1.4851531731696932,1.0267638740087865,0.09001568027712341,0.2797451268743136,-1.3203901605101696,-1.7593583711214955,-1.3430544945200313,-0.4523340215065807,-1.5309092162367135,-0.7388340871562221,-1.076779492825489,-0.07410392408477166,-0.3275251979648424,-1.2184273774358956,-0.9486572528474367,-1.765729104917667,-0.0672090954068258,-1.4522790517568986,-1.2463954733329796,-1.8666699890227063,-1.391255869716627,-0.7307169477152654,0.07088812050083339,-1.677166631678275,-1.6239891471736088,-0.10050378152592128,-2.0390145635736334,-0.8036568738370303,-0.1572959476024222,-1.683205546274941,-0.9046809806147269
Olaparib,0.19044534662682955,0.14904876563087666,0.10557257997984104,0.38235521030699937,1.5678056852236748,0.2672093335849722,0.8595309777679581,-0.42040643280348683,-0.12340351046845889,1.3112669162555024,0.5890542243701582,-0.09208263534181926,-0.3094734012454928,-0.0816489215833962,0.21231350999956977,-0.15983675485726795,1.4487017641782796,0.2672339531963183,-0.06576714777963381,0.5495854237216627,-0.8030878321969487,1.5217669620944612,-0.2312837022652474,-0.24119640942721926,-0.18255470288944808,-0.31395968373774474,-0.23623954637131264,0.1170509427067638,0.435423921465108,0.37803813019659116,-0.49879481563389516,0.6879386694749022,-0.7026821355944896,1.6683498235408833,0.6481162678607127,1.4384162537542247,1.2225194369774686,-0.21561716208847292,-0.23661312230882492,0.19439858038810887,-0.11391385711312024,-0.21288794589003385,1.57553934635895,0.43953766183192655,0.9578280290717892,-0.010662475737816243,0.4909186150408606,0.3542929178667165,0.22076470127148917,-0.6440866056035426,0.3946006962613633,0.782280416549232,0.7467000253512395,0.3662929489769368,-1.5210250692143132,0.48034018553736213,0.3278139448733551,-0.1674846894786221,-0.9256153122241039,0.6055216911265888,0.7549466593994959,0.16012815380508721,0.2541863576730265,-0.537001858912237,-0.49410890649628364,0.13551693931871003,0.508874457618713,0.7700088729607049,-0.003929657253594855,0.17830443962096126,0.526304592393712,-0.4578052125281828,0.9079309501039904,-0.85722842022474,1.2177869070556235,0.8035494377194111,0.09275300145716399,0.1559519417384769,0.5140279237465855,0.17816588534478148,-0.2526455763199553,0.11617961536927973,0.25306852940797686,0.2898450958435093,-0.1420630191923248,0.6667620752579619,-0.16012815380508716,-0.02846825494875869,0.16689290012012523,0.4008487536088737,0.21231350999956977,0.17283131965346565,0.534131653868382,0.9608652200095181,-0.03959587864713396,0.6754083861046762,0.7239200356607384,-1.3756461550742352,0.07439860717017989,0.09406282803073275,-0.12340351046845853,-0.03422006830632712,-0.16549481017205764,-0.08130380616553287,-0.07141908233130995,0.06212339268010579,-0.283441814285983,0.3570367486875184,1.028265370896504,0.9757386617180098,0.7144606807133964,0.5357846196867797,0.5382676134289353,0.296818768319339,0.06424802372025283,0.9706218328213526,-0.2957234587287217,0.46081442853968374,0.45640317806336583,-0.05738956824865331,0.3448187536855986,0.5568839274036858,-0.1767414219832432,0.5192826208458604,-0.41775556727481394,-0.37245427167567347,0.2425630633109098,-0.4064510202268563,0.13459182166692113,0.4491593736428901,0.14849546715645923,-0.10057081094412819,0.7793936296349357,0.6962475333931216,-0.6215342239099356,0.7977596953367573,-0.772075652321572,-0.10050378152592128,-0.4062002582559961,-0.5818072310609274,0.2517702578857344,0.5048103067378135,0.17101487138900712,-0.18344365705379576,0.723427565850878,-0.2235748196043548,-0.061511221514020865,0.44461039988697376,0.6832715869480568,-0.24075704085309277,0.1956530753773762,1.4455714017241263,-0.3679648841090628,-1.830299130619487,-0.8693430967119162,-0.5368554508728389,-0.6945755978833612,-0.5764587363845808,-0.09608485776500968,-0.6006317845528284,0.21231350999956977,-1.8996543067400447,0.4381402887807294,0.8275478658224587,0.0,-0.02209130427686004,-0.1428571428571442,0.0632912398394969,1.53281079376473,-0.6535792725422789,0.5457520527499519,-0.34251778896020896,0.7518183492715254,0.48621786227829056,-0.04737411818157105,0.806401627710437,-0.14837061028313864,0.15136772494103834,-0.4957226882885256,1.1649327308665494,0.20634805016999203,-0.11323181558124557,-0.3360498707059924,0.004523241673867986,-0.1322806583938327,0.04835626895916442,1.2191417606858346,-0.15216701032646643,-1.6055307114964579,-0.2293145506857891,0.21738003717640875,-0.4120468901655121,0.21628716509922705,0.16531567703487052,0.5148067910296964,0.8504762489915288,0.5075012771948691,0.15516086319817554,0.27326291921163726,0.6948138899888622,-0.4498490693972075,0.15173634438148062,-0.4241256228999422,0.31720424531891633,-0.1658260141674557,-0.5812890067202544,-0.24855234921263095,-0.16060351436258316,-0.6015793617480745,-0.16837723682408676,-0.5264907655111707,-0.10986607899006098,-0.40287963633868507,0.17841143768746187,-0.07807896426434402,0.4143460822728522,0.2369968781326359,0.5374937761420171,-0.29079866433631135,-0.1904453466268296,-0.23544245433574965,0.3704212099617096,0.09426985626674224,-0.04274843328084032,-0.032252373255055804,0.7550781576228899,0.8241083942541118,-0.011083873886846984,-0.0890470388120668,-0.3033326988563433,-0.09667689140389236,0.1807049678581104,-0.3869016049895807,-0.17586311452816444,0.04743141087708807,0.4521335635501833,1.7325502751915722,-0.404338035490044,0.6799475381782107,0.09840909509263246,0.4600645561648536,-0.8787596100779899,0.6220496508056971,1.0346108012855897,0.38656231479121944,1.0790999525210665,-0.22810248457016352,0.4167032756174189,0.9345142734702758,0.857397504690299,-0.3275251979648424,-0.2833448934093942,2.7921931822925807,-0.35221540081953856,0.16105941159266388,0.6787091651117494,0.3741691165323624,0.8009669945586122,0.7742680478029923,-0.09550699801482646,0.07088812050083339,1.2382143723000139,0.37053826494684977,-0.10050378152592128,-0.07616175475911259,0.39417075446238414,-0.1572959476024222,0.2794708199670343,-0.3839388883439408
Axitinib,0.19044534662682955,-0.797238205331497,-1.112892538299322,-1.3912756546450025,-0.6880270286575988,0.40361908034598637,-1.442229653091781,-0.26929070754537165,-0.12340351046845889,-0.2829878491826884,-2.0454703018819482,-1.9947892912840235,-0.3094734012454928,-1.5947423731146309,0.21231350999956977,-1.674939640612854,-2.3821410665865765,1.1603978146458767,-0.06576714777963381,-0.753194499469916,-0.5494778314814223,1.5217669620944612,3.795074278784101,4.301846657401039,-0.18255470288944808,-0.31395968373774474,-0.23623954637131264,-1.3060861362114131,-2.208485189056996,-1.1923216812947164,-1.731729371867089,-0.9302829140104624,1.6060647218651307,0.3557195669112798,-1.5079317174137679,0.7407841058614161,-1.2016207197113657,-0.7146216589792459,2.551979934155842,-1.704039267629047,-0.11391385711312024,-0.21288794589003385,-1.2368513841927289,-1.377491460613926,-1.1451375996327204,-1.3519122837084798,-1.3078131351362534,-1.2559843514443068,0.22076470127148917,-0.6636403247470031,-1.9068000346006562,-1.3540608449226839,-2.244496016345215,-0.11208010053504723,-0.14259486900484122,-1.5641550299017657,-1.3441666691745846,-0.1674846894786221,-1.144953679013482,-1.1365665542787875,-1.5180135677025164,0.16012815380508721,-1.4810602028345075,1.832032033623113,0.7981734717492297,-1.5270068004034194,-1.5779437305941644,-1.6847718071436288,-0.003929657253594855,0.17830443962096126,-1.4237916966314408,1.7344716670454177,-1.53273944822394,1.3104084863098269,-1.6162000903087497,-1.8138787312728848,-0.8235435010075116,0.1559519417384769,-0.2598969257818083,0.17816588534478148,-0.2526455763199553,-1.5705713288802503,-1.570945561208733,0.2898450958435093,-0.784198899046158,-1.2729646663715444,-0.16012815380508716,-1.003770171130527,0.16689290012012523,-1.7810251263784844,0.21231350999956977,-0.6146305753197868,-1.5775386138622018,-0.8042012982645284,-1.2519696192659897,-1.493863862676746,-1.3730489047750116,-0.04931996918556865,0.07439860717017989,0.09406282803073275,-0.12340351046845853,-0.03422006830632712,-0.16549481017205764,-0.08130380616553287,-1.4386599364580521,-1.3171371438925978,-0.283441814285983,-1.1989314650641343,-0.26249653225297215,-1.1771655554854297,-1.9925255798626118,-1.3092423525670824,-1.2020032525180606,-1.4141889099361173,-1.0991318651204953,-0.2684728703822741,-0.12589022942069764,-1.5938511335302623,-0.7104971405714381,-1.9324840835853268,-0.9740836514586512,0.6122100846660619,-0.2613530460227346,-1.4145055456563056,-0.41775556727481394,-1.8218316712935543,-1.3180439844743281,-1.1867030919699373,-1.2989438529421964,-1.963772305091954,-0.6651692968252518,-0.10057081094412819,-0.5640214421715598,-1.1433749435037248,0.6202557846544088,-1.173093627680585,-0.931015535268955,-0.10050378152592128,-0.09090506145973112,-0.48536336356068127,-1.654942565855732,-1.1582598791737864,0.17101487138900712,-0.18344365705379576,-1.2462223257315512,0.8635253113724876,-0.061511221514020865,-1.4259479479848498,-1.6238929065088983,-0.8125987190937026,0.1956530753773762,0.2832769659899228,2.4438288204192755,0.22598344020196848,-0.23909916029939848,-2.282879109354876,0.10004888956314369,1.4938637979884772,-1.1410090624101714,0.0018066693729489253,0.21231350999956977,-1.8996543067400447,-1.784934741333528,-1.6371285528979458,0.0,-0.8790571125935294,-0.1428571428571442,-1.2126179749757093,-0.22833909620347284,1.2610931875359912,-2.455788335394017,-0.34251778896020896,-1.4850819104103992,-1.33335829007189,-0.04737411818157105,-1.4295688997821927,-0.14837061028313864,-0.2465534010227256,-0.37743203343303117,0.4510226218539137,-0.27653960299837516,-0.19964649459887776,-0.18518956444060297,0.13698511961102808,-0.9483656690017737,-0.5236714314825384,-0.14598187132876556,-2.0346037246003355,-0.05860162052987559,0.20566988867800465,0.21738003717640875,-0.9310881765680654,-1.1764844040111875,-0.5898616970832407,-1.2604347305629349,-0.9448630528576891,-1.4662030758460587,-1.5629146928273763,-1.2046508931016209,-0.6810886084998221,1.6606269278638595,0.15173634438148062,0.9624639437139876,-1.1201751524320238,-0.1658260141674557,-0.5812890067202544,-0.24855234921263095,-0.16060351436258316,0.7306297432122997,-0.16837723682408676,-0.7554646036411015,-1.284336942376117,-1.0319572068617895,-1.931817166454945,-0.8306564822520154,-0.8397883008069175,-1.8228529462138965,-1.016442407548068,-1.1928661181983464,-0.1904453466268296,2.5271345718155076,-1.9476222208571516,-0.70601199658776,-0.6234606994732944,-1.0674296300302455,-0.9667938254736073,-1.4994212965426068,-0.011083873886846984,-1.1878739103587308,-1.4325480614805934,-0.09667689140389236,0.1807049678581104,1.4019025697916176,-0.17586311452816444,0.04743141087708807,-1.7339257427433543,-0.5095900527584436,-1.218137368434192,-1.4851531731696932,1.0267638740087865,0.09001568027712341,1.398994915905938,-0.3445152617166231,-1.7417607069617564,-1.3430544945200313,-0.5272683123109627,-1.5810357361298533,-0.7388340871562221,0.01611184150227579,-0.07410392408477166,-0.3275251979648424,-1.2184273774358956,0.7618323594149965,-1.2041516586249539,-0.0672090954068258,-1.4522790517568986,-1.2463954733329796,-1.8772979161671328,-1.4648516739215842,-0.7307169477152654,0.07088812050083339,-1.6923727764752372,-1.661547767512478,-0.10050378152592128,-2.073309639678955,-0.3207589318771243,-0.1572959476024222,-1.683205546274941,-0.8496313742304213
AZD7762,0.19044534662682955,-1.5002685170344883,-1.2451411973934798,-1.4830509326037915,-1.5007678167291711,-0.5460412587562488,-1.155589859017691,-0.26929070754537165,-0.12340351046845889,-1.9284284674799486,-0.9175172632632338,-1.6164012232470475,-0.3094734012454928,-1.3790180677508166,0.21231350999956977,-1.674939640612854,-1.2566418300221722,1.5730783759982618,-0.06576714777963381,-1.708376824321361,-1.3796575071127009,-0.4835042971073729,-0.2312837022652474,-0.24119640942721926,-0.18255470288944808,-0.31395968373774474,-0.23623954637131264,-0.8812080527132657,-1.1786803997634423,-2.0690444591547457,-1.731729371867089,-0.9302829140104624,1.6060647218651307,0.3557195669112798,-1.5079317174137679,-1.4630974107374377,-1.8311974221073366,-2.5683608163205327,-0.2761837471311849,-1.704039267629047,-0.11391385711312024,-0.21288794589003385,-1.055401970737626,-2.0297079451638025,-1.8807029331672005,-2.294517694500023,-1.8084117911006985,-2.1466563116562,0.22076470127148917,-1.385945454703736,-1.3643233909999106,-2.314064629886029,-0.8885448097112036,-0.2991975166916845,-0.14259486900484122,-1.5641550299017657,-1.7566117829801673,-0.1674846894786221,-1.88343040541632,-1.1365665542787875,-1.0241032519130016,0.16012815380508721,-1.1832025995332645,-0.14149342320737512,0.7981734717492297,-1.5975961878891982,-1.5779437305941644,-1.397877588096674,-0.003929657253594855,0.17830443962096126,-1.596171599740675,0.011103349316703181,-2.347958181320638,0.23768462163653556,-2.0155816268906244,-1.1792801956654553,-1.6269167439321126,0.1559519417384769,-0.2598969257818083,0.17816588534478148,-0.2526455763199553,-1.779874873953381,-1.8893421376067407,0.2898450958435093,-1.9193537700090568,-1.7760182879714022,-0.16012815380508716,-1.6529621684926494,0.16689290012012523,-1.7810251263784844,0.21231350999956977,-1.817019685818422,-1.3765148565239775,-1.9517665593109905,-1.9850227264706,-0.34375271691473536,-1.3730489047750116,-0.04931996918556865,0.07439860717017989,0.09406282803073275,-0.12340351046845853,-0.03422006830632712,-0.16549481017205764,-0.08130380616553287,-2.1031167838604183,-1.1992582768727633,-0.283441814285983,-1.7238565411555484,-1.3928313985571692,-1.1771655554854297,0.7144606807133964,-2.071895549476085,-2.2572007451683715,-1.787234850330865,-2.110072648594476,-0.8982604838505479,-0.12589022942069764,-2.02345524315661,-2.235527506117783,-1.1437143891274792,-1.8674058277150827,1.701958993182391,-0.394788314081067,-1.2149288313159656,-0.41775556727481394,-0.9144555147273635,-2.318319187225587,-0.9238299065559914,-1.3273319863802988,-0.7556212939729186,-1.252777189862993,-0.10057081094412819,-2.091519683822233,-2.014531228147796,0.6202557846544088,-1.49058270435635,-1.2595004223592392,-0.10050378152592128,-0.7076592316903126,-0.9683910738412075,-1.377936601251812,-1.6582524629154711,0.17101487138900712,-0.18344365705379576,-1.8506651963990381,0.8635253113724876,-0.061511221514020865,-1.7717763303307614,-0.9554003914434283,-2.167439605654927,0.1956530753773762,-2.163038286728628,-0.3679648841090628,0.22598344020196848,-0.23909916029939848,-1.592013569579983,-1.0961179363568587,0.6054092366446063,-1.9657173410360869,0.670725162773922,0.21231350999956977,0.4838303871428112,-1.6343500045050705,-2.1236823932763604,0.0,-2.0084795296026146,-0.1428571428571442,-2.147636656609917,-0.22833909620347284,1.2610931875359912,-0.1653685328311279,-0.34251778896020896,-1.1536331034504195,-1.8104372920130711,-0.04737411818157105,-1.5388895031372376,-0.14837061028313864,-1.8770059160502905,-1.8752082211638867,-1.0121385859957088,-1.363119167548509,-2.3689088669442877,-0.18518956444060297,-1.2149974073412808,1.8177866001882896,-0.6087076062920047,-1.7242438649449003,0.3916002568633248,-0.05860162052987559,-0.46262692256358295,0.21738003717640875,-0.7165293912778296,-1.2900543215303295,0.16531567703487052,-1.8858813816216966,-1.6976181508527146,-1.702102162897043,-2.439209816423316,-2.1029941386766584,-2.14187409569598,1.6606269278638595,0.15173634438148062,1.6162734383553388,-1.899586783490169,-0.1658260141674557,0.16587209617409268,-0.24855234921263095,-0.16060351436258316,-0.5715440885197941,-0.16837723682408676,-1.2809302433946763,-1.226682635678384,-1.454682157382016,-1.431463928353096,-1.833329411858921,-1.3357402621738341,-0.6204272317746117,-1.741379895609144,0.16135334846275684,-0.1904453466268296,-0.6904988435055308,-0.875021278853034,-1.1443953385262098,-1.8227957189639161,-1.5958949855569489,-2.485977628533436,-2.178693486362475,-0.011083873886846984,-2.0177188620324067,-0.6224467131131325,-0.09667689140389236,0.1807049678581104,1.4019025697916176,-0.17586311452816444,0.04743141087708807,-1.4274696408379683,-0.5816923182088194,-1.7621964570679514,-1.4851531731696932,-0.9688487268079266,-1.4134210214188583,1.038763839601759,-0.9770494296979517,-1.9076298338617057,-1.3430544945200313,-0.9928138179582494,-2.173819839453471,-1.3181619449709456,-0.26412018542998666,-0.6895909882023407,-0.3275251979648424,-1.3592816007412372,-1.272606209823798,-2.4497892874205904,-1.923429739522544,-1.4522790517568986,-1.2463954733329796,-1.8164993530479026,-1.4648516739215842,-0.09550699801482646,0.07088812050083339,-0.8196633715871733,-1.518017473695411,-0.10050378152592128,-1.801199435364036,-1.0628172627225145,-0.1572959476024222,-1.6889641438641223,-0.8496313742304213
SB216763,0.19044534662682955,1.001830534702335,0.6494947070744089,1.2458851388658405,-0.10763520971633746,1.4739205058551264,-0.7295692187206673,2.0533058376924354,-0.12340351046845889,0.08452035148857845,0.35315596975195057,0.10092178212908973,-0.3094734012454928,0.08025521491036644,0.21231350999956977,1.2722442880676135,0.9275087995702596,0.01369514576827905,-0.06576714777963381,0.22103959676670903,0.18976321004993496,-0.4835042971073729,-0.2312837022652474,-0.24119640942721926,-0.18255470288944808,-0.31395968373774474,-0.23623954637131264,0.681002666234567,0.20860684178298455,0.13507475835255423,0.5600941229643678,-0.9302829140104624,-0.7026821355944896,0.3557195669112798,-0.13826770011813513,-1.6136526439746761,-0.04311102919569009,0.6916357149638053,-0.47485351299820555,0.12131480117705487,-0.11391385711312024,-0.21288794589003385,-0.14396184284230878,0.7099321135991333,-0.3212171153830363,0.8950376484376736,1.0471583320544742,-0.07946025120564713,0.22076470127148917,1.030041871634709,0.6569690475989951,0.647763542423808,-0.14209807097259639,0.3597630056065814,-0.14259486900484122,0.6428530555658712,0.36468088925797953,-0.1674846894786221,1.9041564298420253,-0.02987709236420816,-0.29428890356306514,0.16012815380508721,0.2541863576730265,1.2693784035929678,-0.49410890649628364,1.24470913992439,-0.2522590507750514,0.09555403266273904,-0.003929657253594855,0.17830443962096126,1.0472834398531798,0.12656139229326296,-0.6160646425277616,0.2870762039931292,1.332304134060206,0.3562389145602326,0.12022933959110041,0.1559519417384769,0.9690336329493944,0.17816588534478148,-0.2526455763199553,0.7547053542442271,1.0470898167848917,0.2898450958435093,1.6020961641330504,-0.01463216942688133,-0.16012815380508716,0.5681921959590047,0.16689290012012523,1.138052158752673,0.21231350999956977,0.4849451257114612,0.4325298289257692,0.048577449253199574,0.6979989995896161,-0.008906341763227634,0.40812927715599917,-0.04931996918556865,0.07439860717017989,0.09406282803073275,-0.12340351046845853,-0.03422006830632712,-0.16549481017205764,-0.08130380616553287,0.6199293145755632,0.4580215791819223,-0.283441814285983,0.35009931869406175,1.9270264692955454,-0.7339162909906006,0.39113047296850967,1.4054479811789231,0.1080592576724141,0.4438202966550928,1.5803987208076782,-0.2430017137267996,1.612565963291696,0.9128256770469071,0.6193374592612242,1.5974060846313751,0.4376224050285064,0.17061584812442332,-0.1767414219832432,0.5892980172653179,2.1650890924960233,1.4029192381699265,0.6427898762340825,0.551822815337883,0.7397785929005546,0.08301096888261215,0.517707515340798,-0.10057081094412819,0.05780658279883144,0.3042767779261205,0.33604771079632334,-0.10341400630998353,0.4561551487011537,-0.10050378152592128,-0.010355520754033823,1.0280696459943328,0.5546708954521291,0.9364346334550876,0.008413774596329597,-0.18344365705379576,0.8923368682021636,-0.2235748196043548,-0.061511221514020865,0.6961551686101445,0.07098631769597957,0.01285450764229724,0.1956530753773762,0.931072966599585,-0.3679648841090628,0.22598344020196848,0.83765084806228,1.2960181975635996,0.848173349498215,1.3710915124346377,0.9884098648822904,0.23979305150499208,0.21231350999956977,0.4838303871428112,0.32943142241146245,0.9495975469634752,0.0,0.12726210219093576,-0.1428571428571442,0.049445123178744346,1.1569992107669032,-0.6535792725422789,-0.1486031065842992,-0.34251778896020896,0.423474710250978,0.9516620150092001,-0.04737411818157105,0.13222600195987272,-0.14837061028313864,0.18720241986294509,1.3983575103289627,0.703628938912951,-0.3953542752595153,1.2431107524777647,2.133481279027387,0.09126036386175214,-0.8574802993348837,0.9407163012465967,0.5704263770871246,0.42412418232327836,-0.05860162052987559,0.9606256965111806,0.21738003717640875,1.09063713978341,0.07185699616981657,0.16531567703487052,0.22945788103993586,0.8504762489915288,0.2635447988214348,0.6073713572683018,0.3060709027080822,0.14238322218363075,-0.4498490693972075,0.15173634438148062,0.14730374009890554,0.3761980198351624,-0.1658260141674557,0.16587209617409268,-0.24855234921263095,-0.16060351436258316,1.3582451098962,-0.16837723682408676,-0.3392972341724882,0.7724754555938075,-0.12721790306419298,0.2448417124830454,0.8351183684144505,0.012111518427668078,0.22455005545558734,1.1775571203490511,0.16135334846275684,-0.1904453466268296,-0.23544245433574965,1.0881409856000372,0.41746850320131884,0.008103385088032438,0.13925688872985728,-0.20546950519489662,0.8862869742560158,-0.011083873886846984,1.3346036156223415,1.0165120392622133,-0.09667689140389236,0.1807049678581104,-0.3869016049895807,-0.17586311452816444,0.04743141087708807,0.4021080827825495,0.7741820382892509,0.15558708892668824,-0.1097382666332426,1.381888103081807,1.8340370581979495,0.9425426551108684,-0.20713561428610514,0.18838691428451193,1.0426266320703852,-0.24449906663590612,1.092145367794087,0.3738471506328639,0.48848030280276383,0.8016476369236963,-0.3275251979648424,1.0129007774234986,1.162953881514126,1.1185064684929957,-0.312622586107032,-0.09853465373767127,0.5564121544411146,0.6189248505895101,0.7742680478029923,-0.09550699801482646,0.07088812050083339,0.4275800890718784,1.0904969190940001,-0.10050378152592128,0.12279871596328415,-0.6681472213231641,-0.1572959476024222,0.48161002395939,0.6586033553769385
KU-55933,0.19044534662682955,-0.9501529971402098,-1.171292741542393,-0.3737530115204279,-2.609853959537456,0.13680554337073944,-0.5473842514005153,2.0533058376924354,-0.12340351046845889,-0.11128467245565286,0.11033300144306071,-0.9123611259961016,-0.3094734012454928,-1.2354848079792173,0.21231350999956977,0.2341980529574652,0.5266236672860279,-1.5883370691483722,-0.06576714777963381,-0.8265198886584056,-1.106404673820005,-0.4835042971073729,-0.2312837022652474,-0.24119640942721926,-0.18255470288944808,-0.31395968373774474,-0.23623954637131264,-0.8346037498937654,-0.7697346435981047,-0.6298696639348326,-0.02946632193075178,-0.9761249684103558,-0.7026821355944896,0.3557195669112798,-0.13826770011813513,0.32279281768808843,-1.082416812023041,-0.4009375392029535,1.8589768554368618,-1.1083625886984683,-0.11391385711312024,-0.21288794589003385,-1.2606791901872525,-1.310260564074831,-1.0154439367744863,-1.1247443447380596,0.162638268013367,-0.31804904505329434,0.22076470127148917,0.725550587833131,-0.4289776932792013,-0.7014771409085947,0.3383426700592336,0.3597630056065814,-0.14259486900484122,-0.023834738757220177,-0.7577878553735691,-0.1674846894786221,0.9772066529509942,-0.02987709236420816,0.1649739103292141,0.16012815380508721,-1.6362926644791145,0.8721010837101769,-0.49410890649628364,-0.7953928281818334,-0.2522590507750514,-0.2960238642464186,-0.003929657253594855,0.17830443962096126,1.0472834398531798,1.781896793471453,-0.7243599861178088,1.1276996443534522,-1.1502510460866018,-0.9219179514573477,-0.014227411067832157,0.1559519417384769,-0.7077377765559361,0.17816588534478148,-0.2526455763199553,-1.3827721895146206,-0.11761539015092959,-0.23238981128167757,-0.717279001937396,-0.981121380717027,-0.16012815380508716,-0.5152197812204647,0.16689290012012523,1.0773576205965067,0.21231350999956977,2.134294345714751,0.5763181481790236,-0.7203456550811548,0.04173392598063586,-0.8833130724723834,0.40812927715599917,-0.04931996918556865,0.07439860717017989,0.09406282803073275,-0.12340351046845853,-0.03422006830632712,-0.16549481017205764,-0.08130380616553287,-0.02089207242497884,1.1080324832984996,-0.283441814285983,-0.17415327304124645,-0.6266541362415271,-0.8939622852526371,-1.9925255798626118,-0.15199377752696588,-0.10289377050385919,-0.5408370668448366,-0.34812295635365986,-1.395984874594492,-1.8525447033956544,-0.6026964034084713,0.47407045365957257,-0.5666302757177428,-0.07264984030075827,-1.74787118342559,-0.1767414219832432,-0.25681366221953805,-0.41775556727481394,0.10578968136007762,-0.08400812005008894,-0.612820561788397,-1.2386936147017589,1.1612849944649823,-0.14622283386874138,-0.10057081094412819,-0.06636100367346448,-0.7458839980917631,-0.6215342239099356,-1.1924701695473978,0.8713446608875403,-0.10050378152592128,-2.070862078753342,2.872466678996344,0.8481118965624778,-0.7958251080940993,0.17101487138900712,-0.18344365705379576,0.1587461904159655,0.8635253113724876,-0.061511221514020865,-0.39877434387389254,0.03573724325955727,-0.026602444245479074,0.1956530753773762,0.4211773985553461,-0.3679648841090628,0.22598344020196848,0.3129410955923192,2.123406046727529,-0.9607671871725618,1.2977351559947725,0.1381074619570518,0.6099038054330282,0.21231350999956977,0.4838303871428112,-0.5192767957336,-0.39649020491812326,0.0,-1.2149080410054576,-0.1428571428571442,-0.00925896505358565,-0.22833909620347284,-0.6535792725422789,0.7042676072340821,-0.34251778896020896,-0.5587538135719567,-1.478850805566375,-0.04737411818157105,-0.5108992404302554,-0.14837061028313864,1.0191586557712349,0.25519384146516116,0.020809129301842977,-0.3953542752595153,-0.33946749265027243,2.133481279027387,2.5393301519711757,0.14327315414690442,-1.2561972826175642,0.004675510832142946,-0.5999361477728206,-0.05860162052987559,0.20566988867800465,0.21738003717640875,0.24511334186225706,-0.7037534732415052,1.7433738290202954,-0.8537250287521556,-0.9448630528576891,-0.8521735870431462,-0.4461841027873989,-0.53456818203973,-0.3878135770046426,-0.4498490693972075,0.15173634438148062,-0.4635016810814693,0.25609777672261436,-0.1658260141674557,0.16587209617409268,-0.24855234921263095,-0.16060351436258316,0.8143597877752361,-0.16837723682408676,0.1366961487199721,-0.32034509843769776,-0.4084515123505905,-0.5268382832302645,-0.4969047177383226,-1.0582228173594903,0.22455005545558734,1.1775571203490511,-1.8933544367558701,-0.1904453466268296,-0.9761382491837775,1.8381533562501655,-1.3580308190194323,1.444964721174849,-0.5984091250132076,-0.2885861789805543,-0.26132171027831064,-0.011083873886846984,-0.03434784336435263,-1.1422030751936512,-0.09667689140389236,0.1807049678581104,-0.3869016049895807,-0.17586311452816444,0.04743141087708807,-1.1766987210885067,-1.3711484376426848,-1.6631158157051233,-0.1097382666332426,1.5234040949448282,-0.01739782924694973,0.8118160558259402,-0.7939241156358405,-0.565289319205078,0.9891833450980052,-0.3061358950399478,-1.68469478166975,-1.2870558846934916,-1.0656761461459339,0.9831126306146873,-0.3275251979648424,-0.3521438144860256,0.10712202122397085,0.33214010723543913,1.8617475243080603,-0.09853465373767127,0.5564121544411146,-0.4684315286943787,-1.4648516739215842,-0.7307169477152654,0.07088812050083339,-0.44478252959963777,-1.5430899560988323,-0.10050378152592128,-0.2177659260913438,-0.2368723737059836,-0.1572959476024222,-0.5840646929191506,-0.43808432970930067
Afatinib,0.19044534662682955,-0.493618453591092,-1.112892538299322,-0.6169940224811994,-0.6880270286575988,1.6431724073549394,-1.446236356648027,-0.26929070754537165,-0.12340351046845889,-0.03182238709822571,-2.0505966887698075,-1.7502736117002549,-0.3094734012454928,-1.1144602588101356,0.21231350999956977,-0.9537880324586095,-2.390478846403657,1.2521541024068699,-0.06576714777963381,-0.9377316181559863,0.5197282370596867,1.5217669620944612,-0.2312837022652474,-0.24119640942721926,-0.18255470288944808,-0.31395968373774474,-0.23623954637131264,-1.1136983028426806,-2.0899450322748696,-0.6786572331111892,-1.731729371867089,-1.0665425181374755,1.6060647218651307,0.3557195669112798,-1.5079317174137679,0.11428362075469621,-1.431058547875715,0.06410309214628494,0.8446811624475303,-1.704039267629047,-0.11391385711312024,-0.21288794589003385,-1.3904457781989246,-0.852220545146095,-0.9419776025339295,-0.7655528151700682,-1.1050135921796218,-1.0308736393938873,0.22076470127148917,-1.4418210175649941,-1.7817034344485703,-0.6827542704867706,-2.250460389776146,-0.11208010053504723,-0.14259486900484122,-0.5764809237630492,-1.4009629294025137,-0.1674846894786221,-0.28880599963993503,-1.1365665542787875,-1.715870374794588,0.16012815380508721,-1.4810602028345075,3.2618975826415975,0.7981734717492297,-1.362430347524104,-1.5779437305941644,-1.6887831276575744,-0.003929657253594855,0.17830443962096126,-1.4237916966314408,0.9503432961428572,-1.5641906844344935,1.9168526490514735,-0.8333525015507567,-2.097397040299218,-1.0277256209974952,0.1559519417384769,-0.2598969257818083,0.17816588534478148,-0.2526455763199553,-1.4014945664201526,-1.570945561208733,-0.23238981128167757,-1.2418743776403511,-1.9422327212266925,-0.16012815380508716,-1.1417529592181486,0.16689290012012523,-1.7810251263784844,0.21231350999956977,-1.4885231622175026,-1.5863200018568788,-1.0560365375143124,-1.6693919786634024,-1.4983711056387565,-1.3730489047750116,-0.04931996918556865,0.07439860717017989,0.09406282803073275,-0.12340351046845853,-0.03422006830632712,-0.16549481017205764,-0.08130380616553287,-1.250622530347034,-1.0784784083712498,-0.283441814285983,-1.0800265224824253,-1.3213626940688004,-1.1771655554854297,-1.9925255798626118,-0.6071669075695894,-0.8150410143431643,-1.305103776363781,-0.25506665551313573,-0.5819216410812863,-0.12589022942069764,-1.0550171216279176,-0.17715965110522594,-1.1966435792244738,-0.8426414683761847,0.8657825254443334,-0.2613530460227346,-0.5316823938578175,2.1414741312990655,-1.8274465388593955,-0.6110282657598629,-1.1400972351507437,-1.107687436309939,-1.963772305091954,-0.5549244325141468,-0.10057081094412819,-1.2434631594697731,-0.9443738732315968,1.9525424809515641,0.3147778082732683,-0.931015535268955,-0.10050378152592128,0.433593817068622,-0.04505329203078942,-1.418963229525708,-0.49290708825274215,0.008413774596329597,-0.18344365705379576,-0.902697511859438,0.8635253113724876,-0.061511221514020865,-0.8442446255971336,-1.6730332154306264,-1.2839223973750218,0.1956530753773762,0.6050289869664114,2.4438288204192755,0.22598344020196848,0.6232128334232994,-3.474384318733017,1.0469227500208844,2.0874191318421498,-0.9481290047191084,0.2579456198210382,0.21231350999956977,-1.8996543067400447,-1.2660114638539006,-1.1053113350173944,0.0,-0.2737029297700815,-0.1428571428571442,-1.0638538717934973,-0.9039711764053032,1.2610931875359912,-2.465829452231668,-0.34251778896020896,-1.7029658738676134,-0.9998176981959188,-0.04737411818157105,-1.4295688997821927,-0.14837061028313864,-0.5496389614800354,0.3625449773222924,0.13146080033869117,-0.27653960299837516,0.18729865790241135,-0.18518956444060297,0.13698511961102808,-0.5713019343673988,0.3897975141650933,-0.4378989760887635,-1.1148765824465954,-0.05860162052987559,1.638372770217543,0.21738003717640875,-0.8984491008859197,-1.6661145150207106,-0.6423449452217666,-1.5480630249293248,-0.9448630528576891,-1.2968461994478682,-1.4052596385063953,-0.5393705983371075,-0.7214974402270526,1.6606269278638595,0.15173634438148062,1.2183683077342096,-1.099143111663865,-0.1658260141674557,-0.5812890067202544,-0.24855234921263095,-0.16060351436258316,1.5977073398688417,-0.16837723682408676,-1.5474265777839884,-1.474321867177361,-1.6673453928630602,-1.931817166454945,-0.68907874074227,-1.6499359817562682,-1.83001898316631,-1.016442407548068,-1.8933544367558701,-0.1904453466268296,2.5271345718155076,-1.9586290707119574,-0.015151383066153521,-0.26264513429213293,-0.3672374296665723,-1.0049857120987093,-0.6962662134893496,-0.011083873886846984,-0.6786748757737584,-1.4325480614805934,-0.09667689140389236,0.1807049678581104,1.4019025697916176,-0.17586311452816444,0.04743141087708807,-1.2191998662055121,-0.5095900527584436,-0.5833271942577588,-1.4851531731696932,2.113019769312571,1.0713458625930914,1.651373843696918,0.042073355558300246,-1.6360825370707044,-1.3430544945200313,-0.5272683123109627,-0.8372464987836452,0.20708292202621262,0.9755463344979759,1.5940273898563437,-0.3275251979648424,-1.2184273774358956,-0.9486572528474367,-0.7611077757906414,-0.07514746592760166,-1.4522790517568986,-1.2463954733329796,-1.1604436701028433,-1.4105560364110525,-0.7307169477152654,0.07088812050083339,-1.979912285700511,-1.1056501482666323,-0.10050378152592128,-1.5703499670999306,-0.8085383668636843,-0.1572959476024222,-1.6955476579701754,-0.4485318317631099
Staurosporine,0.19044534662682955,-1.1555898035453827,-2.018054147606819,0.1918879075045628,-0.8709155235902665,1.8362790805493692,-2.5444746153948015,2.0533058376924354,-0.12340351046845889,-0.5034276999758968,-1.8099588419940964,-1.6840946323603894,-0.3094734012454928,-1.0415034000880863,-5.886610620691492,-0.3078995240237817,-2.2228903962638493,-0.6182475276659324,-2.7144260265413243,-0.8844246574639655,1.4976446606113716,1.5217669620944612,-0.2312837022652474,-0.24119640942721926,-0.18255470288944808,-0.31395968373774474,-0.23623954637131264,-1.544608824734235,-1.8220730629013582,-0.8709281051101,-0.9677990581733334,-0.616942046282541,0.18635514418048782,-1.9301220059838975,-1.5079317174137679,0.409561458055286,-0.5908514107967944,0.1825803352540689,1.623855781764911,-1.704039267629047,-0.11391385711312024,-0.21288794589003385,-2.0675711833683215,-0.8456409721138193,-0.8487279136492849,-0.22122162465051226,-0.2763250337088303,-0.9080076667428957,0.22076470127148917,-0.7126679360053766,-2.2852096609573875,-0.4865143759869562,-1.9704729889630956,-2.76880587682444,-0.14259486900484122,-1.217317424602841,-1.2473957594817764,-0.1674846894786221,0.1369823048311361,-1.9568044660847184,-2.0115905936333274,0.16012815380508721,-1.4810602028345075,2.5151185954433233,-0.49410890649628364,-1.235910658034386,-1.5779437305941644,-1.60819119148182,-0.003929657253594855,0.17830443962096126,-0.03230805353113477,0.2561363180562419,-0.9357828734369175,2.4813368923818264,-1.0150969319603453,-1.1501194974757711,-2.1172847568587994,0.1559519417384769,-0.012454991099637654,0.17816588534478148,-0.2526455763199553,-1.5705713288802503,-1.1199850585795421,0.2898450958435093,-1.9214923449811356,-1.3597981249391196,-0.16012815380508716,-1.7467207490815668,0.16689290012012523,-0.2683157780370897,-5.886610620691492,-0.9434638027676991,-0.39614535861384786,-0.8920609173366404,-1.752263587148669,-2.6052627208815005,-0.6126146427064881,-0.04931996918556865,0.07439860717017989,0.09406282803073275,-0.12340351046845853,-3.4185435733380576,-0.16549481017205764,-0.08130380616553287,-0.8405077933586118,-1.6134269946267077,-0.283441814285983,-1.1148860596102173,-1.5591744141522463,-2.2637220994253013,-1.9925255798626118,-0.5545986139007293,-0.37577079692178805,-0.07733759027694855,-0.3384550997613211,1.446201999463643,-0.12589022942069764,-0.5010362350160859,0.11252525884025431,-1.1526662680324282,-0.9253250541706407,-1.2306447947257966,-0.04369802205393466,0.08796363903618144,2.27982467106023,-1.0675274880631054,-0.9512803111117931,-1.1867030919699373,-1.366572111494632,-2.156684749529753,-1.12081847555286,4.941363932294931,-0.9125603374247679,-0.8228656253632727,3.033352667866135,-0.218738996065083,-0.20383449378223947,-0.10050378152592128,-0.3470904235515781,0.9186811712216443,-1.168004818576194,-1.2709357430994577,0.17101487138900712,-0.18344365705379576,-0.12787040710410677,0.8635253113724876,-4.500561930606603,-1.2145319138343662,-1.531659342380273,-1.9967079047574177,0.1956530753773762,0.4803171679986424,2.4438288204192755,0.22598344020196848,0.89466453360712,0.1426520432519614,1.313179158756343,2.221101609607255,-0.9276340503951455,-0.9376621007711446,-5.886610620691492,-0.39706374752488915,-1.6769950673594893,-0.5655531287485172,0.0,-0.06360443585747058,-0.1428571428571442,-1.1465943050586105,1.2516277754482092,0.28965844448702005,-2.455788335394017,-0.34251778896020896,-2.116762317315266,-1.383015414647183,-0.04737411818157105,-1.4295688997821927,-0.14837061028313864,-0.43936823529979707,0.010893566782909552,-0.523462413440016,-0.3953542752595153,0.371307420662477,2.133481279027387,-1.023358998973807,-1.7735235027877934,0.6826106307859097,0.21877740247839958,-0.8660080853529076,-0.05860162052987559,2.1749006233239303,0.21738003717640875,-0.202988664345505,-1.8069584772166116,-0.5898616970832407,-1.5480630249293248,-0.9448630528576891,-2.112361682316971,-1.753974418733537,-0.9089633527904213,-2.54295575973565,-0.4498490693972075,0.15173634438148062,0.4018639563937318,-0.29602166208536446,-0.1658260141674557,0.16587209617409268,-0.24855234921263095,-0.16060351436258316,2.515969946722827,-0.16837723682408676,-0.9910161934200296,-1.3587681140090093,-2.1151056020220254,-1.7423080356008143,-1.1028566475848827,-1.7560808976699154,-2.1454848507271143,0.20329633821734117,-1.1928661181983464,-0.1904453466268296,2.5271345718155076,-0.46647581501475277,0.7724512049448131,0.41742733789235115,-0.8646531720312288,-0.29610568931429126,-0.49005055321228613,-0.011083873886846984,-1.0358017213030593,-1.128582859707041,-0.09667689140389236,0.1807049678581104,-3.9192139180177135,-0.17586311452816444,0.04743141087708807,-0.9309209872046053,1.427505433529016,1.0819819837821145,-1.4851531731696932,1.9048755951988792,0.9369359368366156,0.07201773802435839,0.7116950486504657,-1.0756787740639946,-0.9213122955085442,-0.9491369677615197,0.03710622264234392,0.4947078223002111,1.6745508481397073,-1.0154003010933448,-0.3275251979648424,-1.6229010792900747,-1.3199919142135668,-0.6051771114556855,1.002141187997389,-2.455625081843136,-1.2463954733329796,-1.0294619076913303,-1.3652311684294827,-0.7307169477152654,0.07088812050083339,-0.4346283415083722,-1.640393283741374,-0.10050378152592128,-1.7527912135051733,-1.0234061913623307,-0.1572959476024222,-1.351350334146683,-2.3665554244161506
PLX-4720,0.19044534662682955,-1.6103230139466156,-1.829744931861086,-1.6534078853786363,-0.6185567353989854,0.48989292729773926,-1.9153470864709663,-0.8821856390770294,-0.12340351046845889,-0.8348140854425132,-2.22799801759747,-2.045617267384109,-0.3094734012454928,-2.0586558874046523,0.21231350999956977,-1.8550061058601748,-2.455264676354519,0.6359595008284697,-0.06576714777963381,-1.3250744617675194,-0.8175542088137783,-0.4835042971073729,-0.2312837022652474,-0.24119640942721926,-0.18255470288944808,-0.31395968373774474,-0.23623954637131264,-1.5209236330595823,-2.214832172404413,-1.1109811148773305,-0.9044932457436157,-0.9761249684103558,0.18635514418048782,0.3557195669112798,-1.5079317174137679,0.06750687940311062,-1.3915080202187318,-1.049765300377562,1.4349327884289294,-1.3575698519700514,-0.11391385711312024,-0.21288794589003385,-2.176528185734973,-1.5435923214886265,-1.4316070036085131,-1.467122815770961,-1.8961118917843478,-1.636009809849395,0.22076470127148917,-1.4880823823878107,-2.0389885662073386,-1.497800536850287,-2.456852832373258,0.19313687860044945,-0.14259486900484122,-1.5641550299017657,-1.5604203959088938,-0.1674846894786221,-1.1999860692149014,-1.3731729577410132,-1.5328106362270328,0.16012815380508721,-1.4810602028345075,1.5756975200820156,-0.49410890649628364,-1.986727538355513,-1.5779437305941644,-1.8276425641105185,-0.003929657253594855,0.17830443962096126,-1.9659614555557288,0.21914343867749578,-1.171734924058404,1.3492102647711188,-1.8468860914642575,-2.0502572267193755,-1.4165316726090729,0.1559519417384769,-0.2598969257818083,0.17816588534478148,-0.2526455763199553,-2.1517776867498926,-1.7954345616193765,-0.23238981128167757,-1.9529134541264992,-1.1709526485611672,-0.16012815380508716,-1.134163220133056,0.16689290012012523,-1.8795945593351242,0.21231350999956977,-1.8529368182840302,-1.8899898574376182,-1.0386528258123306,-1.798142097717031,-1.7304508744069822,-1.6226911800742807,-0.04931996918556865,0.07439860717017989,0.09406282803073275,-0.12340351046845853,-0.03422006830632712,-0.16549481017205764,-0.08130380616553287,-1.8774777568488115,-1.886189407991867,-0.283441814285983,-1.4772322977344639,-1.5887495802894016,-1.1771655554854297,-1.9925255798626118,-1.5538238961669406,-1.33296706221474,-1.5685344175376545,-1.1279971801607191,-0.4335064008470067,-0.12589022942069764,-1.748341096541503,-1.083257672594728,-2.292543230841306,-1.334342887458779,-1.4830873273785055,-0.04369802205393466,-1.4970492816143204,-0.41775556727481394,-2.0216895105092343,-1.264302430080763,-1.1400972351507437,-1.5955589666810208,-2.2820645024505657,-1.1933493824668235,-0.10057081094412819,-1.0874219469081159,-1.6239483986287457,0.6202557846544088,-0.4530954406383019,-0.928047245270253,-0.10050378152592128,-2.108384347216014,-1.4846784489156246,-2.2048927175451047,-1.9806573139854462,0.17101487138900712,-0.18344365705379576,-1.7466072435391398,0.8635253113724876,-0.061511221514020865,-1.3696733255906883,-2.641168445623556,-2.006485727012932,0.1956530753773762,-0.6087646287059124,2.4438288204192755,0.22598344020196848,-2.669969368835704,-2.394684344231526,0.5580540419603409,1.3876082346060141,-1.3749391130759978,-0.3703625684289496,0.21231350999956977,0.4838303871428112,-1.9345630600160766,-1.6354195645039078,0.0,-1.4410129977516777,-0.1428571428571442,-1.4511782406370453,-0.22833909620347284,0.0837103917914909,-2.455788335394017,-0.34251778896020896,-2.3238814695994656,-2.15656707019817,-0.04737411818157105,-1.5388895031372376,-0.14837061028313864,-1.3024547391668424,-0.6662534584813354,-1.1880588404715613,-0.3953542752595153,-0.24701867890694773,-0.6373715123601139,-0.23608373247623535,-1.7237572541333945,-0.7843264060770682,-1.6879651261488502,-2.713069390604616,-0.05860162052987559,0.20566988867800465,0.4198956375595473,-0.9404005591367836,-1.9952028194973206,-0.5898616970832407,-1.718169299478587,-0.9448630528576891,-1.7102907855259966,-1.810982845566023,-1.503620652036982,-1.1771437076196312,-0.4498490693972075,0.15173634438148062,0.9624639437139876,-1.6305333523301382,-0.1658260141674557,0.16587209617409268,-0.24855234921263095,-0.16060351436258316,0.7306297432122997,-0.16837723682408676,-1.8283671568701756,-2.017147928143354,-1.6928263022257022,-1.7915746091681137,-1.9534189849877153,-2.0004195817129458,-1.487667025049398,-1.4611225578283005,-1.8933544367558701,-0.1904453466268296,2.5271345718155076,-2.339233503368607,-0.9979482731057219,-1.4324936848286753,-0.6145791853456977,-1.185964451832942,-1.4542461658592074,-0.011083873886846984,-1.912822097474579,-2.0151295251116146,-0.09667689140389236,0.1807049678581104,-0.3869016049895807,-0.17586311452816444,0.04743141087708807,-1.917219056392789,-0.5095900527584436,-1.3871392254441925,-1.4851531731696932,1.0267638740087865,0.09001568027712341,-0.04910197203766701,-1.6512612119101147,-2.0183447763342257,-1.6693085376269163,-1.1294597385415446,-1.5309092162367135,-0.7388340871562221,-1.910938731210727,-0.07410392408477166,-0.3275251979648424,-1.4160692547555316,-0.9486572528474367,-2.1417648570066468,-0.33141239115031385,-1.4522790517568986,-2.5450158905838554,-2.0560208341583097,-1.391255869716627,-0.7307169477152654,0.07088812050083339,-1.719168064983622,-1.9867267554213932,-0.10050378152592128,-1.6180808288053548,-0.5752985989770427,-0.1572959476024222,-1.893425083025965,-0.7908429960871803
